function [Y,Xf,Af] = myNeuralNetworkFunction(X,~,~)
%MYNEURALNETWORKFUNCTION neural network simulation function.
%
% Auto-generated by MATLAB, 21-May-2022 11:02:34.
% 
% [Y] = myNeuralNetworkFunction(X,~,~) takes these arguments:
% 
%   X = 1xTS cell, 1 inputs over TS timesteps
%   Each X{1,ts} = 60xQ matrix, input #1 at timestep ts.
% 
% and returns:
%   Y = 1xTS cell of 1 outputs over TS timesteps.
%   Each Y{1,ts} = 5xQ matrix, output #1 at timestep ts.
% 
% where Q is number of samples (or series) and TS is the number of timesteps.

%#ok<*RPMT0>

% ===== NEURAL NETWORK CONSTANTS =====

% Input 1
x1_step1.xoffset = [0;0;0;0;0;0;0;0;0;0;0;0;0;0;0;0;0;0;0;0;0;0.001;0;0;0;0;0;0;0;0;-35.945;-30.507;-42.158;-36.509;-47.571;-40.938;-51.099;-50.103;-34.814;-41.851;-37.378;-48.261;-42.44;-44.393;-36.027;-37.378;-38.068;-36.602;-37.102;-33.449;-33.52;-32.771;-33.939;-46.784;-40.75;-47.658;-49.709;-53.654;-35.392;-41.531];
x1_step1.gain = [2;2;2;2;2;2;2;2;2;2;2;2;2;2;2;2;2;2;2;2;2;2.002002002002;2;2;2;2;2;2;2;2;0.0423450699752281;0.0465972367838587;0.0358506462078979;0.0413428146188192;0.0350477525628669;0.0397827859885028;0.0331262939958592;0.033665499596014;0.0456204379562044;0.039106800672637;0.0435511617272391;0.0351889647406573;0.0389772372934206;0.0372446414272147;0.0434669216726071;0.0413163385460781;0.0416215766253226;0.043525571273123;0.0429433362677947;0.0463059433678313;0.0459368827231384;0.0462310163888953;0.0461073840975632;0.0358918220483463;0.0408655319670624;0.035886669896467;0.0346038721732962;0.0323033934714842;0.0461755131253896;0.0399792108103786];
x1_step1.ymin = -1;

% Layer 1
b1 = [-1.7566095517694975126;1.677142140786658242;2.7799425333447702613;1.5884076251122882795;1.4391117162425941522;1.5848460869354790148;0.56527213179495028328;1.9707087614886589222;-1.3296901888497134614;-0.37878125546594393347;1.2665013094452459708;-0.064990245206517402443;0.94411672243114330705;-2.0352785834155917577;0.52412025682758001111;-3.8834273164360459951;0.76888481838397815249;-2.6531492997609782414;-0.033820423676754113318;1.8198692728861372014;1.4197039092208798561;-0.31308185799523330362;0.28887726195315799327;0.27848816940026410727;-0.31628337892816477117;0.017380544193702766875;0.29418557054281641028;-0.19173907723946120862;2.9224850564461455349;0.68578535048496336302;-1.0407417693807821113;0.33519912574627480639;0.7637691177281796806;0.72883040782956998171;0.58519928076633631608;1.3067896080629373134;1.3941226153629415752;1.0614370898643132879;1.0466794176999207888;-0.076017352592813877687;1.2160143078762621904;0.39821285258283606323;1.4398561533081806196;-1.2109781665113772409;1.4576737110635704653;-1.2520086126576797092;1.5167365666438521465;1.6359237297301310043;1.7027403663016704716;-1.8107940829590583043];
IW1_1 = [0.10446901885654440167 -0.17725536332297001096 0.026560193037976111141 0.11125223016547633459 -0.12737365120473859159 -0.081736162963113215274 -0.015954581185808058841 0.080687350025817020094 -0.5195296024808817581 0.27498263546010853764 -0.12358720355132815638 -0.12388984083775923806 0.24606656055681072615 -0.06444000223030282859 -0.32510998716607042436 0.10204762435309240598 -0.070771954452154367532 -0.1724603127670137348 -0.0067163333908101313305 0.028178309292956563864 0.047256664426654437783 -0.055972326976720207514 0.064024585804917960585 0.078372221338652250933 -0.11838109508072687526 0.063088170872274140777 0.012508860767506759654 0.028158734947839318685 0.092127443695617927677 0.16476591478898056087 -0.19441001460963441838 -0.36139492683988122534 -0.36988630522118942645 -0.33139052306510191626 0.10828223653762106271 -0.26548689517638474067 0.31666846190668579419 -0.28738404268112605067 -0.53229438396931783029 -9.626962319981278212e-05 -0.22291488519293647941 -0.50242609868080645441 0.22927256038799220805 -0.020233333118785598592 -0.057889530350187630436 -0.040343343342573709243 -0.21548423051928264349 0.029017512780528050692 -0.10280861863434785641 -0.16970825740387637803 0.12695938619115967883 0.16968313626382727777 -0.29631803262149059019 -0.079163918726254792202 -0.040280503755665580945 -0.11285205548856909463 -0.27555613141175566705 -0.42076450157804529129 0.25846139541076118551 -0.14552895625748368813;-0.097228253722916865853 0.21500249948783983767 -0.090984330522700065935 0.12765614063990177174 0.086448832327761696015 -0.027042289670775002119 -0.20840026898784713705 0.054204150480822679836 0.071581887571808930359 0.0052490542045294640711 0.049062707594933772925 -0.021508308522378723898 -0.093514828763300694714 0.091333359314612241886 -0.04946509800137662699 -0.13076977781959422953 0.34258903858746914128 0.043005127737631147766 -0.098506450557218308561 0.39570143994978512758 0.063941071287694439818 0.18774552463817345549 0.044834176408458104035 0.46922424655683053762 0.26712629043386348915 0.14070601856023004506 0.078435813628519271412 0.18395076040385074934 -0.023925368330871558259 0.084095383682220192778 0.31346925376419504383 -0.16699533760487192402 0.27005586060567393636 -0.054283023513266817628 -0.093224458312392094461 0.35473443573339152879 -0.059604125876880388601 0.17316279710739709841 0.25326779112929082016 0.27827516359543086333 0.23993674019923857954 0.41010383492644275627 -0.13392154147846163648 -0.030504464905636803629 -0.015528722886781866699 0.091086977907071556282 0.16400551373141319944 0.27084151087572827521 -0.20609995894619917434 0.1822061371169672872 0.27548094281818391593 -0.12555493117516336454 0.37920832750305444314 -0.062751299166044369193 0.20781231499157812315 -0.21369343692057790607 0.25435406692199508116 0.2943367490432708955 0.35372792350692305874 0.014133628958545862986;0.014749629827274414115 0.019360231644960951281 -0.00043294510670440042484 -0.0020054969464060167644 0.0076840067585172248943 0.0087438657850648100062 -0.0092382872440645285445 -0.021929450223394247182 -0.027942926191517950679 -0.015295587434136828295 -0.0070565016639138732762 -0.010594659592521435756 -0.011919675300507248661 0.0083792166317321441216 -0.021050062885535736346 -0.00073638633505830424202 -0.014612060654018941067 -0.022369600823900413072 -0.017450993253659327631 -0.016700796433677691372 0.4013564699486918963 0.18599876289271691232 1.3179773779204628781 -0.0095547801855986203706 -0.021581385843616747444 -0.021629109454556705305 -0.026243271415350342968 0.0097960314826362211021 -0.024165814152034843787 -0.00056123744097964062792 -0.030031777940419234624 -0.023672100057783578009 -0.046756789218903055394 0.010068850312228063565 -0.030233477055963277336 -0.017036789341431188977 0.011794217478231469251 0.10289917799513248475 0.048245817045036540338 -0.025543044015146232351 0.035002858198881603435 0.024153713376986844785 0.02885132808121070383 -0.021598418482276695446 0.040727757602444049356 0.016882499055493931095 0.032091378385829934239 0.069184112764805211215 0.069832617407550257038 0.04795419109029086524 0.3132846863146591665 -1.2279718863354183167 0.31226412879775289344 0.016892042666388766559 0.070169145968067003771 0.060974019807569529439 0.10687467772896205864 0.0049758998063664499484 0.066217470223903535098 0.0071708554812904773748;-0.12212213718102368776 -0.054584965429807480453 0.066572373049060704076 -0.25098117334839908921 -0.074194348026876480451 -0.16632681171283220101 0.18739330868655049156 0.15732222673612061836 -0.024127706843535365322 0.089301650653571928995 0.066861109637604873579 -0.12837117586852880846 -0.080224122530528518826 0.11581269137426240812 -0.087359715170207991042 0.21147578553767235054 -0.15588954092789517047 -0.12901049781114637405 -0.09769474131551920959 -0.051439241250179734699 -0.038081334868777690084 0.03663377996765579403 0.020321828633099368183 -0.024374288391804690285 -0.025816335201662085619 0.08507260184413403814 0.075070352441888379968 0.051686687902292603736 -0.028197290784198265207 0.19813891503731922983 0.10990319505023499191 0.22289435230338727756 -0.040158706382224310105 0.15231713385804626637 0.0083130422130540931186 -0.039145203626806235331 -0.0044626312875323519841 -0.094367209559179168754 0.47789857870249752292 -0.10822626604651605642 -0.13462653637688862251 0.21058359408230764576 0.20415885212858694842 -0.11402505592422719494 -0.036931388502941413232 0.30869252000207569875 0.20435541266059722987 0.39188162077244659276 0.080887268006381948804 -0.077307965657312419094 0.37024956044587536974 0.33669353921066247359 0.35257268234204208746 0.078873823084168015463 -0.1175979093824308791 -0.066584974644832664592 0.42845695630656360775 0.32872931231725727175 0.41684509068516234498 0.11676512638143918266;-0.28265818861275204821 0.3069513109756865088 -0.032092009481556091344 -0.089245420682969034409 -0.079283534226042409743 -0.033478799599605389703 -0.18571650270920139758 -0.059330280676671821871 -0.054729215876306698541 -0.0028314890783761670692 0.12966333678118480144 -0.28022048718040482029 0.0808637570309297532 -0.1043736474654679558 -0.018560829679809202897 0.1434484391550162885 0.23122540402499786039 -0.14534659178364131571 -0.079659169464257328919 -0.16785956258335260616 0.25955173196427405724 0.2508679721981910693 0.10766673248477427738 0.016798719258009228716 -0.064927795267183743833 0.092351967183963309949 -0.33525718849792107701 -0.26887756843397031536 0.11523378169150436112 0.15978859406453471692 0.2655880685910957939 -0.068534351750888081178 0.2037765689781661782 0.31783196137594588171 0.39534740473044222009 0.0007981129857973074098 0.39098150662654035381 0.24934933991861926716 0.40852737658028409617 0.21813614235708619904 -0.13829221000839289624 0.049171103743162289379 0.12991844607181557425 0.017350015045857355989 -0.16897889522851899935 0.1164836550970303336 0.39036357662737841689 0.27840425227541865105 0.37915176630693731008 0.19759937596734655774 0.14398398032037890149 -0.065844483881171075867 0.20902069970963377266 0.0055280841857138158027 0.30831999249623415205 -0.042310009888072944162 0.21935718483709712445 -0.19576456450531995457 0.23448284378071054812 0.15809589580833302569;-0.11569314075949925502 -0.083806953569846520669 0.1250900538980729837 -0.10880948737050689934 -0.10194415677750352789 -0.10326385087946762797 -0.033922248847356784029 0.0084215618600692945805 -0.21503575821548670532 0.19648009778970812467 0.028938672081088471361 0.12675587211815775301 -0.062025327634506244312 -0.11784897352335936549 0.15623889037031055138 0.011380614501754100776 0.070431286971333995073 0.095335672437005691826 -0.074794055229239195248 -0.019780223526113416277 0.010421309820501729188 0.14806012572326845977 -0.1257132037016524817 -0.11534768227871720903 -0.17833565847158802664 0.13473258599124038337 0.088933119107211938692 0.023858083039953507931 -0.010240395334000394409 0.042260700714348752027 0.10979781527802695562 0.29222293949341754393 -0.03634923956493484043 0.26492593871087949386 0.26085138211803687858 -0.071735359893607769655 0.35730227903888495122 -0.13935444892853754428 0.39853769916622622249 -0.16185914075609292295 -0.15371732400665213958 -0.038180729936596595475 -0.004875964856011970501 0.20638855416077142579 -0.018694879919761677595 0.36421103043896285723 -0.063403551485270215338 -0.12619750625896183904 0.43866377164226738605 0.31260396345367735815 0.16597740581369077595 -0.023435684674589250809 0.16579644370052495916 0.28932491073652116809 0.22759816471473204302 0.26784130885188933702 0.0047582083315214612068 0.37858491488995543728 -0.11919726602231660306 0.044937336079939799172;0.018716523242469588345 0.026521560921645846026 0.019597281975855099234 0.0053738834592224858644 0.030210525428784922725 0.02478006037626676733 0.0010153600648532916644 0.033849871979293753854 0.17843780881182910725 -0.012661169442214851438 -0.0070483072599039084741 0.011767545074650460207 -0.028763567603231149361 -0.00074770101768406160153 0.022610552764402203768 0.011672501367301116662 -0.032949277540792444585 -0.01511005012372431365 -0.005390052107112713875 -0.0054431963954075929246 -0.019721877730822519326 0.018963257838920763443 0.032704205149411733067 0.0034113978763332985025 0.0042462473796893874384 -0.022327938331102303859 0.016426816952631817514 0.011167637485664813277 0.037592240810350723013 0.022831906551785127041 -0.090732716772774321679 -0.066554339795504929844 -0.082409810443046724315 -0.007310888139788841722 -0.1645169535004250283 -0.086241941619760134619 -0.00028078416703036188648 -0.18384789635284995435 -0.45471110702265593595 0.12392419620896125143 0.015481623987095150322 -0.02033523931677878524 0.10518393449536631024 -0.029874638256446182233 -0.036711549647218934267 0.037170366015719151498 0.15141587528021505094 0.079277738563935953864 0.025993760348078150807 0.072150410335970416309 0.01004029440054183403 -0.066614872135309893819 0.054321625697986028469 0.028456178428357941507 -0.0099666378983379287637 0.058620559307056077647 -0.053998303399678274084 -0.02297838742568488607 -0.14279855320411322106 -0.16877277739350912689;0.036015121531327846938 0.028855478438208983366 0.037938762857620426938 -0.059137510017782654592 -0.0042030468430813358593 -0.093148453616937132438 -0.057822427617353705509 -0.024353490547370123392 -0.035079228727839695257 0.039963596784905720816 0.024182964307366456441 -0.087558606048523862642 0.068884139021826842897 -0.076610351168157189705 1.4532439046348721856 0.59551387356872498291 0.11973073833992745052 0.027733759260252208861 0.047557496585438653602 -0.012000796728643028932 0.10922574329798144521 0.0268238685362157947 -0.024939684565825188944 0.024222048870999185466 -0.04690254054356064739 -0.061765434255459092383 -0.057879674826338753379 -0.058028485720416300708 -0.067024519225506409836 -0.034277166061233169114 -0.065162376541339661618 -0.16446005105285710357 -0.17636653595742629586 0.05204906691643074873 0.11392774539098329822 0.14613560136442693693 0.40062540334670510012 0.13453576400727357276 0.098583168263517775842 -0.024786282150067694141 0.0028086958629818209281 0.38453211029773226581 -0.42478152950941738819 0.29094156830705469874 0.27841961987217017649 1.0156345264293022979 -0.85571709665988660021 -0.058100168407228640344 -0.14090300346691755906 0.053778617370890291483 -0.35422424610892128127 -0.10362103293997046438 0.054068393968821987228 -0.085667023998056091028 0.15267190929346940997 0.11925599165928678358 0.022666896736671021673 0.17625746093310162843 0.13234188367711013923 0.033784125896048337878;-0.0027167230768164289667 0.17726150894073125497 0.1276302402230037325 -0.057102588449983983365 -0.099812594679566310485 0.046136861991992010601 0.061950869888132448216 -0.019336495665873164318 0.10618319503836817774 0.021458982006132526488 -0.077004504653640809542 0.15164615344008980369 0.20075967647320266951 -0.36388137136908493829 -0.1624000838764619592 0.27485694482457750931 0.29363577712918753626 -0.016187127648519806372 -0.032523208346702400795 -0.10822681996578036034 -0.016982754648377607759 -0.14686957248361451334 0.060678807494906193687 -0.050910689157852337394 0.038204403783880638845 -0.13367153915373958251 0.14080544149219145766 0.053496643622923334416 -0.066074217907069812683 0.16284621193233289604 0.044692066604700673993 -0.099703960899358609615 -0.11299747811685362242 -0.2056227490207242492 -0.37325997693114781883 -0.0071898522612562154946 -0.15401212891547821915 0.064973586047220102668 -0.20153086668933309356 -0.27193456708248897602 -0.21646462083791745412 -0.3708338874355626702 -0.2051274731705491905 -0.51069907161097083392 -0.021781697331910147841 -0.10842433284042111985 0.17260733208988773835 0.19245865468730113945 -0.15270205595755576011 0.12007658936120492454 -0.076865568238837875259 -0.034480672459121668172 -0.37571946484440854608 -0.13353598426247825781 -0.28837969423967774185 -0.011978002176553375832 -0.38520914301131281565 -0.32423825112395726622 -0.35647873483464898037 0.098811045374257402973;-0.020161439543826844417 0.03718895210669375534 -0.011717482765744382384 0.0073905950915043932756 -0.028654128114609593581 -0.023594426506939526755 -0.057001607734236799108 0.025674393543760647834 0.050887893619198758255 -0.02941531058222066411 0.017339039967921455326 -0.018934126135017926434 0.044752627208214275367 0.033717209794778386922 -0.22928059962269520256 0.026410562635344411037 0.021375661690124170278 0.037963783241058188245 -0.0066491460187572213464 -0.0023717286443240719919 0.064520380275857908137 -0.0089636278253805296012 -0.057521529084554046118 0.055979993790244368668 0.00019112305733852698558 -0.011071089120505740039 -0.016518770095117894792 -0.031910975693698162559 -0.0093929959924531521154 -0.045644615433716846653 -0.013683209158978778056 -0.13205955379172806818 0.068415882957455070867 -0.066147946378373081999 0.2091775118947237222 0.05718417939582371573 0.27097936997139243642 -0.12245324397578778719 -0.30577395958552555655 0.18401171271221986037 -0.027579324100609269727 0.050996038102747311138 -0.22285623818966887599 -0.22408096132350319163 1.6361518182984868819 -0.50620899575863542719 -0.2032462144913918245 -0.15968573468909713631 -0.0032200977299324190853 0.0027123157006837114377 -0.24948483566231771658 0.031601697111727701517 -0.065370107170404409547 -0.066482707627905965331 0.031888613529322276663 0.038229092365787878394 0.080642729374415161869 0.024510364442986789374 -0.0077108582911241986546 0.18590359061651662298;-0.030654010002012819364 0.023183918853684565287 -0.070398863434638969672 0.016840534495431977446 -0.25612296663131439711 0.058920914004592025992 0.19573738087820505283 0.11042878109999619551 0.088293956015720681529 0.0086830933768989593258 -0.21573810046011129837 -0.13514859368811443785 -0.14555672466518806973 -0.068250167091577468303 0.17968020854971503142 0.2338360734707660149 0.16546950134205035132 0.14264766639955309135 -0.034676237982518447189 -0.035232952818114164628 -0.024534882918096811294 0.13968111955970921589 -0.071281793680002314417 -0.04826881931188761049 -0.0014423309511925950892 0.2966463537597618938 0.23411832063122420267 -0.29443347441376360729 0.20437884920253390764 0.44680188844806600912 0.075064533938801150659 -0.029457984078329325223 -0.10018890088202425659 -0.068506049332254140283 0.28146167018271472937 0.42309814859099686979 0.088915136111699155652 -0.045920345615305960263 -0.017970229832679440046 -0.15540742625019385303 0.33781648367732242111 0.14968114584406452816 0.40147927053288234855 0.4580947670159256635 0.036269829597522021403 -0.088635260731767556708 -0.026060239844517142649 0.13462579382071498957 0.030570459907701130753 0.191974571770674729 0.0064630767794899733267 -0.081034594311104116149 -0.20219244921282888972 -0.0074385067070231241856 0.29581120563573298776 0.31001933534444209295 -0.042250296285417848763 -0.18252123270586634307 0.16554253234832039254 0.47800280668696065733;0.010910509742572543912 0.061938338173704171608 0.027839441149530314706 0.052857860954921780106 0.01625261807528030622 0.0093775933638460557545 0.015751114273398102855 0.068341411344269992201 -0.46093777693365745041 -0.0081784271117013480901 -0.00063581280803368730049 -0.019599701573838185925 -0.011854453941225853372 -0.0081781528060616177911 0.14084296959500802737 0.020182094864601478335 -0.0064615701078766492674 -0.014267376877937464064 -0.021612845466164119779 -0.014029282098387659689 0.04054171539044381517 0.033609060324097918271 -0.031229340572120452973 0.077729959991891334203 -0.018835199572639099719 -0.032732409196972067633 0.0013387996456806748342 0.00097232151075561450929 -0.032572359548938084606 -0.052415997683970511067 -0.071447814554904343076 -0.22736746444410668722 -0.082859303981249229909 -0.20106430102192129894 -0.046238094457358713818 -0.080594219904195449344 -0.014930676946596943555 -0.42239570858589114977 1.1460049575328015159 0.10752500948382591461 0.023919907729282118003 0.13814841877538150405 -0.013202160504560503732 -0.024833732171109592496 -0.54223654745054894466 -0.085188786258050222533 0.0024424191912829199859 0.014573895688070987245 0.019377591569365203855 0.083763883341256992199 -0.16780253243042489442 -0.078229103051565967997 0.09954601913382700451 -0.13296213936751097306 0.054911219564213652189 0.11217348395806418793 0.025264365010281186058 0.027621770974414861649 0.12240582915624527438 0.19343128962467645571;-0.1672089595078794233 -0.066351961120150140805 -0.30459068188438909175 0.01539949883766262087 0.11070112250351379912 0.14057494835860373517 0.10417597807008040223 0.050547490310561972449 -0.093088904150222626099 0.16325334839543151344 -0.21992020828726388526 0.029658663153876420326 0.11675489657593908499 -0.010747348665393865325 -0.0069355965156362130164 -0.17078033503357320511 -0.10298100962447068185 0.031167485837596639597 -0.17139033304848025341 -0.084766818173419050675 0.020131277643920957726 0.087737116517473928701 0.22056494878609037014 0.14557808891116413852 0.19871778966253794696 -0.12180531180446720063 0.061050987702473816232 0.062504669345495311727 0.091904455099574372534 -0.22986577925934553734 0.3646201736225848089 0.31721904528018662894 0.27941901958517451066 -0.016567256922255781115 -0.075279106337506215829 0.26679145966824896474 -0.016390647352384733748 0.46133019270284536528 0.094251557729902304961 0.13228996956967326026 0.3926050777339430975 0.4269361026231829892 -0.05525371488528624947 0.13976428025611170591 -0.10942234755681566616 0.10338935792994495555 0.25021719286472887678 -0.16971925149828739898 0.16760679354300828114 0.37201935789277651434 -0.043550177434250700315 0.35618681882470309974 0.3074235573331409177 0.10565453069885757942 0.18640459537139342228 0.025729918174579695378 0.35052940221982281654 0.30341994452639053925 0.1930731493223295514 0.35942131437505864255;-0.0020525330812108150309 -0.0077747782542091671554 -0.0046284686986705235109 0.0021910319263916989974 -0.0005220880594952862809 -0.0056627879084965096479 0.012249195824593682447 -0.0024349026908269204815 0.017539989532584343568 0.0063419975698786601459 0.00019163172401267635891 -0.0035915955308703081603 0.0053305595903344075645 -0.0049123885996497683795 -1.285161984889339637 -0.031331211820186999351 0.012680813936091696326 0.00098108050101829678835 0.00052991286794369716999 0.001930769842445305938 0.0012278487131431193441 0.0011382198267248231412 -0.014978617396423811806 0.0023022739752421059016 -0.0034631563911085654593 0.00040010962270205083962 -0.0050550188831766313183 0.0029597592339478560539 0.001653040569592820544 0.0023227569587809917054 0.0056345672200137017493 0.022884291817354730086 0.028795082352989054275 -0.0036943196823167332235 0.009628153557905423654 0.01179375943102295779 -0.035039872944744775152 0.0015893614757441301439 -0.068954667024554813781 -0.026707044504642986349 0.0041045694445016826096 0.022628374915031747999 -0.022210300321608464347 0.033300922836063902299 -0.34609914269983210744 0.2733728658193585459 -0.04379018798437249449 -0.014703727430377181579 -0.0096351761944831158802 -0.009567282246856885497 0.006966175443656284251 0.001215907767817742775 0.017243705865048964548 -0.013047351579664266674 0.0056630574424979185019 -0.00047613965834262346119 0.006852088910375809562 0.0057178252534193915388 -0.0012599527470448948583 -0.0086995887950214404599;-0.0091259638595119624283 0.0027271994021595730336 -0.0078247296759200325039 -0.0093150989401017212505 -0.0085968188477528236641 -0.0047526273855331519977 -0.0086971101195025338204 -0.0058604831015522731996 -0.82543175372732779937 -0.0094949803401270741615 -0.0022648011803684353453 -0.0027113601540818851703 -0.0024174177307720195497 -0.0072166248077026170712 -0.024353192463985911392 -0.0064776906388225793942 -0.0020507158852274116022 -0.0067776568879533765841 0.0019668169154264713086 0.002107737330897514836 -0.011095137863565876502 -0.0050758446043229566227 0.004693959279898100509 -0.013494513065509578312 0.0029685838687404544727 0.0065195756805462787287 -0.0025755196486022908717 -0.0057246123310890125596 0.00655600161154068755 0.0044179214007942814446 0.036317771738645775181 0.0025377979756297012158 0.022977369785844813793 0.026684251183314810357 0.03386091004800066695 0.027784279568626980839 0.031348597308740393241 0.03720811707399804269 -0.38218180686157154913 0.035221852807931587626 0.0067792882580140368526 0.0091720128558879648883 0.014642731247354061688 0.033729045565453787126 0.059394059640110657972 0.011767886540057897679 8.4351414345325471554e-05 0.029217068079598472463 -0.0039944326778518883525 -0.0053043519073615250092 0.031932522640377387912 0.012704548839286615436 0.0053370588375079332233 0.034137731950404391623 -0.011112045980510449825 -0.021505092184223088131 0.012146344530878361995 0.019956753146163318247 -0.023266768855986739994 -0.02864763847207884781;-0.018170389434863765121 -0.0087100706627338351368 -0.0066664913495205644842 -0.0092952975009903855697 -0.011809819080702851565 -0.0029417313382099899086 -0.012907102930211956232 -0.018647295006969332593 -3.0668085394947457445 -0.025832123875138664898 -0.0080277709808630661609 -0.012813204792808419522 -0.0012833798966773292492 -0.0082582525350476908288 -0.022003547387804762298 -0.0013610119375293498051 -0.0018096793500840693911 -0.0029189068396723218818 0.01361612257568071277 -0.010255524959247794281 -0.0013009082669184050558 0.0023306600707064029955 0.0059201753019088353483 0.0067133754814899136362 0.0026320729655466977744 -0.0022512739208489971308 -0.0018221471715870649587 0.00014818987304670306064 -0.0088107071264937539268 -0.0043135902724388145227 0.084963152642830774841 0.043539092766434361881 0.031523039086234071193 0.034248980446944021772 0.08118273248547991372 0.014551556913079974689 0.048508434959796321861 0.1001569262812690847 -0.8376643241273799001 0.17414676443446752696 0.033287948405743159053 0.047326863949919278918 0.014047300783732157708 0.035177136927840246816 0.11320524352792690759 0.024151801698836600218 0.0095530571543196163287 0.010306497231535885484 -0.023620369315673316046 0.014929124870110107443 -0.0027125747750926217441 0.010680506421218319973 -0.010787603815674380245 -0.022137124944869811943 -0.021755033878628073085 -0.0072372465282047960047 -0.0078784037045967116736 -0.008817773878851032851 0.015696921492174924911 0.014670355832697573595;-0.075401543312462390722 0.16706381186364530067 0.11447121170847590621 0.13253297778922376593 -0.11398575797897891881 -0.015398124806504879386 -0.2921586401303258862 -0.23240758817024911864 -0.14303750693429598262 0.011902818323999638656 -0.1227746088287604842 -0.07214234315966309985 -0.18247160140449969479 0.13932426528861205361 0.13253530881569181021 0.034404739917374686786 -0.10551869685064498017 -0.096358312262725606678 -0.091304830135109982248 -0.011834932322675519381 0.04327906781709239814 -0.0026793268388771392975 -0.083686027353840897192 -0.0055432447368451241015 0.048605247809615635679 -0.25322136939371814313 0.023436246070906746608 0.0087620064278946911684 0.026479679787750246001 0.067581387091168343417 0.3807634046224213642 0.25055992798040604974 0.092398587556496353246 0.13169115945549556002 -0.18514866764907697561 0.42739508980905738245 0.12805465510908770055 0.041446441686612774113 0.29276917203965563408 -0.2147838256120521705 0.12989818614260131846 0.52272520324396942737 0.27190321394472938277 0.093893829732236047669 0.38448341367931615498 0.25629720972010100466 -0.089873069165086638677 0.14255214095766216564 0.23415524457565831118 -0.1597759089115618758 0.24670048306342329258 0.078644359046264850077 0.3203845482245935572 0.46147901232869709132 0.030701511650711239138 0.098752266868629007268 0.44945775904775098208 -0.0068008919346318925936 0.2099800897104927011 0.0098544353640571385328;0.051637013460261518838 0.019408782100137543514 -0.0088406318603110323195 -0.018256841343243294246 0.044255168506154636543 0.022628298357348308745 0.052478649901743473771 0.01505045211709706357 0.013793664892149202356 -0.00038970989938317857374 -0.059086563777962154698 0.070390236687181736985 0.0035753530020616267754 0.055528081802830177305 -0.044201717583413485668 -0.01229178856425629067 0.011567797666801866649 -0.038703293731884053086 -0.047996776459862229569 -0.081338757536731962072 -0.53093085719021626545 -1.59682747052909213 -0.8924391662917789958 -0.038859309993786707305 -0.012440809563731386814 0.010664630663045761988 0.018904212027958576525 0.029477472121420541379 -0.053331046084119371198 0.020013134740054887295 -0.11540888218440711888 -0.0024134407104310726805 -0.052685172521518087996 0.022651687466243273367 -0.20118311358814089385 -0.1147680170483358908 -0.25042623794574903062 -0.068971572447506970804 -0.02061756494106869661 -0.072194660468379939777 0.1909232077220791024 -0.21776076388823986663 0.019558966869693987511 -0.13129093161577062854 0.029560996757020965853 0.0042219773289360442228 0.0014565595006343476283 0.14421121278214021899 0.16044629186614278726 0.31132065994825758315 -0.031886864617411858625 -0.22477995660572502867 -0.37262987377969980507 0.14390367999065453719 0.065036242606994629223 -0.10559621989158606004 -0.034853895570481428778 -0.12235261060227090035 0.062598312698658079012 -0.094956840795867608618;-0.0012361702816384256658 -0.0082459606235349963005 0.032275250488503569313 0.0028333177320171505816 -0.0039277581510898332967 -0.017828048153194900327 -0.0041488119618814196451 0.00080690863147129285142 0.48922536003809263816 -0.004458815624727343295 0.00041585044821588736325 -0.051294231235166798388 -0.015672555856880196479 -0.035045291182129283125 -0.010433037317880776429 -0.034934486408273186797 -0.023061373175842902333 -0.019649905918778177299 0.002560698520503985106 -0.029789213130823062603 0.021386372412471918447 0.019687982488751174653 -0.0051471982421241223651 0.051831377906343532869 -0.010716646255448566624 0.013501587964336526221 0.015142282847335574933 0.023290802335774615783 -0.059120828929944718722 -0.039423119817031754275 0.080958356200193301588 -0.065238184270539720244 -0.10991337783704435704 -0.037984674631655460098 0.15256656972659876637 0.051768157974017257883 0.0030940228089823590581 0.026033708028024994674 -0.69286898265837570943 -0.022201164169328276021 0.035751973403407522056 0.21439479417918108628 0.044143491863717215784 0.1518108911682560791 0.076562367076568257906 0.1471488955354592898 0.019144912921210319873 0.04462374673117917856 -0.017778943272363671724 0.03190783481198401772 -0.10763323664829185788 -0.020985046539924473441 0.0053981176215279376429 -0.21264461706888432291 -0.031226188503478385927 -0.095529049114557826328 -0.096590882648173309599 -0.12713990971648611583 0.18036817774340699327 0.23357869900758371218;-0.024048766735015960488 0.0020346257931629866539 -0.01187466732682398475 -0.011242886500495690577 -0.012976520249367811191 -0.0091530641013440761783 -0.040345796103447913172 -0.0079690018630276214517 0.023498943718168369826 -0.00611203346190686541 0.018901308786807208273 -0.006165251590583234291 -0.00055134345156568115211 -0.011996302445378415058 -0.0042209458796020693852 -0.00063858359001373998093 0.016639966042853632927 -0.01311677033521100634 -0.0049881199168629744914 -0.0083112296197696815953 0.003607337216976873491 0.001242041030063845879 0.042304619677626255358 0.0043289162378436713344 0.011253739008889363654 0.0012714942903161051066 -0.0095147923877463101011 -0.023351344958567523541 0.75262779666130796841 1.2777799588831983968 0.07675789462037552191 0.033148714863270534181 0.054091083911592029165 0.0010551347662334184009 0.086622478361720531281 0.013035889725759123095 0.17244271739039188085 0.08719959721417970544 -0.085159263072857649401 0.087611704095356970901 -0.036386431151901106607 0.026313744987155870958 0.036579256052153501233 0.027462250287099410767 0.042108017556595829511 -0.039112709215764970838 -0.089100015195481496733 0.025914796254520418989 0.043616742547055255275 0.0056654266732337216911 0.012528542756017734677 -0.0062610244674823328087 -0.15452294397257504421 0.055157633384432733226 -0.044671559906404485762 0.0047004611774231598934 0.022880541121807752153 0.059993866769709205955 0.062905798467275855779 0.03163897580712844021;0.0028903360675631446092 0.013411540382057229176 -0.029015657952279869797 0.016479731951368346149 -0.039003918653925974402 -0.016276324218399289973 0.0040171457814791458954 -0.041866601020996555005 -0.027049664571064013091 -0.028370184041339303188 0.006800081759662434007 -0.035726903705033306868 -0.0092569276236090600879 -0.02061375121888898293 0.019775103304427679718 0.028320168991640595757 -0.023470260549879662371 -0.0046052122956692824809 -0.019194673906387346024 -0.0060308919702160750445 -0.0044452209859830371305 -0.034965361651992689362 -0.069679820988206686572 -0.035817234280024000392 -0.03928242509659053 -0.036638128510150476391 -0.043375229691484627759 -0.040227783614518744515 0.98409524676951554145 0.24446443190168876125 -0.017226823121543933387 -0.057844216355548386255 0.085595091888162555538 -0.076928900813534609182 0.12827507579093769263 0.04985846618897991217 0.016694413091211907779 0.065478413174443153566 0.11309682812060478652 -0.001645019879314298843 -0.031053396613649929953 0.16721155734784712288 -0.019380053111603900984 0.091130966217470743551 -0.066338384461403901438 -0.12105130568417329928 0.036761171092324802789 0.0059130782478406911096 0.026370491096263447978 0.011226477557424717826 0.078473189008478799744 0.1294119174224331037 0.21703174846942310805 0.16760193094614317388 0.15635423791821498329 0.14210884019389291577 0.21575294257966037836 0.20484876772605101203 0.53269200957616780201 -1.9680304793136105257;-0.051861937999448666503 -0.030303712390696308648 0.12837888576944100905 0.050773884610118232008 0.092556302155478636928 0.034526052043558561055 0.038714121417118323165 0.034956929477665911465 0.071861724329294426883 0.034425253486117822488 0.013508297004796537139 0.026945551374748823864 -0.026798450891397890966 0.015021118871554146532 0.07822240022507802315 0.0075079944515000426875 -0.024722627599650569274 0.026578254585169436286 -0.04180975386735804461 0.011249849481912587226 -0.035559554135380040674 -0.007927179904402564467 -0.077341052721539085835 0.012062548055039755066 -0.007452267427890399594 -0.0024237815773559558651 0.01726462991464646976 0.023962738065676301991 -0.032582904912572957512 -0.038215100218480207994 2.1460482190234411171 -0.22061925531015372237 -0.51225786721702437632 -0.17158299046085892514 -0.40620925090033216387 -0.11076381509963170724 -0.16632726835699448986 -0.18654686471219042443 -0.15724135689086751744 -0.11092484983612019289 -0.057743235370661581685 -0.10688353722695871639 0.10244994198204113167 -0.052216582132846842135 -0.31563933463552634739 0.027270208558297464457 0.071946962641127168436 -0.086953019084126156879 0.10967188065844886424 -0.0055330991489792365895 0.090946750106597543106 0.023565895616554446285 0.21355934074482518792 -0.073460072191032815825 0.016970223909759610953 -0.024480919869597942556 -0.074884409788591219104 -0.096141171708653022643 0.14892581824460615625 0.13957638255804138971;0.17513156358063447504 0.25976575664965301238 -0.075630536170826684339 -0.062879373819324874129 0.061737429639692455174 -0.19334265296402422529 -0.15818155759208710198 0.15883260007763322363 0.016436926216427130698 -0.14122313710877176796 -0.27544103295747784932 -0.11235438754152886343 0.13654551706794615384 0.036896074683424380514 0.040764656850942097843 -0.1376132014910608492 0.050049168414307031172 -0.05234367884031112389 0.045940194366873132736 0.041310376914089688705 -0.07117001358836036462 0.20157306302077671045 0.23362424484984625761 -0.066097808501841118223 0.058553151221786524372 0.15550005410422881869 0.023222042059875651343 0.18020992772406860261 0.15775414123081293871 -0.004528773552820869637 0.18686165112436600722 0.096020555022011538915 0.35989457800365964868 0.093703914410305733096 0.52670356988439404056 0.08108000504088787308 -0.024548647618078050375 0.26540033676570623511 0.11532961328889698716 -0.064279642310535914373 0.23164615363501375733 0.37346056960710422024 0.37373855253457627379 0.20326900312292589534 0.14358484452509417961 0.42351376698939902088 0.23119229316245692996 0.28552293966763075961 0.23904143195370655683 -0.071362489376015650344 0.14867511107801784087 -0.031884453348378756499 0.10790879748732522259 0.35516608939307825477 0.43887759222987554608 0.35986333148420590611 0.43350868948367438094 0.46973438357696695178 0.38179737717205375347 0.029381027452908197589;-0.035224730175911614372 -0.00010357842630829567482 -0.075967092167086441856 -0.021107826664640866321 -0.42932168975109386011 -0.20916859093083070564 -0.14289361690088231427 0.036035330903173498629 0.055914616556077254006 0.26773617718647951813 -0.070375244603571085467 0.14486121281947741957 -0.085665788134462739212 -0.11437487370953272614 0.056660269391947258588 0.046247733471485093226 -0.14899815368761906709 -0.28149005939561927425 0.014766339728617492583 0.047090102308200661174 0.043419760186163863791 -0.24445054071876384794 -0.019295212350898514192 -0.12425250517551209017 0.11706034257689604261 0.22463300369223565545 -0.14434379823725301817 -0.19239607228443686426 -0.050510220418237848639 -0.14633120980304262226 0.49572503129178141501 0.30316418603741862592 0.41604239901418260672 0.042759501511819071606 0.30471039545263406412 0.35936226192293152515 0.075178620986005736948 0.53116360051656963392 -0.15512411781348409145 0.12388076615273539705 0.055748061016083198804 0.25536867619036218713 0.19732456490249233871 0.34228314076175309077 0.1176895881709296432 0.32384236414663819525 0.28836823865834171343 0.1562369813637149718 0.14767129113052876455 0.3547946395672307851 0.079428455408922654657 -0.10239687168346429946 0.15079171190817811099 -0.047662030428678649197 0.081368149946816389906 0.52492974122610336352 0.066844945382626641539 0.20918876885167383972 0.050657282884686113955 0.12092694075891603778;-0.0074845242896618780284 -0.035483905232905919858 0.00021511896766830844777 -0.01064287642844955438 0.0097467252129565772056 0.0090789584414632997639 0.040464048848309008832 0.016193541640221520428 0.024877589802982907896 0.0087827546243640815249 -0.044105444247565218918 0.0087807154917115774057 0.0022312078960730419644 -0.0033961562123512056312 0.032086121085157424948 -0.0012689744760439058708 0.040715387381581043258 0.028945453678028334327 -0.0030971465848679160908 -0.036977747884126797862 -0.093987580161452199956 0.040737714561544069447 0.22341195313041528614 0.0041873249281815108983 0.020199158144381477303 0.015188601314080273433 0.048890401047015204228 0.016482631788989565713 -0.019010752887620625123 0.0036387667434220859197 -0.10325678253645848015 0.13452719601269672034 0.029104856183393579966 0.0036918753642722931634 0.051707749697309318693 -0.12185517523220469605 -0.19139131196980127547 -0.050267551711844188356 -0.10312773796459480391 -0.039011881942204444662 0.085250002203865679618 -0.026791097041221668268 -0.02218660022752240446 -0.041437410707392222098 -0.37043155059453541922 -0.094223129472983807586 -0.16004695879904165534 -0.11275211402636658997 -0.034485830952041773845 0.07818217436578998869 -0.20407102611108426937 -0.12382203082385764836 1.1149544459856945977 -0.040197005450995595965 -0.14718721592802300191 -0.078215334992528362523 -0.19826190028369536367 -0.10130929690017782818 0.017171864396180385598 0.0064100468363497706617;-0.0065667262929528383633 0.021905690258801395476 -0.010234323820332987334 0.012122827517049541285 -0.037200769307984923873 -0.016969012313889128563 -0.029637363748677633679 -0.03861767444073272576 -0.0078903744601672397285 -0.027054644887410030096 0.0065083953863275759849 -0.033329490697684462097 -0.019195712460654823506 -0.025607089843736274837 0.024363556150325645783 0.019617455460657420852 -0.009341703468846735553 -0.02005960068868747545 -0.018697279001981193663 -0.01103359298929367481 -0.023825758580258881575 -0.031026527897760738939 -0.044833627097253830884 -0.029936290728339354922 -0.032799728851102757932 -0.034056721292000526058 -0.055654157903017628661 -0.057275208172142863527 0.035957745056477183332 -0.080366162491098375176 0.018858463805498923427 -0.077993488937107988135 0.0082342824196342898763 -0.075818680217100212215 0.123494699884405576 0.030824250841842478627 0.13766409219103264983 0.094791646244549179756 0.039586260007323355314 0.031416757845105870717 -0.027084258883961695452 0.12825627043567386365 0.023665269805279488119 0.085018085217943711873 -0.085392809885624060273 -0.10003559504551727544 -0.011858286966805837645 0.061816531855592569966 0.050964567534745201793 0.013860249847243544252 0.1083492265975698754 0.12547286761609766081 0.16994238348913920378 0.17585045717875485982 0.12335712007427616921 0.16583826282260072382 0.24100604101587397299 0.26317219002275460404 -1.8959916498399767004 0.72621802049800321388;2.6466839833329941761e-05 0.022579259421585399364 -0.004683053317561919858 -0.0070208657429225111019 -0.014395938261473631425 0.0069538896197698547852 -0.018656451636605501931 -0.03437174025383957221 -0.044486497397812740928 -0.026999581532881764684 -0.026106632647359857835 -0.022400348007587878724 -0.032146444761381100241 -0.02226225800256909082 -0.024568052379433619886 -0.0083680921228976787307 -0.035649063255530799577 -0.027380814691454868903 -0.027202633052292611582 -0.034524498076762805132 -0.058025058326276170162 -0.045985769554788551161 -0.18752054358165995418 -0.027220307499529378809 -0.026915498269498017159 -0.02999518602474178508 -0.023558518608044875381 0.0013436413334963282287 -0.040587257264231062226 -0.017247070625536344707 -0.04983876938356587849 -0.030673073624379390556 -0.038712669489880710549 0.015828768151762623306 0.049311324146537174884 -0.021807145902442471447 0.059771680844525221232 0.14081323169702225639 0.094058702353334230906 0.064385193475482160874 0.058698520730275781376 0.094311423337558653035 0.080178442500145483129 0.074542052081260384844 0.0087366792484928641055 0.050245663651925322191 0.1070705953422223522 0.10688303284223839296 0.10868746987076294275 0.099318845362244764785 -2.3461202972814847456 0.28552768445992582347 0.71429274846727108805 0.13711200779051879728 0.08391737865784298922 0.1114985628553484126 0.11825636322867803807 0.035582950778593275265 0.13354463000634014813 0.10548140373218484189;0.066550628591004121204 0.0076466483986386991206 0.067457417429383242924 -0.030605684663856595751 0.043885305487383743928 0.026686539624817484651 0.0072761633397145312335 0.017721811721338860679 -0.096111413414904381392 -0.016864680125640782449 -0.034974677038297784237 0.018430223954916301332 -0.047426244616922970387 -0.0034358336633229860646 -0.068146929711615150671 0.0057022132596566662069 -0.047575685961461451623 -0.044797983716491296402 0.022299770642123094289 0.018090839324871217653 -0.070823199203302475424 0.012758643779426226753 -0.049147845548851383513 -0.034580298219142366345 -0.0010933595309785338386 -0.0047618323013345880551 0.021686254576855204523 0.065175472698446479392 0.021702866894542996445 -0.037436211969293621549 -0.27707369231935113918 -0.058295939639789427777 -0.33013657818564612345 0.12078775219705924215 -0.28626666528135891188 -0.056907977664594128209 -0.12881465216192075629 -0.091514881889913454738 0.2890027038088235356 0.041164103106773777818 0.011589086813454959821 -0.14655125540247079807 0.19172444743465330563 -0.021760700738457362108 0.30578406928983259405 0.19934789430898836038 0.2628004366295682015 0.20978951083306621173 -0.015701401053237962896 -0.023428871285934928931 0.088729280837683527361 0.01837460524777419224 0.34301101927319832541 0.07780800545125941825 -0.012766583264532040121 -0.037773456418116177491 -0.069797563326988332211 -0.22244482837419560228 -0.12386464618044634722 0.049241261052822005162;1.1193388103741686024 1.1580548445493090703 0.024209978117665641173 0.037373961583345036153 0.0096095751438633400521 0.0036778169401644814074 0.011539492081315548197 -0.014968651365048699087 -0.00097071016236231278448 0.0031560866929256012337 0.0042251490799678692242 -0.018482708880627623377 0.019750893789065800815 -0.025188111301926410096 -0.020881543059874021345 0.016666433961958437848 0.025355941171383778593 -0.014152336201756687481 -0.0071847290781823789155 0.018732745076489431407 0.0079501543051176785937 0.013594831870194988913 -0.0044618244059624993791 -0.011805699148738227691 -0.010385340536626482683 -0.010878027146651501889 0.0049064640262867983966 0.01419701507193147326 0.019958964602695056234 -0.011904771615850528316 0.2312253470994660165 0.20566938903380876935 -0.10335942465393799239 -0.11013356650829841943 -0.056698111889033966926 -0.035709855668240461646 -0.034780295300571924255 0.016074235185923328034 0.011129683201726700906 0.020932066579998770406 0.0058345585889376739078 0.059726334248290047224 -0.071143976074468609494 0.060438586555268215827 0.077156753170434133615 -0.050995847170230611256 -0.078077869887279036099 0.059068283211116193177 0.0051359949226162269695 -0.026584534721614316854 0.019649130264449764932 -0.023146632324707028944 0.03333925610833865516 0.0055270407330317320935 0.024303408430373048266 0.068123025316032148613 -0.0033883331668555531288 -0.029621971908398582463 -0.0210179451305291011 0.012989392182208358423;-0.020714909116830947794 0.020615519324069284113 0.012090649428233568585 -0.012075436137000426784 -0.017933147832230128538 -0.013277952089585964499 -0.051704457155735822349 -0.0084538917002804896822 0.03705703169743031905 -0.01725456481394819705 -0.0040666234027485715849 -0.0014634583161667359674 -0.013889321657472086802 -0.027156694966971529209 0.02182264474792589698 -0.0029913937927740870057 0.022386631742883536522 -0.017817543167487896738 -0.0049696768226148929984 -0.0099430400958068990841 -0.03846983858869490458 -0.010125924502112726086 0.017728666821064931886 -0.013597082834994065129 -0.0025419634710427390506 -0.017403316903408606875 -0.041208097850231377446 -0.055348642776829590217 0.13602374811814407773 -0.017289702904536824457 0.075367309404504201353 -0.050014245308089858022 -0.052409193504331520741 0.025303403181918020931 0.063792477757315085851 0.0022654450187292868302 0.18646228128053421447 0.061475198095304120494 -0.14178254556439981449 0.088435901604943176202 0.016085494614944701591 -0.018045489180959460584 0.054096113885548011146 0.0559660690907964678 -0.077689179141663136652 -0.011038702930846223949 -0.085976755531052537207 0.064683220150664674786 0.039321511696074055997 0.0015395095062390928495 0.11083101834526692953 0.058856542076901191551 -0.0040523899294426755924 0.13345133239717482665 -0.0024789665150840079801 0.11715827780948269432 0.15711096503871699315 0.1995294012366257419 0.45483594762883672313 -1.2950243298762267319;0.0023443667522933149538 -0.015234122102637158436 0.009580183000950962327 0.0079351118856562253417 0.0090770073395759418022 -0.0072331120428283015439 0.012328407561359040409 0.031483319071109391873 0.039998800973559608951 0.025609769628918432199 0.028877855942151905988 0.014450422102029852542 0.025376647455261375913 0.011247949955531213323 0.002190172513865113 -0.01050321789488914935 0.013718176437093831943 0.012841389984594350424 0.026323168076530727155 0.032058316620854482304 -0.50448930617531184684 0.027188198378671552674 -0.14076651765411588024 0.037478067866582760737 0.031094014960950672882 0.034294208631560393896 0.024510668047789681279 0.0044878660075915758829 0.058523008763639999819 0.022414012386222970791 0.062950586755341778056 0.0036939998679172674628 0.014738415086350346514 -0.0082052201048620522494 -0.037085527602353819676 0.043840009220557522862 -0.029033254063924950061 -0.11340435489371457345 -0.071731301425764143476 -0.044308805046936544647 -0.05154585000888236429 -0.061591658978388599821 -0.066929331337347047759 -0.029274359055269896096 0.09596049922741752003 0.021925250811410949142 -0.028924095310922149499 -0.05388378509141841799 -0.096932224196952243567 -0.086801626301486120574 -0.5158901962633134497 -0.19155281904659041126 1.8135845367176477438 -0.16175877833428053965 -0.08581569442439211659 -0.12563368818224243673 -0.12150000793097280594 -0.065245508629392448552 -0.18352193278332404325 -0.12784805737324880792;-0.070283039265778016191 0.012224994819264521986 -0.014601528645369423604 -0.026295945330773624893 0.0088420091290978605064 0.01287773942662541124 0.016187926184988030154 0.037129226888298297315 0.046717331400126418939 9.924885905942496412e-05 -0.01422477999139955436 -0.00053742332083161505323 -0.0060249730564256613261 0.00051484436765369208291 -0.05839774405157239362 -0.022761836890958717095 -0.022433276393096130558 -0.030317096899595292331 0.027904789206647916816 -0.0087078488174310506031 -0.0040123876093350651154 0.040545610801648201971 0.02803305750580144251 0.020372580390035883308 0.0096500480423868974234 0.006431889471169175386 0.041729717618172790239 0.058855513332866885023 0.093776773631733659209 0.060739168553382072435 0.21907721370615559908 0.069591965423318996598 0.05700470078946728858 0.1131336999588728881 -0.018674502088742189754 -0.021152279851219209228 -0.087201893253915058191 -0.12375373434158995489 0.00032527836351700558509 0.009414276193843534174 0.042081151565529661962 0.0096664531399101791265 0.038212121131194591583 -0.0063701565498557695053 0.23419773514399022663 0.18852272093012453769 0.13772899843847413726 0.12429992803371257837 -0.068755946183948452033 0.045871674352149109655 -0.10650469554588611054 -0.11834078544073368955 0.026754735468824297068 -0.10648936632201827512 -0.06669299649492867188 -0.072933781611694462055 -0.17116788128457563478 -0.23451172900110817121 -0.36127813948163883806 -0.34797467670677306728;0.13179192943379347547 -0.034143981602341187676 0.076896267618773037067 0.023576627435916600734 0.073330771568085331702 0.027968198114926866304 0.025686529492771930511 0.029918888028099107496 -0.40311070333965548507 0.031042099639945523737 0.025129316282369296848 0.012249211426835455302 -0.018312727930935357445 0.0065896714140417089745 0.016797767877065324787 -0.030370730547255316012 -0.036090045545026525065 0.028554878790022761303 -0.027300068496622417052 -0.011154471746107499572 -0.029207471324585287942 0.01167666596267811184 0.0096328897252464899814 0.024900792185404415496 0.013471148123543365271 0.018210137117136655782 0.044004765184410613021 0.028081676018303108888 0.045516358531969405843 0.063543960455369502549 -0.39244291145402293575 -0.096917442341589388199 -0.28827510979888404385 -0.074633334374534329725 -0.22143565776095883169 -0.060429255072765239443 -0.080306543236971672517 -0.058181965831043541693 1.0278881092582630163 -0.059858750795186467519 -0.02325460177679459714 0.012642280146527183279 0.10751882167474015317 0.032470464269456274231 -0.085581025215409181617 0.13770454350646529895 0.092580260564271016355 -0.072433226889361310152 0.079698281566240633533 0.057017569386486360861 0.063797350952161269166 -0.059744024935146217148 0.0090412500334164300209 -0.16563315642378004244 -0.071479430992177864224 -0.11794117592727408617 -0.20912428255119838716 -0.15155311201813467803 -0.12888249736199364204 -0.3015525174664382968;-0.01243780183188522917 -0.039821511464268211089 -0.062409244682624515077 -0.26661153116539826335 -0.0039585673315552551144 -0.079451816006301384521 -0.21381370110643932447 0.14412248003039446198 0.31749090335463953094 0.039998744370545888382 -0.065706704570017065992 -0.062784452954604191843 -0.10280461306074206718 -0.19003460291376561564 -0.11491639030566740132 -0.2931518433033812876 0.036733066271535955161 -0.018979211235784755607 -0.024939025892440614546 -0.3177424223500493472 0.11424138600864879034 -0.14430825223791385326 -0.2253029809136711803 -0.047576566219947755143 -0.11210066440399467369 0.068382390626660072286 0.033957521024864892323 -0.26693189616837031952 -0.035858691665818356875 0.18773618477586659359 -0.091942354587239052965 0.3227240744725562438 0.55073655224373607719 -0.057324049587969910791 0.05057635030296402795 0.30556201278928563081 0.42537752702295522633 0.12974407354618694432 0.26623877910309640127 0.35805859487433572275 0.22585337825609597129 -0.075127832395159785395 -0.2192595717803664801 0.20983271449023888078 0.29937719970595805252 0.083005801620747304836 0.18290681121103311013 0.20791985460974846123 -0.24168682091020413094 0.35576150589576610583 -0.061586659487563345794 0.019062526732953943842 0.10621767162140452467 -0.023480709955179063231 0.21129687280083289669 -0.043232378486227962533 0.33346365801771721271 0.41801983491517824554 -0.27277975438737711578 0.04577395863954668298;0.019425594562812585619 -0.056736179462066410606 -0.1291463616332726716 -0.12500717541034905844 -0.077983519842560133917 -0.013993955956935085622 -0.10978883523584336002 0.065270449149075732143 0.17659680454128570681 0.0071932286156504779417 -0.012483000102092099703 0.055650305827161357375 -0.063433456720216954694 -0.11704887061576667306 0.0055528870628130371639 0.093924921059418561842 -0.17679639916921019438 -0.01281774944233226611 0.044545552801046460478 0.014935157704469776904 0.038476000351928357768 -0.066723000480461910899 0.10462812871414664539 -0.05618407883811475656 0.02999605946340764065 -0.066093066878959993993 -0.02052202495858439224 -0.11177447420257728694 -0.082956332902170304422 0.020047546051859335692 0.026251035725962944961 0.25290457835295487854 0.32995958760662696951 0.14784929790656625714 0.14198742588078541726 -0.29805590280633781353 0.37611937506465814574 -0.37826188305432306702 -0.72893166081205618134 -0.10119854825015281441 -0.17876307945677605282 -0.2235255446316161132 0.32316560853736114867 0.32679121482740935978 1.3367012741299471035 0.35197847879243349123 0.39116256838943963547 0.20370405602660923705 -0.20449435740693769348 0.12366367081964195485 -0.17040983277854820921 -0.017995858192417928806 -0.1023222656664777297 0.27728650347651728758 0.063535847103443121586 0.065510840636339176535 0.30159866996504619552 0.0019070151112996671511 -0.045027469324605516598 -0.21645551237949134382;-0.10411530318694564579 -0.081396431694216092589 -0.025671047026632736604 -0.041075007395932200405 -0.24076786633033742113 -0.01970469624870599748 -0.0082809271348254723938 -0.10918095720471440724 -0.10975228232477647616 0.22087439610665138279 -0.06789968730046662404 0.017302433269374913744 -0.089841512121247760203 -0.15339397293731435457 0.079951951952101737997 -0.059376362169125396218 -0.06389727397501972217 -0.031206059714769265878 -0.016849923895103990218 0.043510376297578250149 0.63298924003623291412 -0.49163523477981863063 0.51077520631549944152 0.24121100150161292608 -0.00087684320374408592728 -0.07391535429949318281 0.091550683257693804551 -0.013596402475837755103 0.12671790904505769726 -0.016652386221793533116 -0.063117717576311294092 -0.189779991606452203 -0.011998749683335451985 0.27219344335420830872 0.55773495013948370946 0.23068887859720682565 0.20970964961847998742 0.17980658669202240207 0.37637296121746866007 0.064215730916173510701 -0.014964327399402116772 0.23044574572552956049 0.11786143449211393397 0.3312982440195044731 0.20028960851286597977 0.087622633775994010485 0.033310289718433722106 -0.014082793022862527543 0.0067884585833844109104 -0.14345574661463411648 0.16815712650072162093 -0.5751298496515483416 0.8036477720022775495 -0.12071581718076528078 0.11921468621738040561 -0.065560618457104993806 -0.14418906297210362655 -0.15881076251102071994 -0.066071114568163114011 0.16480676788936685084;-0.037486577431011275374 -0.029083509549533686361 -0.062776631682433428616 -0.010557732841403461022 -0.0067244041556561873901 0.0033764625946373473878 0.047664597790513477116 0.013366844084316219926 -0.032822595285226435768 0.057421850838079942225 0.019400338279941364839 0.022797745609192256872 -0.0077729922711923622389 0.022908827432208143937 0.057947543830547815213 -0.03743088465357925082 0.0087938282365792180828 -0.014942620006214039907 -0.038376870468785094503 0.0057859607188292389024 -0.075607896315702985413 0.0088139061543202716631 -0.098592006620141878215 -0.045805288030729363058 -0.038169115945067610962 -0.048574369032235581445 -0.023853802154050227774 0.018954681921845111664 -0.012402486382556317246 -0.021787384797321746738 -0.01019350566343361561 0.031702844514382003127 0.053457868453872764425 -0.033929690008982799077 -0.324403627290123453 -0.1377342085354145429 -0.34494733791234488685 -0.31988389982964243741 -0.13983745298634880916 -0.59298546152735398529 -0.20288654130478506188 -0.17784116370640820626 -0.087980973213210300621 -0.14308384947750363292 -0.54650018988217730076 0.2011940703429437316 0.042522922154397818639 0.0035696588770495925325 0.06065546155090635605 0.0063650052551219886074 0.071554363238346227472 -0.078689171710977959262 0.33534325219464455881 0.17349601113592477697 0.15521683162356272878 0.23688590401026765608 0.15301937251032329823 0.04498117332457153561 0.086699525869875754269 0.1727697741655593866;0.17755327055980799078 -0.044686458287243199794 -0.099690237286304800302 -0.039021727250389534603 0.094690850577222818174 -0.031269740708951269947 -0.24206696868916052767 0.20213539233536359507 0.023895706370983840067 -0.14494867091047980434 -0.013912390376996840169 0.067451503074686447459 -0.15494102157681413634 0.13187962600655867007 0.18534497059823445975 0.18747679070838882409 -0.19513412731691825996 0.19463680981097247757 0.17803823618268616036 -0.11089161843354850001 -0.24745274337757242056 -0.1244942592509185042 -0.017161370741721374 0.049135442300014105232 -0.02544448415175624284 -0.25264178942919462978 -0.25187241957265937842 0.091642450283377627218 0.040315461882624484269 8.1017395883114661122e-05 0.26953782392686359559 0.25529115545815378452 0.03005694570345745012 0.29687177437894740617 -0.14540922718704873962 0.24153035715319465249 0.20793726755819838536 0.056326364557799969701 0.14870072067945705463 0.47264493278604502446 0.40054510906454549035 0.37434266107509128751 0.095455511810206783441 0.18346546659573956251 -0.16496482804552742296 0.3369143848351206505 -0.037931405446647387114 -0.0073599260059003723464 -0.019978496678116328816 0.11968821075655436403 0.4566799896546586135 0.36346488757482398047 0.38559006239209309141 0.082018809404821507725 0.0014070745240145716634 -0.029721085888329619451 0.21810824345667675916 -0.015980818752029161967 0.37162916385857874824 -0.012683610214776066399;0.23874093467488399778 -0.022209702152728383329 0.093361091020385714168 0.026100800049735400216 0.093096954458252251241 0.020569435106749280051 -0.061046445982684792442 -0.011231251674136719793 0.038303638551132536405 0.0037453565965228203215 0.20350819345585666187 -0.0078211069187659569557 -0.037325400949987590227 -0.14949147764500297919 -0.15511651162321574149 -0.21573062365915537941 0.13008080793135362585 -0.022549161621968401986 0.031938697850650406285 0.08353828949971600637 0.28168737466890453325 0.10837578266793672366 -0.2868128212978654501 0.071118491756624213629 0.085253055634685590003 0.081441371008686341826 -0.05612229260825379179 -0.19248426333326279503 -0.044135431540260013084 -0.1150688458853697943 0.1419335367044494145 0.12705956218027239513 0.11773617751883262705 0.18810452199466420886 -0.079687409135282952222 -0.22454465451122368469 0.16509991104015725449 -0.043526114953964849252 0.13334306138941015574 -0.074426000364534519727 0.613063411947921022 0.24513145502532723841 -0.19872941789533887791 0.32435498844687216113 0.42521836023111292402 0.059897679491942489027 -0.11932688829232211691 -0.086033145848811165557 -0.16151154682017826447 -0.56866062283136098454 0.14718734142872799686 0.16262363251020967025 -0.10915653589998469686 0.26193695881664513792 -0.16939943154743303255 0.10479157773484239213 0.11313316549004520661 0.21450050883275911806 0.088422808733348928767 0.16984061058184901638;-0.029824727022883266991 0.033610818817007892534 0.01059740232542086269 -0.04314233416678398686 -0.014620083471525179009 -0.0082577043602726461768 -0.081498515764637985415 0.0023434450376224901826 -0.078873030040663344442 -0.063701293013675025501 0.0049340389480453609311 -0.03489239450302878548 -0.033582973111486426332 -0.021050942943738992774 0.076539141822382417146 -0.0091527384999287100809 -0.060824686928898433202 -0.030309479097671163106 0.0096280738416831962434 -0.022283197614930583264 -0.020566461313004897465 0.0030643315296140210408 0.012731112077841161626 -0.0096158091910658292922 0.0027514743077773802515 -0.022144205728950983048 -0.004513280497873180773 -0.011547593449338750329 -0.022103802704850388644 -0.042342421680523649463 0.091748079403844107205 -0.084327233055456737865 -0.066517819389183663326 0.12117295930554343453 0.12242979095712386295 0.045792811545338832357 0.31183811359796914653 0.036788670105831387802 0.21752336306143052469 0.27708265952355498607 -0.0073681391935608410784 0.11587467933322771751 0.1092836030567122807 0.012972514008916708611 -1.5721415502311917312 -0.052325686249091202251 0.1532019856282840764 0.16231208231690513744 0.019653666574877874662 0.077751520159013001732 -0.045924195853153867986 0.016963257296466489193 0.069393165116210575594 0.095358732551783648157 -0.012285894473349146666 0.038421842523583854545 0.016129835453360379105 -0.018131475680489020363 0.0081375108993653449269 0.16528555891838428438;-0.091862408007384002695 0.0555971512014935762 -0.066359483490953233287 -0.01783134827495134675 -0.10522183840366440555 -0.12452295831508858326 0.069062137842166956836 0.0024839632577647817978 0.22628777969609548126 -0.030739879103944756783 -0.24277680385416483544 -0.27566897220777264454 -0.048441322381259761809 -0.077109728810171418445 0.1161463376408399667 0.011858035197429046478 -0.19743830989127619802 0.24798935444330791333 -0.15134741041269825224 0.28308665115342396268 0.11088742795981586242 -0.039133472952983971993 -0.10757042117279065618 -0.27115569926599947248 0.078195507051910001506 -0.25089012072535493703 0.13230369638781055985 0.094479021067112076149 -0.078347757017050448369 0.20800655965309625128 0.30804761847003508946 0.092012788165610981395 0.064520698720347879895 0.042180314315752871768 0.014409565858073724101 -0.13363246841907158724 0.47949536643752266318 -0.0027090248265484000167 0.21304520581107949662 -0.0469091585477146647 0.33573169423837956327 0.21258024134636863134 -0.08970660454762072189 0.35271143311019081956 0.36053209598584029516 -0.03228216439368804952 0.23680173245426952566 0.16115565768852541106 0.14755762172816733191 -0.032494487915054548477 0.20156430132723246462 -0.11646352221039869834 -0.02919325641845649244 0.2266560263256645058 -0.13947199224100684245 0.33867122567576074532 0.51665544040706112838 -0.097728172423258555246 0.50446364164878010339 0.41085237476706498727;0.0020078542559230218127 -0.0037150350642299414562 -0.0096890640678928604407 0.011857506892291249864 -0.0021523312506969830872 -0.0019993481356538689644 0.03294591286097346694 -0.0021042060376766469169 0.049914853908675033134 0.019904315631552236404 -0.028968862768501729005 -0.0001104835503529334929 0.031860562403370880358 0.023813202194460893896 0.010198535946204609348 -0.0059487902844719805009 0.024350675980907305479 0.015016823696863202883 -0.0075027969900754729396 -0.00070857080538511477402 -0.11295404521221077965 -0.032453214505242307386 -0.25974897941753133379 0.036714973887869616076 -0.013742235785673606249 0.012178015328925817506 0.0084942539444382656605 0.050543084026264770148 0.054559007108714585588 0.038694905370670641676 -0.069427104190599636668 0.0198450142025005348 0.027131934966002104609 -0.033510180386407115161 0.031537718120924818077 0.010580416370233472825 -0.15594794543597834124 -0.0052076309381865540371 -0.14910023614704984163 -0.10393012482933737528 0.060248329307476408689 -0.026273761976842016641 -0.15060411145205268579 -0.09729154566979250629 -0.18762966400552963386 -0.057312464975287087665 -0.10580158690903375407 -0.1081034822975717874 -0.0014011560202305127672 -0.024013202975961139146 0.29212936612306017459 0.20628163445025909928 0.57460460731425988534 -0.15415700102393178894 0.029616860829943338074 -0.067743752962474243495 -0.029967020946171960688 -0.19600390784546251055 -0.19692489119536807363 -0.21404861036394995377;0.064638795528975834248 -0.07047195549912239898 -0.024771000849949924294 -0.0763921645989975584 -0.057674179590857917177 0.18685391111841537226 -0.02496244842715892448 0.04233347888275942883 0.39609790102613445795 0.9439892457367032863 0.03977095616070511902 -0.079918010854045123947 0.071291951310005527431 -0.088723484336142993678 -0.036855634487177504899 -0.028000966218730855006 -0.01940340128196001504 -0.01729082973381584204 0.18800099645410969784 0.023864228540483086588 0.0071571604693756504106 0.0655220897375955319 0.089383833845476545754 0.11015791920936741921 -0.081091432707637189914 -0.13721052126917249181 0.00044384658004192585959 0.014309866914428381185 -0.04302404155849598455 -0.0097366024384387302171 0.12674110347797062914 0.098105938472136125506 -0.073311473289739095827 0.18690376716557108305 0.22995083847060548976 -0.22558742704973253068 -0.08338989707942298657 -0.05115959846148081247 0.0048701006551579465939 1.083252398173107478 -0.61510871994004190366 0.3827780345188876443 0.052465132606902102619 0.34324938139318056374 -0.065719996477524980638 0.019716428022127478054 0.0092720507413164340166 0.13635239056780162903 -0.2056527886970598018 0.21573744381754950128 -0.17133063562824357717 -0.15782359354272834651 -0.12409573128608135384 -0.12514952557506578423 0.19675176015164255738 0.089285984199895737645 -0.10657557797142444556 0.0916357327789195375 -0.090133415792752497042 0.15263731839764052567;-0.19431840413910375642 0.2144500908323287991 0.18813980292962112495 -0.078327991528769735918 0.14469752159062870822 0.23526218684707111972 0.032564673602376241479 -0.12202655096554415604 -0.042477911300871577793 0.062680658725761576044 0.039548430765394056163 0.22346452087721532798 -0.10936343715260120335 0.29175645624427914981 0.23038920564696216409 -0.014259812355811640749 -0.15043937900454548706 0.088479549649026212332 -0.24523918879387332503 -0.030975456508641724396 0.077524750454896318441 0.16465908022332037541 -0.19911982659341714852 0.10564215206462901353 0.27598994755040134885 0.10725170616607095087 0.19252634589990819114 0.0074544550110632688128 0.068477929110015281489 0.213748580733405108 0.070210339671084018298 0.277449659697015516 -0.24271285817793600281 -0.36713821248485650761 -0.2093946116805335822 -0.43247923210311156605 0.028924383061979787313 0.037972444835222329829 -0.024276857269767991576 -0.25121495373214364211 -0.029319239626062958831 -0.23069289665313119642 0.074749589121757567534 -0.22681917544871502135 -0.07891356869952131925 -0.20107126156885743451 0.12070790426594216194 -0.26083827919284785501 0.043669564077580783068 -0.41486590275512280623 -0.033400174106757274384 0.22211232671622793688 0.11405011990033826763 -0.02181037774722050307 -0.0005898374622908614728 0.1087929819309499252 -0.13462299967959812097 -0.34440017344615325712 -0.16335247574515718294 -0.36378255506103857053;-0.0040510573728205854366 -0.14501162745532014675 0.15789582375960553584 -0.0390582208104247805 0.083806602226372220454 -0.0040281749723350595074 0.053913298009900363639 0.088293747480691048279 -0.048035673130669621911 0.059652448064012153495 0.14275128784619142697 0.062891980976562622541 0.069703852648862335561 -0.080148089670992378464 0.31378002837346857801 -0.37627187627635744205 0.017706491653793038354 -0.059340542682643694639 -0.10858251276381521155 0.039176149701523180213 -0.12412034742035324419 0.27507768337005694681 0.21703931829726083591 -0.036390425833271830558 0.16115132127208142698 -0.12817461719035699863 -0.069034479718151034455 -0.081245943407116064106 -0.0020689701005700573272 -0.14805875529665368795 0.25466284878144607173 0.31409708992627299873 0.043726214705967929308 -0.048755202700231078938 0.1252664671796067386 -0.026591190711493472437 0.36302608769554095547 0.12022180162747320153 -0.13117855914618178903 -0.14832599767098106347 0.29143913049070707677 0.43077251922043813259 0.049361842472094616396 0.37336834856002903971 0.25012669548869609359 -0.15450923001704958137 -0.25518181737958572919 0.23269744520958571266 0.013030198097738613858 -0.13848836070217737659 0.21004461704376575781 -0.11043417069589019086 -0.14779894922623623699 0.25618366181903307055 -0.16287225546578082414 -0.0067756648857194021543 0.10767047148984898453 0.36378704769726954993 0.32878853788381418033 0.46052402562237371164;-0.032722542264851522953 0.015359104829962291761 -0.024864311625444460163 0.00066901500493788648889 -0.0002580576651544140912 0.014653155387333673121 -0.0090415162669208667956 -0.0073186505836869749503 0.064616153379059376727 -0.0052428518075175109536 0.014477664605025601999 0.0014119347993725736654 -0.011188028025448390826 -0.0039005978278762163704 -0.0010874372028154843679 0.0010643936890706495648 -0.015180203835180436714 -0.0051106045116119849098 -0.0061373031368756542428 -0.012463156324166725988 -0.063275679421545300007 -0.00033794386511013429965 -0.0050626372019485672837 -0.017606056830765725446 0.0029415397349213238433 -0.012495682870666576306 -0.0022253361315311575609 -0.016103211989645746516 0.019094289555227881433 0.049114635071872220218 0.1438317856219948343 0.037907365237585630147 0.11348491552743779354 0.027183523928337456621 0.018717320160093163517 -0.023665687746287022986 0.089133371683646323014 0.065965702259498146254 -0.15013171633946192918 0.058422055161245226018 0.0073530350000710811148 0.06661411485772915364 0.070131940814421728225 0.06189279661745190203 0.106225359839518807 0.072633078499266867656 0.090976291433032610567 0.065810520422450224931 0.05351476337053946708 0.079930475994792332672 0.19094432278226525224 0.027220664904496823244 0.12065517375588039051 0.098604706350001056214 0.018760706160803442 0.075027149500109538427 0.025688803388515570048 0.10440391760496690876 -0.033609166567041846851 -0.16946142183834081441;-0.048811262569846143589 0.071890785819579791638 -0.0555868033558922503 0.22310877715965363177 -0.36239148454835007351 0.059618134752513034236 0.0062280131977673677118 -0.11683004215582001861 0.34894958192295844057 0.34033860324488185434 -0.2673441509039188313 -0.28943347372677957763 -0.29129332046875661133 -0.25502043102576876787 0.040413685031040397222 -0.15621286263931652427 -0.19195366758788029449 -0.10719034577288703847 -0.12094471926863377409 0.14868998757892912255 0.39628344239205814947 0.27628198152309807467 -0.21724991724030784379 0.049985407103347465063 0.11773292783120413441 0.25923163798267895297 -0.060162034665631150543 0.074048598640993404385 -0.12624325019978455131 0.0054597109764465334356 0.28684711555437175656 0.05044882589653626459 -0.14067371627305841342 -0.026056179733201668275 0.34616891141003375276 0.18004728321729648877 0.14895134880040103442 0.050150800871145158333 0.27831078658174762674 -0.018981475700548540442 0.35375413959901214067 0.26991182138658004197 -0.0021316455337498170682 0.2241592779957828907 0.36195203203984127605 -0.0459818972500548942 0.23674005617181564931 0.32599200453372856323 0.13287227058826639459 -0.178621408693348388 0.27020269111590045075 -0.15582934193075806406 0.2463217970195318296 0.1888015272550708501 0.12895280740221234939 0.11707975874365759983 0.30433286520558461286 0.28090715867590415611 -0.014626594051920576919 0.087241451058834768029;0.96434654562916333198 0.19655605999211039903 -0.070950808983168939248 -0.035719464519196365837 -0.047890211111127407861 -0.0232977282154628422 -0.025138139212886118773 -0.017029550515260796772 -0.050442884002144944278 -0.02553335203584740018 -0.0099009822610134842757 -0.011532175717231633871 0.013025705453313088725 -0.0090280316689721161472 -0.052243929025124140331 -0.0028743851295463243231 0.010039224499316745307 -0.018738507415794060373 0.020874683324857555566 -0.0098501100568164131482 0.022273675847036718267 -0.0011156977816883832059 0.051754632672068409671 -0.011953071146681629525 0.0059234593433493383866 0.001659508170513923804 -0.0066623346662582783734 -0.0094545694049429987449 0.016586233917029409579 0.027432512567133266607 0.53922167247282837277 -1.5297117085798277447 0.27377721068913440927 0.11811344654003211319 0.21008351709879835578 0.081435505144398179223 0.10196761744666421601 0.1064496148425608385 0.11088911482217110593 0.081791730298150261413 0.036027094521384021852 0.039820988664239651 -0.056801256605016059442 0.024048494123673505585 0.20053467065577851303 -0.022283010615116748132 -0.028249638479171671618 0.065393787817485019009 -0.051553401140607704733 0.014452780543912234837 -0.065495887708044167597 -0.0037138587719618438437 -0.14800878458040123142 0.059586204692849066566 -0.012321435779193591967 0.0088228490309074699555 0.027043845825130134741 0.041865822014688899855 -0.075407817676980418153 -0.10038112389399533875;0.034652789837045512578 0.022606755942068235132 -0.13443608147094801564 -0.10447825801135890433 0.063425076461613105749 -0.050572311739519537621 0.044209379004503460142 0.019921321198872965486 -0.092069716491514436152 0.021142221773889486452 0.1629580677387607035 0.01555367366101916525 0.14243519072167543094 -0.21210730171743444328 -0.11239226197481663738 -0.17456186130065040607 -0.26245667860434851448 0.010218343966589523222 -0.20052666821891793059 -0.042586084817562021299 0.25149748363663126938 -0.25489208305181881853 0.22228370897768059966 -0.15697542247703902274 -0.00264761802741941615 0.028349402956969093487 0.03728876312107823332 -0.032307122973652326048 -0.047261489766091270559 -0.11184724507035911922 0.082120548357199882328 0.30748101987887160869 -0.0097847287245133238165 0.34369897475908134377 0.23645742039406883461 0.53235896615120659181 -0.13001883892531973519 0.033496879159839371143 0.31016202642007284496 0.074829126502044193692 -0.053419774440124308257 0.28811748501703088321 -0.19845224853404383469 -0.0081448385342992399988 0.034437400184173870554 0.18212484904405817909 0.14586183220232984414 0.35779315122008170658 0.070038052232369613082 -0.00062675396366959330949 0.27951389787308839052 -0.17807302105945668758 -0.076020532594985465447 -0.15717585167102662846 0.02808407580539740156 0.017677235216438234866 0.35629617577598937661 0.18881186395447577264 -0.12393338224450835272 0.36607707835268621377;0.041780932064935175085 0.073151606119840478781 -0.017780226158718073076 -0.018280887584749608982 0.19894623390939020213 0.024462202168349916204 0.15491835795102373852 -0.14002179901123609773 0.15958237775935329994 0.26300554544637771981 0.1781813384784984855 0.032454941895084937764 -0.036011589245563399575 0.30602625480039163941 0.096169599456115958946 0.13743545804727208548 -0.019682925568667759136 -0.011084091987888840952 -0.10126415186242651578 0.0098499378860780247708 -0.14669626279504419109 0.1121713668050024898 -0.046893767316393157596 0.11678720930862296346 0.042884867960285656674 0.31231803644028649503 0.11174313161686459661 -0.16562761118741822775 -0.14399446074074326307 -0.25214365984034059487 0.1265563011611187394 -0.31580067391303384694 0.10581371902054677314 -0.27307472687534684042 -0.28907214857434493371 -0.084868793627571256777 0.07834830992359485824 -0.098291236419505129129 -0.08073973071581036498 -0.42684142086452259157 -0.25780410755162253 -0.018689439722372400143 -0.31826592221048821685 -0.44351606122937986543 0.095512654197064270067 -0.019580560019245504821 0.027808454580751148372 -0.14931007714236979589 -0.1832658122794699751 0.11939861515897960687 0.06631460354274314184 -0.40694577723688074578 -0.16509288347397235719 -0.11195986658175291484 0.040087883481064158497 -0.030771270674612178492 -0.29502743870192171816 -0.19323692268858902454 0.013003192132398819561 -0.33727391837601367053];

% Layer 2
b2 = [1.4180049611550427091;-1.4343278363122500263;1.4245175859457612777;-1.3528341549101043917;-1.2617696294065554596;1.2206581442388237946;-1.1994633674687780189;-1.0105164732370310876;-0.93535155149513005135;-1.0444874453244532564;-0.79034471490413582551;0.82282614331697456755;0.78254906483701391906;-0.71996441355651497052;-0.74087785303271080917;-0.51780009045646202548;-0.56370962132184676552;-0.3526787629496147547;-0.70518653505880557475;-0.47391070944568686185;-0.13500830551747639019;-0.42861690240926214601;0.11045836817808134256;0.02054224881746571571;-0.33113550686685483404;0.14997689697374938511;0.18404868426540499371;-0.26028341427764556393;0.3169432248430278376;-0.23532330082007235639;-0.23911095511268054548;0.13238450725906267258;0.28064839582737299839;0.41107204571923960934;0.53971783510833104547;0.47891725170002735767;0.79795139465502917808;-0.8836902713394564346;0.87356033564335611175;1.0290720950289513613;-0.9354100711206394525;0.96939307096800420016;1.1655045324643737992;-1.2527096071473653449;1.244416701659778024;1.3034128519854437656;-1.2197143863259907182;-1.4945555179670277912;-1.4719787750821058392;-1.4941355315015023564];
LW2_1 = [-0.12265394799973698692 0.035316046324813180068 0.1516963524635783489 -0.20018584681116913249 0.223926305976274026 -0.317321428753014112 0.19231386358093291444 -0.45563430552655520556 -0.002907840458689783282 -0.24004297037948252314 0.096101439185674902843 0.092856062691368812523 -0.4131507421938436786 0.072012723151682930811 -0.053266368620760652652 -0.35649208584427310997 -0.1536347156556953919 -0.28093660399225933721 -0.015023910129128226904 0.074418445901177035506 -0.26350340736885341508 0.030267632992021387822 -0.021973138127480883186 0.11363717964892568191 -0.011732515382690647185 0.24263190218392527431 0.14031492920323762608 -0.27283044825037194858 0.90032745354812149241 -0.11528249909164638154 -0.15521928210485802513 0.179313863964641107 -0.17490465500896615336 -0.39194964166141998962 -0.06349740426091196599 0.21400735333136369776 0.45950540667157407926 -0.027460574317175540787 0.22221116474631319448 -0.024801063187446625857 0.14778982187818201499 0.44234993614573009379 0.24856958401665971148 0.36193166129704429368 0.25458760080676223758 0.039723899543753049546 -0.25604198525185989377 0.19546232535893859339 -0.23333378561676765273 0.10731987714286449209;0.018663888033158326785 -0.28371005526002845976 0.24190612204296729759 -0.17757915525271777968 -0.1965645538987837726 0.033789403458551671433 -0.3092641024843732489 -0.29182219893534921962 0.3348476050429812223 -0.1412588280309745592 0.011755414379404255029 -0.11300872343441220602 0.03630668789763489418 -0.025077301833089420124 0.21470138816519995784 -0.15314010962084934064 0.16977578596869360994 -0.10641971251705155399 0.31366150473709292212 -0.1840281737175435417 -0.12162735405891481055 -0.24460663695501597137 0.16950594806019894656 0.14991401621680225387 0.32441853490573779872 -0.072980343627819910246 0.10798609283820319316 -0.15906944261773828253 -0.011997986580109452209 0.34818986367487003708 0.011083903232344670398 -0.30602703329254693498 -0.35375129060278376336 -0.367128534098284387 0.1363879637171361292 0.12673322008307899567 0.30341280744604270936 -0.13827225070877924296 -0.23674566772181560026 0.25020862646727892731 0.1301036445806759978 -0.3269342459676909951 0.25736117313591805322 0.27863869401134361281 0.17967199589999502396 0.14110323843614497319 0.29078544830624269979 -0.39491588729408744207 -0.2592522573444389633 0.028589831521775670858;-0.21108289452120532204 0.10294140907947464669 0.15165701457074187708 -0.22730543397590233234 0.31665417550886648668 0.33846240902014829155 -0.29433400078385890675 0.070734331786142551346 -0.11088327079772146433 0.10692723479812699106 -0.085376044421056743183 -0.29068436456112267674 0.17732151888705605103 0.325721193797149422 -0.14199532988998991856 -0.078819829016495826512 -0.27149183659887837772 0.03062559763296599652 0.11550668993309487487 0.31448596909465387217 0.11876214907818913313 -0.31798565629233793706 0.076359821925828658129 -0.30015196879837735544 0.26905423456749072431 -0.099804928161296310729 0.21883318472181598202 0.045421431980684399965 -0.33377119306075792027 0.039454082483496424882 -0.38145295634642972793 0.19014345115325048674 -0.053557047953463152168 0.15528196614245745599 0.1217136161947101336 0.29669391204862810563 0.20268353864734386938 -0.16455978628396175645 0.28700917451622870447 0.30735565704609135729 0.064545492491712916361 -0.14169409480630487663 0.37895758869256751522 -0.070095183966386906405 0.10894428757879891234 0.27163354088287250399 -0.065937132345389712351 0.29267687675752152021 0.11758064403255900909 -0.21326556586120737347;0.22417411772142245563 -0.20512748172497527466 -0.93430033071754670093 0.32994976172470774634 -0.30188949381626350998 -0.023448451716894913588 -0.31401236902812273977 0.13421924755803329998 -0.36424011929744010141 -0.14402856738673011638 0.097249572529302691359 0.46320194841659761975 0.19357909735024042552 -1.1513375235983154266 -0.45708341145315928289 0.85521829147884920186 -0.035753584364114208982 0.16378107888734311226 -0.03716265946835512618 -0.29536148716816451598 -0.21651648870722611795 -0.63284226347017935588 0.14042019087198331917 0.1685957667961555384 0.15039110000898636699 -0.42376488009869445195 -0.29598000755117093163 0.66107282201608430494 0.91230577558505976388 -0.34814824991414577982 0.2537874556947878335 -1.1151496546956976008 0.29735294331234057852 0.19746829726041559283 -0.31135671080898863483 0.0097504298093176525186 -0.024265490420851902609 0.02887777030331474884 -0.099315451217844324949 0.19467080762137736749 0.22203820540823751561 0.19029685303127297225 -0.1730028430314604071 -0.32345100657343961448 -0.20668992127780247414 0.3091781305851475925 0.30851625988120245925 1.1050288711654034923 -0.030609610292041924268 0.028114545209977439416;0.057006222086915907254 0.065220527032920014299 -0.38225241114965502476 -0.22125127775971473176 -0.29980385484194543855 0.33739704859153601957 0.044074493299435107962 0.35025505834036091413 0.0024692881656607230251 0.2879673565960405579 -0.37301005482954285863 -0.29617823152041211632 -0.10538408998844953079 -0.23937148599989016562 0.14675080391704795058 -0.32181824259105207275 -0.0096993011855131018584 0.226685604026995835 -0.1306104685949671107 0.031994285380583721567 -0.056985740851088366454 -0.04237784502649324242 0.1631046804341153289 -0.30189999395215599831 0.090564710426197334026 -0.10564686687378999075 0.014300673001148494351 -0.30333689692125909154 -0.15676943775655877156 -0.081942811804032261724 0.077419385477353497294 -0.22465013434237979251 0.15422371993925990119 0.18248404508270518742 -0.058710867031085599288 -0.28675966170219946427 -0.16362484584183692449 -0.37066634557233518743 -0.0268857464603878063 -0.079810053238367831274 -0.30126747264446163133 0.19891605135586254427 0.10975162992492530634 -0.37647799722235364417 0.05512465602371737633 -0.087078682666518955613 -0.17074905581582369707 -0.067449031380173260497 -0.11411742178152005367 -0.40410368239493171805;-0.11503671405748093493 0.057849317495443891568 -0.34161933366608543405 0.053356287801711997643 0.37495490388173963181 0.33101535460534026178 0.30371527066106518422 -0.10120512019259010617 -0.028318428697489090445 0.1546922460092460816 0.14644152655611406 0.049073568073046559823 -0.11095141210877615401 -0.14613548153094413351 -0.062274207650924888469 -0.03037182960509766938 -0.03859911362621293307 -0.17113247152294458475 0.086471742870810996973 0.20384660244933747175 0.15972084268576647315 0.15744616322287843801 -0.13439684431757456529 0.13006091506500530586 -0.11513109395284464032 0.22213500158898993875 0.33144690570775070526 0.099761239555398062429 0.24096925223619145018 -0.179123374832501292 0.13027906024016175368 0.14343512667729194088 -0.26296847289420416383 0.33253113848888637971 0.28503691692377758349 0.025349034788453843337 -0.262385226124550619 -0.29100472851523628837 -0.025272494818465142397 0.36150293761777607671 0.23620965604803251248 -0.20928786412438796227 -0.12367848595725308702 0.21857155137033690284 0.27727428652973606926 -0.32194403768602330995 0.30382716974878815064 0.30789277269772480361 -0.15124368301830856676 0.36396804331800303167;0.06684713574534115188 0.092047706878745291781 -0.43406325690598412947 -0.20838600245897612173 0.15009263617190579665 -0.21400206480950742516 -0.12443102771572572829 -0.12906885120283856372 -0.11810767232901581147 -0.2229006289976983024 -0.31901921903775759537 -0.056305419765542624733 0.071523942893009798127 0.036394526879828283106 -0.11410868923072717274 -0.0015958121523914280907 0.18444289723343404441 0.28035598041061443597 -0.16006981694289443285 0.21238251713970338064 0.0027589856901536848922 0.078452086603756257532 -0.4016575325879097047 -0.14169814902881860963 0.13786331618599037552 -0.1220974609827625984 -0.32875196616909824199 0.37823300727237679775 0.12018892922490435893 0.1719064922391239647 0.14295470539814014721 -0.25817719147751466702 -0.081754763219708870281 -0.047133081996955206172 -0.13664359821288066255 -0.13937000949785385839 0.26358649863276345515 -0.095921635505581470671 0.13886208348669823454 -0.25966643580504544797 -0.44555618846706002145 0.30089168434776925043 0.22442388708708363443 0.23277380735583688698 -0.09824833899881185717 -0.45667994392419791749 0.25733459511943795883 -0.16964985213559702348 -0.023273125977339392118 0.261192047070472666;0.37502804863476474351 -0.087076944683003212888 0.85037116327649908687 -0.1889835891284940006 -0.11806782043540271776 -0.1815752918196121557 -0.5848020720870895639 0.21050835530133368834 -0.23084989232986122265 0.0054726763890208789815 -0.1017735101719841051 0.22185211373991575723 0.057476754691276041309 0.62734682352019921492 -0.52056720503195175187 0.86899982152874377661 0.48356738681291044912 -0.25009373766904863245 -0.67999666131493075039 -0.13325700796912284818 0.22099439260545936103 -0.014690400599267161227 0.33449090093366307119 -0.048252683323713227437 -0.26172101270653963523 0.21218700218929409385 0.4044346446790852978 0.13799844602391778126 0.09546446053447628366 -0.082971478074119905943 -0.34287038003834829913 0.39410912681736115504 0.016351982518353447987 0.11065602434577222202 -0.25426371290340560316 0.29184563184770240252 -0.29375979677231245368 -0.27926733777812551285 -0.014696724731520722021 -0.11719878850642707901 -0.28145575915489140506 -0.34511538902575528143 -0.24931237577964548979 -0.091894371418002260277 -0.20290384518691068072 -0.3772941332144370552 0.28450196532603860833 0.10358156128609406765 0.38601324668760073067 -0.21843603790571719525;-0.0036397201197228231696 0.29367895175670466479 -0.020876185344004871691 -0.12490231654447275789 -0.10692350229968994313 0.10598288341845223115 -0.39777770358837327702 0.10806734934366285517 0.16845396416653729554 0.037327650621698363342 -0.38745906607469227101 -0.059672381213185736459 -0.12587842344509012071 -0.17497494203560420845 -0.081512997640622308904 -0.08901890475920916368 0.082959865440301164274 -0.10644593549668926458 -0.36015991569275312978 -2.8331920632230471746 -0.73717645580795110316 -0.097498510735031587715 0.37197923161579432572 -0.080857782052040472198 -0.20507933731007424449 0.1576530742999535939 -0.038383023777077224237 -0.67719034315294668325 0.21422405914346243083 0.94997926570053359274 0.33140664458595520125 -0.24116312137530587778 -0.074241521349879976976 0.14063272075059987665 0.6303477868969904474 -0.22726139287017424473 -0.16580127078767126214 0.11759057212847251472 -0.036555870057355915881 0.1198516531100799476 -0.34565089398616577476 -0.11596413917097421475 0.41491050166537885024 -0.025731467287247247744 0.19930810873459220423 0.80980418327383030253 0.032091402251545386726 -0.18509519742362515182 -0.15787841625620468999 -0.12263518010566556993;0.27530108708711392707 0.25386980166705613859 0.26195130016879147883 -0.2559850326947867849 -0.054922087302393354791 -0.13708988166491867244 -0.071764942281932725399 0.047109810881613575773 0.24106148624016848769 -0.043443578654129816341 -0.36614002552106922339 -0.24086397293684766452 -0.19226136960272574572 -0.18515420173531796366 0.009786094534068706316 0.31842982816491927078 -0.39170631170961484058 -0.24170752575522019834 0.16004904670724132143 0.076301657153027488412 -0.22291715219497026945 -0.065729960573559079173 -0.13624246015170290991 -0.37664266675727470224 -0.038547441409959262715 0.079597584452027234092 -0.075631573035332244626 0.24114878543799514454 -0.081964635597304436043 -0.023433225039180338028 -0.29387669935815907696 -0.2217463111705572365 -0.031740668946001818207 -0.24935275892053543334 0.076569739273979420258 -0.23313168321741903344 -0.2023872974705089034 0.16759432420285153009 0.28493900000908217729 -0.2211802680407439492 0.12291602190354776469 -0.32704442816232720537 -0.26573520087824320512 0.17305619010863018681 -0.044104587999636402085 0.081742802375372972112 0.22444698055246847801 -0.21412258712742640587 -0.33481563782398543472 0.34956602274304166;0.16062977415934850955 -0.21229880879545262595 -1.2843129599898046589 0.46121450506381322931 0.44872981881173773511 0.24430196618599350766 -0.86531514865217051824 0.17232180798956500678 -0.14144851803939870183 -0.10593005341151279231 0.06108626277953746464 0.41874903689950127017 0.31690861649847096304 -0.98942985390857629557 -0.45108138770793348993 0.57231904152628865212 0.323203153863484971 0.59023470454583648603 -0.41631374074806365426 0.47952208792479544819 0.26978344790660990782 0.14716835553509741152 0.10753817108496435684 -0.068242919030821649895 0.42339732293863091561 0.49267532106546363391 -0.40296948665605203388 0.16257119436210287766 -0.076133951542357899966 0.24476173202065515389 0.40118675308693668713 0.10388083711404275111 0.06852138773791456583 -0.047968162605711198165 -0.29437804322372179699 0.060190439410151973243 -0.29833498202767710916 0.049267862308250087722 -0.070743230402274953628 0.33694146330959057201 0.15522942745671636233 0.51227555520001488709 -0.11664555651690559912 -0.13237524919821661018 0.35764652908845873114 0.54312724216498420304 -0.11615642769174683302 -0.18840315590203379759 0.3396958553498150013 -0.26918868099716558584;0.032545986209555448354 -0.026998024293077075436 0.52089020789573314829 -0.34340148635502243391 -0.21560649119846952981 -0.17603809477569890007 0.038863625134663445926 0.11484208881630243726 -0.118096624080219606 -0.16288104524619198554 -0.033978894128595921176 0.1941965344804162108 -0.03241869775424651573 0.065381139649793515445 -0.049632299589648369575 -0.2162897353346261986 0.29718598338869806064 -0.076214184353304459396 -0.22081291735601576987 -0.30630015387535791671 -0.21274946372925260252 0.050512274590266706409 -0.20001325728352084554 -0.28396577274826512172 0.047162836873537526683 0.19548542677457936279 0.25040653166275222974 -0.15496331277633954016 -0.057774350268577447098 0.51460243811605077546 0.090418363154450578922 -0.17688544199203415364 -0.18509443238708128687 -0.010819744400456849168 -0.3196415731128018356 0.32887800799828259546 -0.18934417510259851647 -0.0016675613457775438804 -0.011072636560788893037 -0.13085355022503666889 0.35617384043251942849 0.30003398161447286663 0.050632085267419517371 -0.32439887344180928785 0.18800314295317818725 0.066326039912511652874 0.23512528083447489791 0.010282654005523370402 -0.36910136599003035007 0.068054982676437739131;-0.02131095804908353028 -0.058198795176293061093 0.020355633766687558639 0.010976773560278213146 -0.0304974281529657755 0.15565038711451095743 0.23270514316967305657 0.042056195054358633256 -0.25564420824621314488 0.15593465273179571429 -0.19867553105205967845 -0.34366455667591294665 0.21509047969761940777 -0.89655091971953859709 0.1524679848140431393 -0.40100298478072210484 -0.2924846709146523005 0.25651057418975070634 -0.21840819391289975626 -0.21619101809327131991 0.065995281859916724021 0.049425558398992291975 0.046989216834842424675 0.17015788104987789042 0.07513540165249668612 -0.17626199164472808323 0.21121439441367659273 -0.48343863649774765356 -0.016630614180601275415 -0.35130602478484429518 -0.06269879243439774319 0.20071284981197470842 -0.17018439819986722061 0.056946153387364674414 -0.25056531495706629853 -0.08090801781151985006 0.049132077765453092966 0.26992853123167365181 -0.33003277360333022061 -0.34255087233616993148 -0.31471655970896239563 0.13539706849526850219 0.16800211807963874588 0.10315783721031394904 -0.18171621273365173854 -0.60453259482680887782 0.29569678343523481123 0.20464624999115196835 0.047824983943285062638 0.28801146404477495633;0.29167411481696237097 0.17834958453916666121 -0.10032324194827094144 -0.16910590296608349337 -0.22291321587145832006 -0.023577935052328087562 0.11748857885714504568 0.097954858892970175788 -0.30269919696724162383 -0.086603110834497815107 0.18862949587006402896 0.029905701117653334803 -0.32863357701970741243 0.10929231969624354781 0.36120503060349723468 -0.20049537663140232224 -0.27943448648657287503 0.07466397959717303856 0.28823558185161440859 -0.072320074323351551948 0.073685890215938187886 0.1206049850673978352 0.055053735403676015703 0.36505373465929519261 0.11502878403012599395 0.16751649872643215033 0.03189698950691287338 0.24348395747315704218 -0.040364261137668014379 0.10875287506976662188 0.026119282230708050496 -0.69392447883738150871 -0.42918003281689898198 -0.26103480941407808391 0.060539765227263571401 0.1832386901810889035 0.41534857362063637432 -0.16585081817890906519 0.16703256861905069197 -0.26382801997861149434 0.2016397794655991893 0.043074355108808748405 0.27813723801843354133 0.41245180095567918199 -0.33462558587592478032 0.39849347805598572814 -0.21860234608601600281 0.1909834504220495055 -0.19749145702900164356 0.13475915416480538367;0.31079033964400781809 -0.399127027189547956 0.20844819817333115619 -0.2188838979242589966 0.16594529906101615491 -0.29692821771839816858 0.23271966719491354869 -0.3066543816208159301 0.026559309950292171038 0.18302235422356483152 -0.074891964924060847042 0.023963984288710334092 -0.020528419214986878133 0.2196841907047196174 0.02701039405696192483 -0.2157912247930323657 -0.44359115776006713405 -0.13051191526617775263 -0.31907079573063168443 -0.17912519273742327774 0.069223860721948457519 -0.050979280877950637618 -0.0042475872977793607821 -0.36677744227628478191 -0.16537139653605972822 0.25038391409687671407 -0.063104416787382891507 -0.34543669794657255734 0.14483999256832813529 0.024768808583329953582 -0.040815303791105331244 -0.24579575575224396622 -0.031134669889838935408 0.24198369520912427211 -0.20993045471382879019 -0.31555107469087811944 0.059050669233571669026 0.036790272824364464443 -0.24321497421911963954 -0.11391925073136408009 -0.40861588960253070191 -0.15046472281533190829 -0.050082392357404782735 -0.27410130407709348832 0.15068665085806645654 0.187016865058612064 -0.35286298652316283597 0.1745679674975247897 -0.13101572728835400583 0.077665096208253431298;0.18632125104472971322 0.071143744258162056049 0.2436766869410824099 -0.026517771682042744208 -0.067783382871180797302 0.24068002594190918142 0.21259523430056589954 -0.056156709096453170937 -0.36003268728324255843 -0.054110416223617945064 0.32306510918197089977 0.27573021196192659676 0.35682141067656264477 0.13400790562420270002 -0.0042052353058703350122 -0.4339187812131664046 0.38933771144478507287 -0.028920536671833928927 -0.039784147497122966664 0.085541553490717237018 0.23475696735749537747 0.053854839790314877612 0.13287069052102307154 0.29337512179361058262 -0.24850851529373446658 0.18706527240070056073 0.30277221792753755691 0.062552362759540791615 0.19785630801764872433 0.088508008862102444114 0.058187232618460239808 0.31043336286089107112 0.21340831009014415987 0.2112247836875537077 0.40138823188792299712 -0.054831634097127636418 -0.24294727629827922444 0.024271934954904483828 0.32457634873460894376 0.031966775338308404952 0.23356653582257635993 -0.13379905318156223859 0.46889472812683319347 0.22598613512020471195 -0.22618549568548371176 0.059173664030822213655 0.33324597701400798799 -0.010620511547886200832 -0.15261551167342496393 0.12130512954126762559;0.33454977512592354305 -0.36459889212818158422 -0.18111503084373972716 -0.10869299485298766772 0.024790245968699834572 -0.15812291718419910214 0.03080012200323729854 0.016385983188594247656 -0.021737837555533424255 -0.18181573503695286353 -0.16494266248839845046 -0.099976323465604644003 0.080282691424072794018 -0.29026954761832463037 -0.1471158222237400337 -0.18413059525571848218 0.1993517165805941127 -0.0021847076578985027452 -0.20541777751484857628 0.21306789121051322722 -0.05957292334127615302 0.082694046132152615458 -0.26250302514596263181 -0.35932475789345263983 -0.26510746230713688742 0.05646914918423993901 -0.0099639474434406287429 0.19434495479988933564 0.17799646680702010948 0.097179178546824951379 0.043607769841468156657 0.54622237258462513765 0.39195153114363662228 -0.30965083565366302576 -0.2673363082233777277 0.21990737178596769796 -0.24359948106895082387 0.29892977147773558411 -0.21821735142454828926 0.0071839240892155771523 -0.27926694518439237891 -0.14756163049406156862 0.16183987152452661284 -0.028323354029024982309 0.093240328069554817558 -0.53535109671958835964 -0.29999859892706637332 -0.25463746929802438812 0.26734856096440223761 0.038154651327936939254;-0.0527672354171570962 0.33394198797981378135 0.15004993076340805702 0.41743933838202906816 0.13985285417121415263 0.11590991729368362029 -0.27068765429931446187 0.25159156289714668109 -0.089202815862106557554 0.1164744700467541666 -0.16200729438211597389 0.21326052596273828432 0.071843465957274477152 0.15893521343539870894 -0.038410434236836356325 -0.087632712741782609056 -0.016988251387796464431 0.17160510031113429541 0.098424503531564594416 -0.015877120838370954031 0.30393629793161086594 -0.15618788980881365136 0.09685969100965678702 0.022042776957804426086 0.050340222957949674887 0.091490331156620890996 -0.22210061100545905322 0.24344725794566482446 0.21655054148327171348 0.21500660802024565421 -0.076417772049674717594 -0.088621213017942845891 0.12681205547183141413 -0.21768111603169315593 0.14629556622028455637 -0.048193768981557784381 -0.25107791191732276026 0.34243764061000780963 -0.19672564081989546425 -0.15457792568311751191 0.41512167689669693393 0.21099799404569197225 0.32231101458381988811 -0.4247500876846084239 0.38568330274727546936 -0.38513231115468554711 0.30972718317960912238 0.40656818492237511986 0.1291192200929872913 0.12920057404353349484;0.19250199467762788008 0.143476789126525478 0.083155557339233659997 -0.39214234818874682542 -0.34321819931851094143 -0.32344025300046630456 -1.1104664007229489986 0.011542508729496650521 0.016228780890143550825 -0.30873204682983756975 -0.083417465458680062351 0.36472649457818046015 0.22306758515245100893 -2.4090588764948797085 -0.73513339428078083859 -0.74842536663446657119 -0.16359077051692044735 -0.14666874483258465767 -0.63504566835078102294 -0.1553663068536026981 -0.078153337603472927686 -0.12298418585813475357 -0.030352815631034205796 0.019142798009221171501 0.00032339372380348242611 -0.20074793231080503841 0.013562808591038271258 -0.025330541873863705177 0.31837591582332980256 -0.14457815384490865784 -0.19051777015819121308 0.25368361510515291535 0.41084746309536707143 -0.34601870775497278743 0.28794170279008141078 -0.0311239731050395943 0.48236511577024954178 -0.16202481929072604094 0.26330949984860135826 0.64337490781780404259 -0.16299965600139820765 -0.075728955537555278643 0.35802840700429650056 0.52427969761439541241 -0.013929811596869961718 -0.43134119788491764869 -0.40879450610240974928 0.2385671930172831301 -0.37961057573792050812 0.2901240854539906544;0.24722698289326719423 0.16431235219914039347 0.28550696394443658699 0.23795548933848301165 0.18440855269976599851 -0.29030141095230177495 -0.41397114940764634383 -0.055581561857232217316 0.29065700373693587055 0.14607590779353402111 -0.014195475268568055749 0.50681148612233728468 0.048444743541118086283 1.0444869907511813434 -0.56783122925198059594 0.4583268691969218378 0.17055335738278867841 0.099856729379236050526 -0.29663963638306295456 -0.42106685148166456134 -0.18861207062156146175 -0.74203947865951491725 0.11261353478226797387 -0.12982786265065812681 0.022849251556017021597 -0.49439266057397729393 0.045489548499195925357 0.56160016430477055493 1.031905720014086203 -0.45923099265819916637 0.061414109490304333305 -1.0123487154905650431 0.32194261639597931968 0.17148806941099126178 0.26533771572629438751 -0.154091876232401781 0.016943219396301171381 -0.17593574025041455733 0.040545962263476953424 0.00091450846997861772944 -0.10771754759170593108 -0.04944134227582488994 -0.11466659099969224445 -0.30560121591895056392 0.1921534442839832324 -0.028396060065979260995 -0.25853526343051147496 1.2121374836254472651 -0.30353653721609324956 0.13103743351880733914;0.1259128482344067379 -0.21114540541497905934 