function [Y,Xf,Af] = myNeuralNetworkFunction2(X,~,~)
%MYNEURALNETWORKFUNCTION2 neural network simulation function.
%
% Auto-generated by MATLAB, 20-May-2022 14:22:35.
% 
% [Y] = myNeuralNetworkFunction2(X,~,~) takes these arguments:
% 
%   X = 1xTS cell, 1 inputs over TS timesteps
%   Each X{1,ts} = 60xQ matrix, input #1 at timestep ts.
% 
% and returns:
%   Y = 1xTS cell of 1 outputs over TS timesteps.
%   Each Y{1,ts} = 5xQ matrix, output #1 at timestep ts.
% 
% where Q is number of samples (or series) and TS is the number of timesteps.

%#ok<*RPMT0>

% ===== NEURAL NETWORK CONSTANTS =====

% Input 1
x1_step1.xoffset = [0.000169931602302387;0.000346331647092413;5.442009410217e-06;0.000135327412578823;6.36558365540996e-06;4.3635456809521e-05;3.53429631172464e-06;3.87562099568583e-06;0.000162733740484255;3.77677137992638e-05;5.7351465272526e-05;6.9797167333574e-06;2.27084196753324e-05;1.05084339353523e-05;0.000115797014922148;5.70203293047689e-05;3.65667174117012e-05;5.38991420492296e-05;8.20633845983742e-05;9.54795211299819e-05;0.000313561011579755;0.000663849457733345;0.000144566479504449;3.32676421227473e-05;4.32558063904187e-05;4.9917827839141e-05;3.82202443127699e-06;1.55108269317417e-06;9.30368920711855e-05;0.00022757422475872;-2.48946176110148;-1.91891737094258;-1.45452402476101;-1.75337696023761;-2.39812352308604;-2.94331697433844;-3.34167228548308;-3.82440005542575;-4.42310193987295;-4.72577499175497;-4.97541074801087;-5.61876450671381;-5.85154462752991;-5.95489598946197;-5.86040925092667;-5.93414853890711;-6.40631823747991;-6.84484113543277;-7.00248224048914;-6.97133319486878;-6.91957275114031;-6.89702481252027;-7.07624374047559;-7.48412533331336;-7.68568743442694;-7.76467322880637;-7.84964607512813;-7.87550645234708;-8.00964185550776;-8.00882157881376];
x1_step1.gain = [2.00034269843566;2.00077871667893;2.00002520511406;2.00029213826084;2.0002599202931;2.00019349501817;2.00034043181364;2.00005224026921;2.00043029348953;2.00023158208083;2.00017997435802;2.00013809724419;2.00011180670819;2.00003376008948;2.00024792043284;2.00029128537156;2.00034326351312;2.00014234504673;2.0007694435389;2.00052960900909;2.00084776855527;2.00163855389815;2.00039284149712;2.00023370571478;2.00034973604337;2.00108239596042;2.0000368971159;2.00008062227695;2.00024929428883;2.00059874249035;0.129121596103249;0.127269354433;0.126742642072482;0.134672492351651;0.145915684191152;0.151741417752849;0.153376958925713;0.146734635876408;0.141541226755603;0.137382616382645;0.139542566105395;0.135798932468948;0.130951974881322;0.123951539957537;0.119345096303485;0.115488074051176;0.115881234541313;0.118569963666506;0.119009698212823;0.116434134930918;0.112738519981387;0.11038026787492;0.111816442004738;0.11654591363751;0.119131622614404;0.120080404887358;0.119929455834038;0.116808326881284;0.116164737922485;0.117112383874496];
x1_step1.ymin = -1;

% Layer 1
b1 = [1.6746527874390184643;-1.7279144461745681305;1.8971845709359949073;-1.8508576607121440816;-1.7690089389192016345;1.8024004966666773431;1.576853307733242282;-1.5179736537750747605;1.4727903908270600919;-1.471973012992307428;0.70082167197338574027;0.66986508725985693946;1.0763854055463455417;-0.67927954898216758028;0.99434256018010036549;0.705635878097854774;-0.93595087615147032345;-0.75944723243297129756;-0.51588363650022650564;0.38472729469340966046;0.44311342246604190631;0.42395190979492297645;0.22940090740948990145;-0.016255131532513379666;0.13434196064457798458;-0.21346823229747097228;-0.30825654246131395375;0.0043167132147045308641;0.0069496883358363091554;0.51235870687098405973;-0.58855870940724819285;-0.82345180016961372349;0.23899991134760728562;-0.45454146396710343181;-0.70759880829956078863;0.75445648649061802793;-1.1553623581235104023;-0.86831632606117958861;0.97233723050843423596;-0.89419463669540799611;-1.3534498847058975546;-1.3882529768960749639;-1.383619261858141547;-1.5421737505105466148;-1.6414698715071673885;1.7331017606705503287;1.82286181603571662;-1.7631351401171988513;-1.9334520554505105761;1.9493242888658348644];
IW1_1 = [0.016605516810415384826 0.018072571938024042937 0.023542417875258604687 0.017625955865427835739 0.0094786262775614429921 0.0048147899227912651504 0.0057412840025550465964 0.0050257045692011868138 0.0023506578674347038474 0.00603608992350841006 -0.0017368505557231806499 -0.0033257200430565551745 -0.0077146909703831806696 -0.017479684650961700015 -0.022773956386461503137 -0.037895825182069735326 -0.033072244920441432048 -0.03228443022701082965 -0.037614508253304118623 -0.042930672165331945633 -0.045520946648264101753 -0.05451577925457901791 -0.045229482183108432602 -0.043087817890794251341 -0.034912850515632552761 -0.030941450894014947692 -0.031910046150087939543 -0.034367549256524208834 -0.034678102525675554013 -0.030410333585303768456 0.25856213179535070257 0.057703796083516868676 -0.0092576869209425455276 -0.21601344228380570112 0.090360549159426373222 -0.14449256444404942612 0.075611001831021679154 -0.3841775559352755276 -0.064048455098218257109 0.24911642146759255256 0.12947748436029796193 -0.19130820509413304364 0.31655657824944111178 -0.32387825202268977209 0.29300720811322306103 -0.29709039613926530032 0.19337258533990406284 0.28152985382016426641 -0.15844241569851005846 -0.066548660048272298417 -0.16921395167257369252 -0.36169775992425373667 -0.40996322148957820009 -0.15186012342957486143 0.15087492834118049201 -0.29751965336379848637 -0.057783203340500445544 -0.050742849277725439461 0.19490857242736595034 -0.22172324468336471193;0.037582502273882940902 0.031271128162771846815 -0.069518209153402538147 -0.0734714465236833425 -0.022134568148227409812 0.023152637979868349871 -0.054623779615919819397 -0.0054692867212261624121 0.016952827123236337975 -0.054897199868308273196 -0.030652261678117978527 -0.070311054246266782575 -0.035060981496613977115 -0.019864456314249011315 0.060236586217043995573 0.042186511341908018713 0.050002652162790463264 0.035332957614704091354 -0.05368997822597690317 0.048744579318055397676 0.00067069894586696586838 -0.013510369470731508831 -0.064000040607045713403 -0.0072936633425419745286 -0.038859537890416948058 -0.048417865898083264908 -0.054630186957093512801 -0.080627297790124244359 -0.0015200425969656222117 -0.011472144021022754809 -0.17223576991656008861 0.21334978300546070251 -0.22091484066408098585 -0.00081251697059973426295 0.080839500102644998303 -0.063227456188505198886 -0.24979810671700242164 0.0010840762109777014616 0.19590318982468682418 0.35122504819287503341 0.12335962791534058058 0.17073767026164285432 0.11566851261253678629 -0.19641930710535332461 -0.14447588467118893663 -0.09860206373147165082 -0.3118960856968703288 -0.24138887854334958871 0.33920789301493259327 -0.33265037740339664651 -0.035603802191598740712 -0.11905468342332030385 0.20656828045543215722 0.29113887760176826447 0.01690935488558119662 0.16590624512782325972 -0.078188579312378450603 0.17264087710468417614 0.052750668992076976682 -0.25916549990161530381;0.017760661781158346845 0.026329660208692810819 0.037923084197215024826 0.0095204448235883896295 -0.012114329863983639909 -0.032761951202820605022 -0.0034175373368041449089 -0.025238806670507221708 0.0080742802597306515683 -0.0097356414795289284575 0.0092152104679922089425 -0.013133426068459502084 0.008879422248921287758 -0.022556535310348624357 0.016065364716624810221 -0.010087474134466180298 -0.0048810441902336016221 -0.026871960841284511096 -0.050140272150551827568 -0.027877434322863842847 -0.029107591938446340102 -0.061539143390360769026 -0.039030304865645362722 -0.065459719396280660608 -0.04363059489498157667 -0.018889546516068063398 -0.045859742895139374297 -0.055789027455306984538 -0.064923676140804686963 -0.013504025903520447058 -0.15389692472111629606 -0.24705959375385980192 -0.034974643745703595799 0.30649920631362675971 0.028640034701483196161 0.07239204473325951128 0.21242602213845793169 -0.1032128762237583125 -0.029531782303811388718 -0.16109251139364633154 0.28074919296085637521 -0.055268782806620134207 0.14121787934527066377 0.25539853867905837337 0.076795904402544135081 -0.34442007320325218611 -0.35381978669537617055 -0.066710241616492513272 -0.033458549318651248372 -0.23481864119635123545 0.061058635546957208684 0.19678476616380036202 0.21686568029729111351 -0.14275445579428952536 -0.29418761786010966253 -0.12158486268246131157 0.19743746134967785077 0.19830977998326351774 -0.00015897039175203045067 0.10002263043252224151;-0.0075719061514880172184 -0.028925784154729679981 -0.021226477979001807245 -0.028658212239689437317 0.013384299145034438128 -0.017147349428764571688 -0.023357921144265953589 0.00036261618559974679275 0.017951528818682702809 0.010614622641634187394 -0.013042984066973030075 0.022453609667376295961 0.00090807408887508917969 0.0027638573457177328593 -0.0097122618868549174392 0.038454026003629321329 0.034706761966738289282 0.012880864047240554032 0.014439046829413920009 0.0044577005748521712769 -0.0044129711425599264449 -0.023266013491781274009 -0.026534489665464112279 0.0037833928751236744863 -0.0090023958782679408541 -0.002432803837425683794 -0.013560062519164030673 0.0072277160079695420419 -0.028812518516373002153 -0.009696553134458036835 -0.1497814508728049776 0.068595964795476832565 -0.22465771630464914654 0.28087392468257482703 -0.21509180181027068302 -0.080626723438332451033 0.13694997209299303309 -0.039434822342446072818 0.13942778412137016297 -0.25145510629988709894 0.10971961549844519435 0.073926531679517445972 -0.25437742971133575631 0.25482618192620104525 -0.15504546666214932826 0.16732915042939075501 0.12081733233444591491 0.066697470761025251518 0.13144991723754517743 -0.15206107906902496807 0.23005207596166785122 0.25131048322404037076 -0.25205094483842610531 -0.12231545892751925775 -0.038762432410428031282 0.046667212099497409894 -0.17083933752651506155 -0.21310867117301024454 -0.11232729312866425453 0.2251795134455051306;-0.015009250560346578188 -0.028224976627292439058 -0.06273123506119117343 -0.029111452717694878689 0.027364610805303748314 -0.022743739567222542169 -0.047678964630997126839 -0.036766553492783723978 -0.0030126670441311229239 -0.039834846428006109864 -0.022415916218404864646 -0.047822247700273837201 -0.039431047213605623092 -0.055547704233642074267 0.01537779210594210702 0.012217143278329796463 0.017750550589516356226 0.026295815395551813687 -0.031333340385094256286 0.028147934380493996875 0.043410961807509328148 0.034872494403289718001 -0.019613345124680856696 0.019629792821943607001 0.019422940622624017964 0.01564728092534233006 -0.0031638056616707637553 -0.031681595582741951811 -0.0089782334400051004575 -0.011050744831983573546 -0.064274310608076076767 -0.23678038044207846968 0.24688915448021456212 0.31536676619534392829 0.016028924929779423542 0.22621321406016292599 -0.31039530972883500048 0.038120534185024174123 -0.11534811685401626102 -0.16890944251051917546 0.098980385477200713562 0.33825127367136620382 -0.25475832398109965471 -0.22204772665319366665 -0.30654101249058030021 0.26488496613398915258 -0.035095735583178314099 0.030470179285298194805 0.075672701441831385916 0.12493008490348826711 -0.28547080826470971893 0.013146880212093446649 -0.046074244882520550004 0.21773386634545277563 -0.12088758122255409411 0.22094824309781946337 -0.017762893663755153356 -0.15568894653590045762 -0.079484561536924694392 0.00098362833216490111639;0.0029667797725735937583 -0.0015100721796038605368 0.021895459873820789093 0.0010079336002808470842 -0.021216740897967285157 -0.037546021599383201661 -0.035938629961666627988 -0.048944634405290857182 -0.049174149660980374932 -0.058789325666262721992 -0.032322369256467808896 -0.035830579060366428423 -0.012214818683724650364 -0.017081712787689346672 0.0014734090551268201694 0.012632936476482614641 0.017984130131385715756 0.030499481594157933084 0.021440359334822418902 0.021547653599408363168 0.041564014142011447561 0.026227849661519284791 0.030150217142444576957 0.0080350281047273323237 0.00026755584173303315065 0.0087207051732118567866 0.0094876888757536182589 -0.0027068397174409794016 0.00091758580044686976086 0.0026596016742416782666 0.13908382383250098013 0.11853376912997314052 -0.2918071712321840816 0.22326636442104885738 -0.32572720544423927613 0.21425592620189981563 0.256306940679597417 0.23565649198014029797 -0.051210047259124320818 -0.036932046341906485387 -0.25167731930350317748 0.096830224387306915168 -0.21026448133070771429 -0.041953694763911780763 0.011139011588221234619 -0.35448598146696297384 -0.090519069846303687465 0.013285988727030162079 0.0888596390144899273 -0.060829220355205923521 -0.44020840376548553419 0.15454099644824431659 -0.23613648267009532122 -0.1072511408724629578 0.026209284861332962646 0.053355719296337339452 0.2416471308337988233 0.27044849786406560677 0.13087443201659837433 -0.061006346648760104157;0.0056508676305402983156 -0.01505777869868129247 -0.017493342809607657223 0.016549463694757217402 0.0074851696036382243254 0.013627218005436779469 0.031449685308182269428 0.057161650917979207887 0.066187904171741279713 0.061937553509797751983 0.042027652620989737475 0.03794744526268368362 0.001906724284746400119 0.044747028330244492667 0.0096697910608122602388 0.042651533417456977126 -0.0019858618895465477566 0.017771767261034712021 0.021558210368751388325 0.033007393257718946333 0.015573520247775014466 0.032579925555554875571 -0.00077721728955136928658 9.2771129287997554326e-05 -0.013080414749481057354 -0.051556907455962426579 -0.027124492023008178743 -0.03266374817271027603 -0.040092470997334039851 -0.089557299863229036796 0.055563118158006429004 -0.013743835120137872993 -0.062281086046178484039 -0.21999354891730835138 0.19537597125601710579 -0.14142152401065835599 0.41297967057464901597 0.037150281040907208452 0.21382133320757495953 -0.075889723815218482206 -0.11719630882059924037 0.39465440203436297217 0.32751014684216833706 -0.10856815101332983886 0.15627603609191106915 0.02931435171378973803 -0.11000538259904187044 -0.13221862214120275181 -0.12069074886081450348 0.18674761069068651631 -0.034003212196236913545 0.096221521012286148622 0.207533242566495163 -0.21300648673861988236 -0.22218697615599616868 -0.059120041571799647473 0.034657287107956791239 -0.13413813035552948905 -0.14027023011994846358 -0.217279978334834728;0.034197374054490012329 0.051502815583298187929 0.064824027839825673625 0.049453640881395068141 0.055077541905651873633 0.067362518889838060576 0.057395442940334953641 0.047083580195642425748 0.056381665479122725082 0.056222525879527397719 0.037468261809622704916 0.01718213895635916158 0.022090148269580379276 0.033244040584580344944 0.045669664893882432055 0.046254328494304337849 0.023918380789857782848 0.018733191395410540847 0.0062936133681887659191 -0.0022441601427293498584 -0.0078349730181798468015 0.0081686061107807024506 -0.012095996578420408277 -0.0092376176238648348427 -0.0085057463212177639861 -0.012413170872205630049 -0.016118734982182282567 -0.011525266353331399885 -0.0021956765125268179993 -0.0085693379221500314696 -0.20540581737283733488 -0.069496014806497419247 0.10044567230027848237 -0.18189445500325027161 0.067076492557617967138 0.13584213757154584012 0.054419516733643182038 0.13350219822609341036 0.093652724638040460436 0.31632769130000509827 -0.18428741555416733311 -0.16767056250224679492 0.43140063007264461969 0.37836762223576025921 -0.051112468257149684669 0.11637602713753958383 -0.073446094717713128475 -0.0517422116947990271 -0.18526265627302701544 0.1565104359142652779 -0.0044134003225141721014 0.26207000295635218823 -0.21712106189841945403 -0.36933988115616311898 -0.31014629609776062091 0.10145044879380266112 -0.28649227833237872476 -0.071650082684706309366 0.22779987637618395735 0.15900855128773627722;-0.02304337744043064018 -0.033809034944336693873 -0.037656765352255101853 -0.039521485812138372473 -0.044065773928591650543 -0.05057401654416248532 -0.054166247138533650529 -0.058833956499195830259 -0.059391626649076378897 -0.058057228194423333989 -0.034232195253960769066 -0.021767614939635193672 -0.016486462998983163891 -0.012446553304963647174 -0.0075652380903599818207 -0.0071270408489177731678 -0.0036117069809218152465 0.0018975618562408571623 -0.00015635923375356659088 0.0042071730819631635023 0.0046562841984183504437 0.006466891422943735375 0.0068874381407377886777 0.0043952582761883941809 0.0033330355736035858875 -0.003768925201230184218 0.001553171700739513399 -0.0012662544087160205238 0.0026286297472788242718 -0.0021409725904431818611 0.23865982421985787454 -0.041304512714198562962 0.12565888566423910611 0.18014944892517611996 0.1070675756126745759 -0.37084896321179960932 -0.23946782505829447563 -0.44350792039126807342 -0.48212362946545572751 -0.40290936812671584999 -0.204403946141002546 0.19429952170733064132 0.27437639687539833178 -0.38454153354526204867 -0.0038280665480511870923 0.094565602687373101487 0.26398853246798958949 0.16796461896887432408 0.083494549574767235045 0.17045464848836944238 0.20253012329613032105 0.06673522766768605341 0.10493998181478163267 -0.35068324380700360843 -0.10678540016911587662 0.067403936981531256678 0.10977711159110321859 0.06518929360377323512 0.082484368293908122416 -0.050703755319302622195;0.015964862178202577497 0.011965070007016204851 0.012214474688387315371 -0.03649748001813078041 -0.02605595889733954354 -0.032658903544626881332 -0.02243411766952669445 -0.031118625348964559091 0.001948112386137026324 -0.021441451679521515705 -0.034610172131307286036 -0.01489790624171873426 0.0038966905886105842813 -0.0049990578639245346684 -0.003487903519005254669 0.036792533500689242332 0.038334178224430540127 0.02241730740626046367 0.0234123611365597388 -0.015165700437461735947 0.011889059290708846317 -0.028248183928607853432 -0.003300092817870240846 -0.025576823351929591638 -0.013990730077023630362 -0.0097328060086267469825 -0.016986778061846685012 0.018055722965653137058 -0.043738963863541445443 -0.01731108167622747232 -0.086986936755295077295 0.088528379885342886602 0.20791906933955117687 -0.11602660028702246886 0.18144292008392157167 0.19109941631611038204 -0.26237045915708273602 -0.14134153927967832431 -0.1274198328819756143 0.026132646529870708768 -0.05736727709031924638 -0.26462381792682049264 -0.062543099251392564319 0.24941045924311261439 -0.095636031276524646749 -0.1111155587343968798 -0.0042070247116192593592 0.34165209092316617401 -0.19991175721338438898 -0.24678327261376251101 -0.10923581197595182146 -0.18045271688213493366 -0.18574221095600124132 -0.097897076151365614027 0.20749630052289116944 -0.15613362463665450552 -0.13279176571934048212 0.30645259476208713822 0.38124607195061227527 0.17114036307607272125;-0.016098555865336195564 -0.029902255752490222024 -0.030463730356191192489 -0.040516366255838792698 -0.060424155504994116195 -0.06910877577893333179 -0.061480401465515269188 -0.06348038455882144826 -0.063143880686425402082 -0.058994759117908288082 -0.046286129042328011396 -0.039688813705007389143 -0.020127822446702164916 -0.02600606404650804282 -0.019507017283734894714 -0.021148531774149551682 -0.031176400710233895947 -0.021463059606375869265 -0.029612918328527134543 -0.0096318601150955814039 -0.0017166307258313869867 -0.009170493840567868829 0.017501137426568377786 -0.0055494982377438601198 -0.0011345729153330844259 0.0029211994182917716371 0.0052351681403633434572 0.0023441690652051456502 0.010098576369273347744 -0.0056084900120878626584 0.19540140894360891188 0.17350647101120780791 -0.21581064086713583339 0.25730805484399776883 0.05456371439048495614 -0.10390583067761156866 -0.15186355581655702762 -0.091804063070147712278 0.34458076139150062289 -0.10605474564912908964 -0.1306739516734949369 -0.28395710059538964432 -0.21805912350474421224 -0.338647795719040412 0.045004320778824775939 -0.10227354710566863294 0.045991869752439844266 -0.044647882192525287226 0.25776853536364591202 0.19177545177322213865 0.16613396346193978759 0.16597575771459940897 0.37023247760087535374 0.32934826860379023961 0.035853898591143455732 0.083969982856461594656 -0.052925954119683413235 -0.026895855024695148466 -0.35952086185365728088 -0.46925161791030378655;-0.0039106019463032559019 -0.0020968376644057294851 0.00036718377540234252475 -0.0017549775219300363122 -0.0014046245376252786477 -0.0016240644426739555845 -0.0035929659924228123796 -0.0054282526966094989812 -0.0068605272944183125911 -0.0043186387188776436882 -0.0022077754604262864353 0.0040810642663178624268 0.0049071729165057805661 0.0078983523879322687505 0.0050717029191990605982 0.0079271275752270005388 0.007853236224046078115 0.0027654326324275855208 0.0065499288418609975804 -0.0016094102187019475314 -0.0033597434017646741512 -0.0035471113907038606845 -0.0036502715788475329113 -0.00028672618471640314887 0.00086055420163408955295 0.0005674699790996778773 0.001285454143709010514 0.0031718685550670778009 0.00081490161701130894422 0.0014499478152550371313 -0.064453771873401830006 0.16114325030333495614 -0.18981861430647153921 0.1933926009693417436 0.25341420920667845351 0.069188235444548620845 0.043764704671794579793 -0.019847569141469890291 0.19860536749254600886 -0.074987840340415556906 -0.0036537439366850321502 0.049546160667309838144 -0.31926816977190797253 0.09185729978445796029 -0.18874446106550166191 -0.32272850594234220312 -0.35421510677766132602 -0.28798771056530114709 -0.42510506211522619546 0.025554133709781420847 0.039495839922174827419 -0.063997542381331762318 0.19253176887116640881 0.15417564060507016332 0.30306633263777277287 0.039040778410975446322 -0.018738055637160484085 0.15258136092959714847 0.029501469307812701326 0.29582003154282571211;-0.0058298048955695864343 -0.0045746332177335159372 -0.0016538575126196321859 -0.0032625967185066621391 0.00069469360734127180886 0.0043347080780751440568 0.005422404276938577565 0.0039113917142634116106 0.011447339978225850102 0.012353637333089617298 0.0055322794977817543738 0.0041040044609362913777 0.0042396880592807367066 0.0062197204196166484824 0.0012785330220485731367 0.0018450726071024170678 0.0012842922578117615517 -0.00011901348944066836712 -0.0028780985833621970313 -0.0064736943851867760277 -0.0057957509503181840749 -0.011041020934389866176 -0.008040849879478199555 -0.0063791796418903329996 -0.0024324378358502609342 0.00044726414076470220058 0.00039140421764530345392 0.0042645396547834292164 0.0061581112112030047048 0.0060121231626383284455 -0.04663579410216832366 0.13744738674564024872 0.42458680500501627675 -0.018467354383629158016 -0.21089559084579240222 -0.18278580462955315578 -0.026401457643428868916 -0.30898201575266531771 -0.031177566194134202077 0.14167145400703429203 -0.30104672074675875582 -0.10230379677269778316 0.20394227844927489968 -0.10123360590790014824 0.24336795110745243487 0.23311658122995898568 -0.1959888925301285223 -0.0030416314743516915421 0.30966247169886218504 0.10504878946856618938 -0.1825876722157248333 0.17744626709132443887 -0.28349886747043706592 0.11021987470074084969 -0.13609293972110050874 0.031883526230696714043 0.14133501251427868506 0.29669023739816424712 0.068321028905416802957 0.2754815672316965891;0.11861046725202707697 0.13684329560121169522 0.15128653306497830133 0.12192464710047594412 0.095878470170262908301 0.036083654700059183962 0.048316973349538938631 0.10102708317640389513 0.13851916452615076203 0.16003770228905389583 0.0056751728649550841482 0.016929989070440930321 0.021724780014879700729 -0.063650986408189391685 -0.084115073498722950363 -0.082521594090105815367 -0.014870805921638400107 -0.024023536361357185343 -0.020296950773313775229 -0.071721984369709959606 0.030779654762993196443 -0.055353589991558919958 0.04116271572276772317 -0.023249538370553643474 -0.020246150410357890981 0.040359703149926984267 0.045720989641058938646 0.10036487947551431255 0.011135624329340077995 0.031337970677302671996 -0.25731866336779640747 -0.0026925502720678007318 -0.18711748900524527439 -0.12075484810956398085 -0.034260440413684790928 0.094825999372970024015 -0.16760684124898586611 -0.15884089128192610541 -0.11919543743522666157 -0.31386426913298609565 0.24431104829788741206 -0.14240319189745878625 0.099547020867421259771 -0.21520911394351552315 0.051472909010551563813 0.094578694855190895141 -0.20786011189669911792 -0.14688460690128299357 0.10698401281972388932 0.033202666911151423879 -0.28151905456753861801 0.032881040494888102987 -0.29694885416904137632 0.21503618777422048303 -0.15061612252205583418 0.16721623966258206129 -0.11822847102135319863 0.20874904907563290868 -0.2260042670342790605 0.32977928313036597441;0.0066241888330868942125 0.006791171560517506034 0.0051116101067567578861 0.004562545722849230441 0.0062511773174173269202 0.0040650006399976417251 0.0018814816291935223223 0.0053817597631577347717 0.0048124608350907970358 0.0032460706765068702596 -0.0036553504689331153474 -0.0066532525640539651179 -0.010401384034010982896 -0.013485787119306411053 -0.013011513235871231126 -0.012336112022851874678 -0.0093556639137495276048 -0.0086816996264305543174 -0.0084843358671340875915 -0.007040212396989395903 -0.0063529296759267401412 -0.0071785396400197536149 -0.0065328614597407663397 -0.0053758455294818712975 -0.0034498976765738563477 -0.0019436835784386928636 -0.0026714661090708243657 -0.0031777819293247406077 -0.0051248963713851434371 -0.0012097004816687935772 -0.098538911567981390949 0.13888136375066131856 -0.36364015908655000775 0.037775058775799598421 0.24795507028159116669 0.011248996469661575945 0.26637397534043993907 0.46944128153208247722 -0.12334237931671310218 -0.062756471832840110547 0.36274964777071644351 0.14067175827375288932 -0.35092649672748438272 -0.38765092978642495813 0.12053817137053837727 -0.24024022673264641692 -0.14843477016391135037 -0.30698297789251427492 -0.38452130333842654553 -0.43551298376449232297 -0.14699019260064316583 0.25457045402230382702 -0.028177864293213748803 -0.066283308539901109047 -0.15957714488084021043 0.091088189765118926511 0.35933066487321257965 0.052888685628119040671 0.19399616716766421298 0.32102025761632241307;-0.0045384685831526844907 -0.0044026454923846002759 -0.0030688079081863934953 -0.0051188608828380346982 -0.0071344598106353228698 -0.0071658533370208641472 -0.0080475449192001016763 -0.0087672749556176772512 -0.0086499379969023574427 -0.0072858399161365196284 -0.0047904895330502274275 -0.0046452020239181393557 -0.0035022942127099524964 -0.0038372274724154564925 -0.0036930543232287591643 -0.0036866845281028890781 -0.0046065594864044346127 -0.0058361642578221963398 -0.0056619648287036337259 -0.0068019334371233995673 -0.0059586321646674681937 -0.0046326225815702679403 -0.0011945018091844175449 -0.00025873172757878850443 0.0014938086558653751457 0.0015188954434601780082 0.0018763494017627318361 0.0018332279502618490166 0.0023127012904713669175 0.0021933246952935553375 -0.060945846365678783829 0.11069010885803629018 -0.13537703549125063018 0.1715903680439307688 0.054046138217479978982 -0.011442164820325407756 -0.25715762270380876364 0.082323774343742633919 0.057968371505894907003 -0.077302682680695636308 0.093276383300739840188 -0.065582635113777959512 0.048647414151228279833 0.45879053578376227662 -0.054975971173279035431 -0.067877128696673214026 0.2213551462292806804 -0.22422961832252708003 0.17842479643919298415 -0.32169706726938107622 -0.48709960621503256561 -0.44051555902991568203 -0.50853644692637489655 0.082690702159071372002 0.23544991989106792141 -0.062543902032071371777 0.089473035547195628459 0.44917959093166232032 0.27780886570501067689 -0.015988438284097024333;0.0022713148205946351831 0.0049353712050634107253 -0.0011915002356279041917 -0.0013928450127894535012 -0.0083733723263682870164 -0.013740670046592382697 -0.023123944229130728722 -0.0336486168183679768 -0.036309508339095443452 -0.038614554032060037503 -0.038449569540012981661 -0.034259045187107546593 -0.041544692543242743576 -0.033604758203181817056 -0.039700375557776439173 -0.045222760860034391661 -0.038844409270825899783 -0.034601614606461945922 -0.02841310892715016162 -0.044335604046111178056 -0.047527621235912198561 -0.042873501993759000062 -0.044045421575997556474 -0.029781470594087845749 -0.025223337327917403489 -0.023812774330609430551 -0.01365099347346948426 -0.012007000782672739431 -0.0096078233161259931489 -0.011484224211499069468 -0.45275395357788073003 -0.00099913916069430271615 0.020351974802976308815 0.074898175628430846418 0.096811055173992480172 -0.20185011132474722784 0.2938605436339495891 0.32359654280089927836 -0.21565347872348000768 0.28186301486000836514 -0.25986088566026066538 0.072776616800401136564 -0.30866773796868579582 -0.13903026339424900959 -0.023409180179819192441 -0.14446058528303043489 0.22259577123490090211 -0.18405311560922113512 0.34201476944748804287 0.010079898779471770445 0.25927295102793362913 0.040175809778673576833 0.35881845881186547054 0.068891165645698082542 0.14928609946276241716 -0.29032766164568041267 -0.33315505944170697994 -0.10158355557764552068 -0.20338653480051471778 0.15282577389615656371;-0.017795947695112897258 -0.02502830203302463391 -0.037836007972940795263 -0.018614724223142951193 -0.0057445189305896423443 -0.0042381564589834041026 0.0093040478932692807779 0.018653105464122382573 0.021572777443023539307 0.012618734778071214603 0.015185822604259616164 0.021304319822322653061 0.024396765777367410838 0.04051629223920423517 0.045454808333626341155 0.05040829130327642571 0.039257145354390128589 0.031407273883982109175 0.017818662909562594382 0.02976557756171266389 0.022393224024984278303 0.0085599670698342962549 0.003072796697643523714 0.011524722485516995796 0.011242978062645375692 0.017142081664519217415 0.018710501231517576853 0.019445724238098371917 0.01801987573534486603 0.0073255822786717711761 -0.32465494884398865549 0.035546335122955498298 -0.16984060475759144015 0.047072441679079014831 -0.18642429423363290897 0.22522627343015777512 -0.15868738888836783629 0.22215229321512627858 -0.010302290307997691993 -0.050057977627983633873 0.37434152229684158897 0.018912721220611296985 0.11256185681742864046 0.058208438625431527247 -0.33710922575997337436 -0.0089000883130141341532 -0.36485450157549365047 -0.023477223936296334056 0.053818494829572169347 0.1294104632306587177 -0.20985823173144638187 0.046482161578729884466 0.32881354392637218709 0.21004192154163797701 0.20720478545658341241 -0.029769229345651900681 -0.44125372520574307478 0.1642663226775687435 -0.20488583797883080928 -0.3556773622224690401;-0.006647531929078768706 -0.0085500425908561321353 -0.0052434107682066584399 -0.0017112559405516481349 0.016277755210381199963 0.041190410740245271548 0.034430007045567027901 0.03309091793978651691 0.03555092004774117187 0.023339927376026282924 0.0064706460881025357201 -0.0035336009353694073851 -0.026284676821038049921 -0.012734088129441906156 -0.049908947797183647599 -0.040310666333997977051 -0.038921241259872479956 -0.018207189974722034348 -0.017637298255023491078 -0.020220897505825743967 -0.034577257072820805073 -0.029732198105733173565 -0.027509975198076005998 0.015708586488092930733 0.022802670664155463842 0.015894434693943772924 0.032273162896904586394 0.048603841517771466385 0.036160283619632624386 0.035690859890961788847 -0.14724097090591820036 0.10740350263277405329 0.17217266006669396106 -0.17385736627955844513 0.17972182485520313278 0.23592133220829122897 -0.09432585521590058919 -0.15716938747491754347 -0.20257125381329441072 0.26939853996463469787 0.082339119839445626403 -0.19265900742118532984 0.10886280844295599668 -0.36330671816468390611 -0.032295645385422032392 -0.1668734182705723379 -0.26615879460990710115 -0.31283779125502320095 -0.11476340860988810955 -0.23274736830502898433 -0.23558528406305107028 -0.26779365318171993726 0.13032520778367182035 0.019151745516482875098 0.23835939003427461524 0.25449416505309585546 0.26315503106184889859 0.3929383997373442905 0.19374027586629150033 0.037194324009148481414;-0.0044253918881231365384 -0.0073348069051410178312 -0.005776211379907216642 1.2628064684412889239e-05 0.0028168400147803706463 0.0077321047605940374653 0.011383993471407257217 0.011228374597093653334 0.0082154955538736810366 0.0077992514570434665414 0.013566904674329183927 0.0099666099445320770894 0.01664604480534645492 0.012118667881253094437 0.016809376841703530664 0.01436022911039449429 0.012017933323979684834 0.0064400637348207478636 0.0032442260704501671952 0.0049111603483972688516 0.0035259700198415123464 0.0034860076531112809371 0.0045154388356912818908 0.0034088793285734415341 4.9797366577393363453e-05 0.00027884785178546695698 -0.00087838092873339672275 -0.00092568351110458146208 -0.0020236697466808877682 0.0041281952629795524989 -0.068965791423434896767 -0.37551853296683035399 -0.40604353186327357683 -0.078470461512209641053 0.27512605280307428357 0.35745157043861447432 0.22485660561949530334 -0.12166695248527753526 0.11981678354796204689 0.46086795361033999763 -0.23444159583813312109 0.21383068583209274838 0.20505317260894770359 -0.24394893616833807082 0.17707110606074086268 0.16532025245360792987 -0.13130491917074249564 0.16514043921553525629 -0.2062892950749917742 -0.47369521817584775425 -0.18208586765009179831 -0.38612175615761806791 -0.34565092468916153168 0.17596959094180833483 0.10972348647153788714 0.12653181226851489827 0.42974197667437852299 -0.085734787915998381114 0.071476127109064854781 -0.15197306936320836845;-0.018036761841488328784 -0.018731535241343466591 -0.027919881609936754441 -0.01912094209330923722 -0.014240492729708469424 -0.010829483782497647398 -0.0059748627129422729812 -0.0059065519122132349727 -0.0018603769475698641103 -0.0060544945371945376594 -0.0064899307537186123537 -0.0032512322663139584661 0.0016100799519447575505 0.003635805733287942286 0.0006296071371798853079 0.0042364337368033305395 0.0049850050569869141376 0.0089854351762505731138 0.0053400410154758326531 0.010567199366024968357 0.012591482706140475281 0.0042700121201445038338 0.0052408618342403602564 0.002917408370358484139 0.0043786610223758579488 0.0077946518638371733306 0.0043642707400059670489 0.0065472817890817446712 0.001627814429729765441 0.00097212547974710858314 0.20756198583850202222 0.070641751618672352087 -0.27839549457158430101 -0.29292195036460816349 -0.19255166384734964669 0.037190230838995287643 0.029164546943164764564 0.043744800141056999765 0.18099536481871109084 -0.091441061826414218872 0.28278815186888339728 -0.021846987858453063847 0.073320541779198056265 0.098579362103804649142 -0.45456889336925598855 -0.40335880245531274824 -0.18861682878571556232 -0.19444313456820100372 0.25044022584165026579 0.47938667451413452536 0.29119882012090542167 0.011935017140193862617 0.27166752440132163615 -0.17453653116578196625 0.05619220037749658031 0.068126836243093333301 -0.12216434946040735654 -0.21241891626247300096 -0.2633378312066365079 -0.23240412430323856285;-0.0083173325960572211391 -0.011715264650560310022 -0.011557989052436417471 -0.0097581105132643862488 -0.011273500645349990995 -0.012553255695581667928 -0.0096988054315997589833 -0.0095643356983445178277 -0.0093508392780342376727 -0.010305869036789263096 -0.0074196604392996988453 -0.0075263440803965738629 -0.0054514212423630876297 -0.005678905097675003219 -0.0033572335513783243405 -0.00036494691184485949197 0.0013481836051220863135 0.0034258571065681879021 0.0042764679673361425533 0.0069104024128853538955 0.0092746151835968685534 0.0087526304658232280398 0.0085980086346947991877 0.0059613538960458711466 0.0046972263545198879309 0.0052102390540249756551 0.0048633665929762037727 0.0051094467276284645518 0.0048312842785199353393 0.004612972230252435947 0.14761027507327925679 -0.24843106763015829208 -0.15471467611130154673 0.1753607484800386862 -0.0021219824152425340556 -0.12932252062843713203 0.14025412075144469415 0.099936239293307790876 0.23068487778375890151 0.46465212249652926291 -0.065774861543106258321 -0.29640589676656581286 -0.10000608550564885069 -0.1278524873231953185 -0.21966248133728019654 -0.28254041550067604538 -0.33806794935426859317 -0.2059218511233376625 -0.071527081225867442105 -0.065938535414684890101 0.073931598889685909426 0.2859552112162195292 0.46450585699717972243 0.4555203494310869905 0.13606523178938292884 0.043682986850770322285 0.18641268460806201257 -0.24842407066797608794 -0.27309620068663459369 -0.15338878445584130938;-0.0038961621797756014127 -0.0057026344201773770948 -0.0057292459152201661438 -0.0089153634719212008358 -0.0051180702774102039207 -0.0034805460775052129117 -0.0062945386297660064004 -0.0070214148981038136677 -0.002395886435927241636 -0.0067990541150746517524 -0.0019422452324746400116 -0.0064180255480862707582 -0.0055524137004676300464 -0.0081051486510211965403 -0.011742901459340345308 -0.0082388355417364819711 -0.011529307663023824135 -0.012831497458671393269 -0.010604302063872098061 -0.016085418754228805044 -0.017027425334187166334 -0.014785697267092456214 -0.013125371504157016742 -0.0044772784901474646166 -0.0059669074335094310704 -0.0074270782071877740338 -0.006482075228830367318 -0.0051052990816703057095 -0.0026379327876091150304 0.00063159162638360332939 -0.17625090525447675849 -0.2204210983069724572 -0.19847031510194859671 0.14801145469579135572 -0.18632311515984392725 0.23413919729930171565 0.10931176658192789941 0.3167848601364983141 0.044092547479417980305 -0.11685628788499430319 0.27464518540832910665 -0.1596427469294172119 -0.15768759028586168403 -0.42989946959099328838 0.03217764078622982471 0.17436777834049127511 0.11865749127029320831 0.098239068382564256887 -0.33745581731372115142 0.32786384638648896628 0.088419825036098492754 -0.095585250829306245279 0.28643472078782961088 -0.15181999187298672593 0.31509936533574572914 -0.14850605550713816272 -0.18543425787159828477 -0.026926506770613631292 -0.31386787025157170117 -0.029020263542636041271;0.017113870417583759015 0.020364988833584094646 0.023382276973494514616 0.028277926522118933261 0.021717700413821899863 0.026015416916682028436 0.034440807894898617381 0.037740250796565219527 0.03636980064153753911 0.041027265330032328117 0.033795755045842583442 0.036210215508790506711 0.031946503732790093588 0.035165802405137808195 0.026748531721023090929 0.020347608589010978547 0.020186500140443687512 0.018957054166279834612 0.016669995898713010213 0.017610802190759593938 0.012102601560864286595 0.0055144139142565837611 0.014253782137311018022 0.00958096683211993351 0.0089796619603199033521 0.0075016190193258587907 0.010751246527020384691 0.014524934585799908343 0.0063790495424792944754 0.01071253444786798327 0.039692001343353072729 0.060935228520717178713 0.12951789861649254387 -0.035669265535496173791 -0.24709025023044281499 -0.22400348058686550545 0.19191668530480746058 0.22847724586279224979 -0.041217959020286194793 0.26517280884191735124 0.033950759064742083715 -0.2013199480357135418 -0.2989153200448860237 -0.082169802305470329706 0.14946130675117555442 0.0043399461853724820293 -0.12649721559795445991 0.099906569099245307042 0.32321906558120405695 0.14622400123096404578 0.3247708204293042189 0.30559626354166236073 0.1817862798217246556 -0.25949393521204028312 0.264510614617266826 -0.122174374229012353 -0.36564275268655155315 -0.43287041522800762117 0.11579036145450155582 -0.20570038249547800691;-0.0056647066973784876778 -0.0042900881741197473274 -0.0029879980705355890444 -0.0066859426777902105157 -0.0092591107296885154232 -0.010358946596891306299 -0.012055880092680654539 -0.011055912763351742265 -0.011759636295928325642 -0.011464937213548794664 -0.0096713776846905734341 -0.0074505157694738522595 -0.0076081426461022108251 -0.0074705734275292345545 -0.0059101680538106247248 -0.0039469704489556332525 -0.0065118000107502113649 -0.0051983834941028992174 -0.00084892740059963871929 -0.0027214122485808697402 -0.0041896121876068715545 -0.002068823575977579883 -0.00089529477264006437909 0.0007098499611992008804 -6.6678131695978288098e-05 7.3024154410211488883e-05 0.0014064428249093970189 0.0023578503048509919827 0.00046996144201838540352 -0.00083672389061699621333 0.22744947859837655324 -0.18110089911662213824 0.37044989857848587 -0.17699169203533327011 0.12034007168220517414 -0.11019380960035451977 -0.26532922019320970275 -0.2253277675192048024 -0.47893238500483620301 -0.12299152457392073523 -0.059356179733387644248 -0.0091112310898293150108 0.19313397325566011853 0.22659043207781187634 0.00090254846098356304122 0.19869399604260865044 0.13961181568906957939 -0.075050994862030637189 0.38288974023119032308 -0.17031165317589538888 0.15439338211648886978 0.028885583445111790574 0.20064814916633258446 -0.24646230415980621697 -0.10465297714311765087 0.21902538868907034386 0.043032569837410099278 0.0051816589176913157438 -0.0026336117637289439136 -0.26037409594851607109;0.027067909714582432529 0.031170233322756903116 0.0281681478507028564 0.026157587311830803739 0.016107209484625781282 0.012983418962571897232 0.01264659801347219753 0.01126972817143265769 -0.0018846771403987707012 -0.0037629442511389120211 -0.0032563278210234014413 0.0017303064150868394978 0.00043570050126851212402 -0.00011865198491203883427 0.0056734633269833060001 0.00015004065688341077737 0.0072329900778805109735 0.0079271565431293829207 0.0068404124689012153065 0.0092518361760609811595 0.0079352393621317934835 0.0092127860298352286239 0.0076888690901963244531 -0.0023394990739105704647 0.0017358118357496709391 -0.00013056206864528043334 0.00014989396737226682796 -0.0043009380161717460436 -0.0094227463530820471799 -0.010296095888826963319 -0.46914011621728618495 -0.044935376329330270484 -0.44361198936637946666 0.04458701424150467163 0.20730025764956691581 0.23600703885912960311 0.11843754330707023659 0.073949391655989002436 -0.18761148409064032361 0.10422910012375471989 0.031647358836152085504 -0.13538437739455802533 -0.18590233097449423982 0.33511279605590760244 0.40839182547444385918 0.28468240225297392065 0.087794063150329837431 -0.28508818987536638234 0.12403880478714401914 -0.07236980311271454247 -0.18293368083210553854 -0.30504898900035520848 0.085056430462584362018 -0.13200167355500871946 -0.33256175637193008399 0.24036455343144597085 -0.14289736611331904648 0.26707509965439174549 0.1214761863139637299 -0.12861770527213617354;-0.0069259805757547658958 -0.0083124409632315231222 -0.013697046111940596597 -0.0049155838242550767975 0.0064564435203748101605 0.0088753493493745564541 0.011936069492497468694 0.019183428079771681213 0.021768024183856950898 0.025209794747143469268 0.025207060678452960362 0.027732976119094469858 0.02511776063943430698 0.031381986873078068778 0.027020715255649353087 0.024687905675355149848 0.015298377184003897344 0.0055163709606562052329 0.0030278082249563117133 0.0011267769996517735913 -0.0037026738263579513262 -0.0049683463537944271352 -0.007674697896731972821 0.0014259835447573440768 -0.0018873031776922859128 -0.0014122966014648891293 -0.0020175384143432269733 -0.00094896688476425240279 -0.0042457175778297549448 -0.0002851559105602975621 -0.080955830169520806572 -0.03112814649447556703 0.065387106809248599082 0.15257973476422631576 -0.10723076792035154958 -0.0514227139023316418 0.28320827836398954069 -0.2034920425095002039 0.15298812294075261886 -0.0017492470520699956657 0.050314566510846134295 0.012037435051154069671 -0.3290197980404088729 -0.13142978097531363146 -0.04647022596978934994 -0.30744934854689787151 -0.32371845929318232571 -0.30288344712619996724 0.37719436164620628871 0.19763970248968623644 0.11271960639117767355 0.19394967607403271193 0.10352890663198816013 0.31263353618760797437 -0.020817664137164754862 -0.13408188658839848006 0.34700511997686589449 0.140432183595092408 -0.12408905952044151089 -0.24037075773253852029;0.017120382488289901529 0.021652231266987301272 0.034428011284003780246 0.024863560399117658889 0.014994071242736325272 0.017111629449144769716 0.017330781882139274785 0.014874399693194626654 0.010960982592416053036 0.018229662569309194181 0.017019476894134268757 0.019537107275676555973 0.015090596946240231527 0.0088514616401140916446 0.0052571418656065316624 -7.4468292890342695244e-05 -8.466314180923708156e-05 0.0037811140223505766006 0.0081131975182889854575 0.0078872093785087703938 0.0011036918147828732924 0.0049199225200541232134 0.0090512433654148065354 0.0053591542344885835861 -0.00025963118553325501394 -0.0067402863232608415528 -0.0039558166217040415663 -0.002128032645837617514 -0.0049565755329011610894 -0.0017251964888165556133 0.1093632793411877524 0.14639875782316130737 -0.24491541902373289985 -0.053185871080240677833 -0.27092233868025011878 0.31267397369440164123 -0.10866841075962464791 0.28228110834493336245 -0.29564214307366293299 -0.21182992638201342261 -0.21056290513487255223 0.18814063628736119038 -0.10211763719611595402 -0.10809491576702102977 -0.078815702810802287792 0.029074182060215614243 0.18316458419135075997 -0.016228396135878279949 0.044415461272833398065 -0.11850643960538796706 -0.13245157112832825486 -0.27076805822471039509 -0.29995617796447765491 -0.081931867529044480336 0.11823241536697523535 0.29714368068739888118 -0.015973775698987738303 0.37912199939880664168 -0.19415192450438820138 0.34272499386995647352;-0.012658257089523273359 -0.014507642792097106069 -0.019258325192341777671 -0.022107493251733091599 -0.017366477965619759455 -0.018895203471113366372 -0.022073433765953193175 -0.02184065801987158939 -0.012998667235950635973 -0.017153764786704741446 -0.01493136139895413772 -0.012354925594285928736 -0.015169183379809981355 -0.011007924961551082341 -0.011172326675741736657 -0.0044442905037289153966 -0.0070548412509855475128 -0.0024810506754871643025 -0.0028258135440475469664 -0.00021005955237183416119 -0.0019635547255996807677 -0.0027610093816317926065 -0.0073320711623749180996 -0.0010227497022263500829 -0.0043205605830763417485 -0.0037025299384262477104 -0.0049644582569087890994 -0.0016334851770598794035 -0.00019505168536811028708 -0.0045528401547708955907 0.0076089117152956511556 0.080565372553882547146 -0.13261502529539670459 -0.37526631216111261402 0.22252511578978009799 -0.10569072842098470311 0.18551628871000372389 -0.0049835123897517957792 0.2572389139921442136 -0.24887623082178655931 0.037447833784958230174 0.28543141771595498257 0.30415618569914926184 0.2659744401722753393 0.049968562178468685364 0.22962346108236064701 -0.091698488235214314912 0.13075671941617861282 -0.36808722782351399605 -0.41762353460223583523 -0.061832381495515557901 -0.17219441488254372263 -0.35578861632356667544 0.10882378974610502909 -0.2951408490576709065 -0.14400695636035509839 0.22783223309859365613 0.20897283290779153364 0.32759505857191395517 0.022094090629868490955;0.0043295185387056799725 0.0053974743844882712776 0.0055729111205380177721 0.0010886201974980762655 0.0011837742073801998857 0.0017972346069490649934 -0.0031817644562257638846 -0.0073202761445081204403 -0.0080253872863668886811 -0.011208985848441800626 -0.0080936559974919813215 -0.007211546416907257083 -0.007910949207823522733 -0.0089958707780205104249 -0.0048781017528120289989 -0.0052949722989504410114 -0.0030384922789225090635 -0.0015571545896018747484 -0.005078124756960047427 -0.0040597195059387169644 -0.0073721270533775558678 -0.0058952480126077998548 -0.0072113077272881907429 -0.0063138455660992900617 -0.0042196933993068324459 -0.0066707162303051162691 -0.0074658115628097338617 -0.0074406050545381911127 -0.0062169775894701960126 -0.0046631342645450744172 -0.014350659599534932101 -0.11107368617225055196 0.067000655534009981307 0.29996288036100032803 -0.013601826609268986845 0.14368937588330002453 0.22465521344273553517 -0.15716948990481929838 -0.03314781791656751242 0.12840237448690305921 -0.28823890891383163737 0.12506501622560733944 0.019265958357221366765 -0.20790580921587958896 -0.42416366584211712132 -0.45090893966513923008 -0.28103074447670672864 -0.027787906644017763835 0.078666982909110019784 0.19439828433609018798 0.089966863499393978643 0.60656714691487423341 0.18069919988308405512 -0.10153010953537094929 0.36656512274925606709 -0.32683518328635663419 0.019078667358469914017 -0.2354204012420743064 -0.20757665565197325197 0.060106801636681382595;0.0070888506224869871422 0.0067805662330257011894 0.004835471592162291464 0.004165471683505368207 0.003399170505642054238 0.0027767694938901680245 -0.00066827111563501503076 0.00047639871483757937655 -0.0016941680733858293338 -0.00070397082224396610815 -0.00017091553130631738171 0.0017085019057551766638 0.00055424475813529560514 -0.0026958031729811147634 -0.0033341365650113516383 -0.001121494013779671204 -0.0037259755752295734693 -0.0027712572929349610709 -0.00059653319362546679099 -0.0028747371522169387452 -0.0023152380550970764854 -0.0019508531657010930432 -0.0022729624878168185227 -0.00056891283990310483314 -0.0043886721118788609222 -0.0049597127704200548101 -0.0056283296225496425372 -0.0074440301306342724144 -0.0089715974355343459934 -0.0079765124797765343118 0.38133162758022093319 -0.17491282662688234506 0.39875588145987195254 0.29088836514311799952 0.30034784120639723692 0.01560156728986472098 -0.3557351509098628517 -0.29448041758363335818 -0.39705254082105878588 0.13958486259175151289 -0.052695663462408240396 -0.26237312422460878913 -0.014522103963244551578 0.089666713299125302972 -0.15405825533864972443 0.18967424082017919629 0.068869716974620201477 -0.1840710524368836809 0.28456168476775456355 -0.089588988191511773063 -0.18075116967904364396 0.023454691254366007158 0.064200484900292981161 0.24527396772248410972 0.33739484664769975319 -0.003343205772138836511 0.091227451156745770211 -0.2329055236617252056 0.09330681263059292796 0.17966421039126873049;-0.0047630936172182907276 -0.0045666056182711743314 -0.003905762431994906983 -0.0030009205373407177309 -0.0040978847224877072361 -0.0032397949056448137502 -0.0035385309045890974387 -0.0063944968982295813734 -0.0048697105800360714414 -0.003577489267318854655 -0.0041495562199713202298 -0.0024636942920054256956 -0.00054897101275684070856 -0.00045376980867184365251 0.0015798061291206510256 0.0014880443060040185639 0.0021569887750043435608 0.0028645085627514361472 -0.00096171634544761576326 0.0014361336976518777019 0.0033158038260368578182 0.00061358673368079878936 0.0021851561745628782056 -0.0018066054562661292351 0.0014305350099635678711 0.0024565640520083390982 0.00067109785608094891639 0.0008525966347005365471 0.00085427568296246060835 0.0015053554189997627247 -0.38079135223811366728 0.14075021990577760156 -0.040648543234350915931 -0.092128529556985680471 -0.16687290849857944197 -0.30344362737857455414 -0.23969344632750433366 0.39505498372518943473 0.10255209369815565523 0.17060493183388894534 0.063610557928716296439 0.36239523520735417161 0.2849263877963498226 -0.2330106532783332296 -0.17156120789115544834 -0.18762941557750634214 0.091431601536563503196 0.20259229832474534572 0.068439621205409029159 -0.22095557201671436887 -0.23689674767268070754 -0.03894504696428742474 0.21270890855624616234 -0.23254201782185843217 -0.0059470022661129015237 0.080189473521819959467 0.11721711627182843096 0.45440180617378445049 0.37045202856795644841 -0.30498121578577824797;3.049609114431152366e-05 -0.00021260046736550162333 0.00066249613410410167821 0.00040541102565409256392 0.0049950483404480050531 0.0077398150053014534364 0.0092348889213929603176 0.0082015191766490261327 0.010484300767519017308 0.013002563719141090395 0.013420069664718765889 0.014710353145939318587 0.015868561511458389307 0.018276701142723887628 0.016852682042198353224 0.014897547805764682974 0.016244120344299482067 0.0096592459759676559811 0.0052197876670908131824 0.0054409594699102222654 0.003669685361563948707 0.00022174426963946560496 -0.0014565785361377650824 -0.00088510819229924760781 0.00083371144458260011863 0.0019414090489410966781 -0.00084729465145643280757 3.8893266397025541363e-05 -0.0017657976639276074925 0.0048171522607747549807 0.29542489967783652771 -0.13864820980454403698 -0.23026130179736309378 0.059886340834413909207 0.031776894802427159414 -0.18493854149381022678 -0.23336101634978886898 -0.071775961314229155819 0.014094421155340623383 -0.23393842634900180455 -0.16056847294912099389 0.27288948879794683311 0.11848809772692614484 -0.18157308490841186921 0.25264599447209268313 0.33367999156082150947 0.27183842912511335665 0.10466101968745422646 0.19257402388839470198 0.22149661028965814125 -0.2717053098457638538 0.14529413537034066572 -0.43107252517295574501 -0.33177904000684826924 -0.18229100255757851867 -0.10574306274303109376 -0.013209862698912116716 0.3456302702093365653 -0.082301992033185750186 -0.07014422920438859177;0.00042370875065715293568 0.0009424335841522284412 0.0033228325694642001434 0.011300476676476291921 0.016051289628002837068 0.020325859864204955801 0.022638474282480669508 0.024075269879123055439 0.019518131044977515831 0.017191237718953093078 0.027672281246369740543 0.028709104150454162196 0.036994079928269418822 0.038650873117174210092 0.046311913196244752777 0.045011853550907358901 0.028314339188748680748 0.019914899098423966689 0.017517150203544998993 0.014281648818493647077 0.0077582479969046163823 0.014335420636645331699 0.006449931706629928943 0.01096641988691020482 0.0064787063433077024532 0.00012240162819684806536 0.0044661931725100923948 0.0035320530208491525415 0.0059795097175091051211 0.0024190543953164019182 0.084665574549307551222 -0.024255371835207213682 0.14446072090036413127 0.06293014862612182625 -0.46273189930948604998 0.15658634854410347081 -0.010922823025974885344 0.0083070675320649038642 -0.22957316759460846822 0.18603490284162288448 0.15467532960120980445 0.04905229256002811844 0.097424446467298309038 0.34358402190827441736 0.15515203709056268888 0.32347784800488632584 0.085983184707771137534 -0.065515482139791733629 0.081252610729144594814 -0.2608536613506088897 -0.49302562023017276749 -0.34588507715701738432 -0.28093103755727671933 0.14079138818619429951 0.10712696898525060629 -0.23083547516508221009 -0.17684541401044936992 0.39597078303897859097 0.18261382331717163074 -0.18967191922978118845;-0.021064898525628261705 -0.025179137212271326257 -0.028593139374762273353 -0.015760706385720638784 -0.0051931257474355820014 0.0018173050148195795533 0.0097118124112625242583 0.0066864418705189845871 0.010749224422030407081 0.005090924568556911764 0.011120256000396792212 0.012292091232316558133 0.018153120202255571686 0.020904876870883645767 0.021917452162358120465 0.021837622683426285292 0.015611519917779707184 0.012912608546439784812 0.0073562581602044894991 0.0089130996279078618383 0.0042814262253964459337 0.0049778338383044233584 0.0013078327595778694442 0.00072676528836494302 0.0049606648205034751045 -0.0026624220265987130415 -0.0025231975800991887637 0.0014544715061762406114 0.0010213726941203326009 -0.00022952551699320918412 -0.10065394770502227029 0.25014419838465429269 0.16642246820272216246 -0.13056430604636912185 -0.050014285193780809446 -0.35596107290759110287 0.0085404803098788686921 0.0088115236042391204691 0.088181437382133437408 -0.024674992674984880248 0.23510024905192328237 0.2161115101179503506 -0.092796717702028880259 0.26999020108992993761 0.2634405220697715877 -0.052002568779065935778 -0.343098847314314781 -0.055094248963942459019 -0.025843145295034591902 0.16739491737755932133 -0.32272719753273271248 0.092428431427188637026 -0.30316248797832107131 0.059945812688041659466 0.10194820722412105407 0.11887112442499969678 0.18557812326731587538 0.16757257658051949445 0.13411518168044442301 0.28539171192021872692;0.0052100946587637616061 0.01208903073931599792 0.013713920019824870147 0.0092569190967414765464 0.0090861980769532911528 0.0066442885545577347328 0.00097803726824016875251 0.0010487267774599985486 0.002324593337423009904 0.0087867746750975445069 0.001733188838727917503 0.0050712699228403672683 -0.00077490090510529195493 0.0026890935675543867732 0.00094325871248742397274 -0.0022495136788344039132 -0.0048814166365911066184 -0.0064412484881667007516 -0.0029441221662434768555 -0.0078032413459911409426 -0.007659691034373680707 -0.0072218800112418043285 -0.0076662527141366813496 -0.0065536439113379682531 -0.0030223999152639989714 -0.0018484891062266709406 -0.0026160115638298527159 -0.0040954111810747361247 -0.0048543471633224520925 -0.0052251210881153987639 0.01601073709957444649 -0.21296294404104865183 -0.014009524608543039506 0.26988242915486060358 -0.076260869230103750516 -0.0035555715918888465207 0.24756921053090272244 0.33737898400193383486 0.29163581822471418281 -0.054931495843218658415 0.35226706523340844956 -0.1933056855445320632 0.17122776216914162295 -0.28251167109432590019 -0.027472327967551793404 -0.30008872622679710895 0.036027279236861192713 -0.055895435550404354297 -0.1594782070613215974 -0.020564640509666512469 0.33389112635676126972 -0.11223651317765079294 -0.047216635788817622188 0.41965758945389658452 0.057924815871541503187 -0.036320850822373233757 -0.27331678599501335603 -0.18655335340645837205 0.031570640559482367193 -0.29724871081061909894;0.057321533447409679651 0.061098011611989549996 0.069071700759729501296 0.056944391196603272309 0.040825476682599955158 0.044948929566984950623 0.022040567782614421677 0.0094307523662738920039 -0.0025515721351333847319 -0.012765741234945400528 0.0023588190582916248456 0.0096438179926508615231 0.024580931453048088936 0.015426706869326529264 0.037146604648017528261 0.033528798674152690551 0.029193956441143295577 0.012447652439868761229 -0.011844964592492096545 0.00053184145615826699475 0.0014447172256035500405 -0.017666957338444425757 -0.0026381446382959506357 -0.010765621648805021385 -0.01758554661670869157 -0.015673680125028795207 -0.026452387914255436063 -0.030067082305825075517 -0.025365367746704454988 -0.013631401588470742209 0.03028448423784507737 0.47441264046458675452 0.40582109834391666414 0.14813123386027779449 -0.086206491406900467855 -0.20117110172231381093 -0.39680141492696724415 -0.047658577105683178066 -0.05042433031175188457 0.012298365459562973084 0.08860061780780087437 0.21430703446328377981 0.18245607492861254384 0.19943950115196332207 0.037710999643155010408 0.29252077951406774137 -0.16950733180376292841 0.040689614712712353362 -0.16356688630614898972 -0.38470242815664157376 0.038032946264161690553 0.18453154634251806021 0.085709688931471780804 0.2482122557674684149 -0.28198844563687736064 -0.063196882039225396599 0.13083654288003437882 -0.19468357684674483798 -0.08081854943645108702 0.062602633548468289426;0.023476584020923452201 0.024859866370419564374 0.029221358717492630641 0.029494848008546448864 0.021176168932011692203 0.018776692822524216481 0.019073091125364587117 0.018552770773362245449 0.012469881420649026396 0.014631123875582784447 0.013195764900286236637 0.012714852463098837501 0.011385497372790119586 0.011497205548029179253 0.013298094571752254803 0.0071192035064948401557 0.0073545226450200985868 0.0052220032380256757934 0.00086795152546317606151 0.00099829668466857516933 0.00079760138730007124151 -0.00085180015742721514049 0.0031998270003106630936 -0.0056371793791180476937 -0.0027704324486750612697 -0.0071133514844413563497 -0.005574456095804121783 -0.0079268068663494242743 -0.0049179849953032012122 -0.0049203732003924608926 -0.087063516671818511061 0.37168417405127956998 0.068689065519630318479 -0.034720021272912383881 0.31474337613866265606 -0.20397614470261959951 -0.32883747360582454844 -0.12648025441980584316 -0.21947821398687253347 -0.2490131542697134881 -0.24185586856883223295 -0.2859000506674408415 -0.22811386300819735951 0.41785585955750864651 0.11060635253894839092 -0.15727934194600221018 0.32916015350685218221 0.16754073505116687248 0.24948055712648203874 -0.1125069150388360445 0.21285514865174634536 -0.16959717298983151279 -0.17321599985651339737 -0.000550764583914617749 0.17578462703667743772 0.12551650722868160082 -0.045230027245269713299 -0.25928081424026722113 0.32331022869137815423 -0.00089301885838798708128;0.031194385393613917323 0.033676418202682162351 0.029713264835455936719 0.016661426774187929056 0.013241587502742516863 0.011558730210769963681 0.0031079065596074460093 0.011093099939255966768 0.0037746507208099027049 0.0055881407131024383311 -0.0045490622031095660424 -0.0022541208038866062356 -0.011771015771451065479 -0.018824737649488488406 -0.031735805096783128998 -0.025241018906212418088 -0.01771287271419997103 -0.011248328109746342368 -0.002976537781122765014 -0.005901457031837119456 -0.0054448282987698062851 -0.008173469279839869206 -0.0055190799206762605755 0.0022450595093511912029 -0.0078750528384276367866 -0.0048705415287791705564 -0.0059227464458887196103 -0.0070291805752524432263 -0.012795104097025609621 -0.016965724605471847741 -0.15052283487436804443 0.054604874353074289717 -0.24500756712696197814 -0.23378151408620662099 0.18410167022400988901 -0.026899988879777150114 0.3139541649365930609 0.42004763708278430867 0.089505534095589089905 0.32362027077409533105 -0.24226892530150245797 -0.0041756082626418283485 -0.29095057983475014485 0.18023520681084556627 -0.26232151650966706313 -0.20479840656019490663 0.028672155126730301117 -0.26360351775929763418 -0.088079485959628014968 -0.22013878376021689398 -0.12191561638244648169 0.28583827158733493556 -0.14819473405344080197 0.25901752758442986302 0.20564470612408553007 -0.03759154794060976662 0.086754291410548592389 -0.47843146299484923256 -0.40073290679242762335 0.025033585543947366875;0.032771077818793063752 0.04793319504879774845 0.056223724306790685834 0.044069905233648960785 0.042944502845430373994 0.035359116617213179334 0.033845115972356183687 0.036583368166017565803 0.032509671504579618073 0.051094015617805042806 0.028494813576646359915 0.029547107198367131287 0.027018806799755139963 0.020146333863897521871 0.020746485503981403758 0.0096728649973236990878 0.019918252561945407747 0.013215266180840977428 0.014343772527684820611 0.010151681846833418565 0.014453772327992322685 0.011335983852765657565 0.010751962175287458484 -0.00176745089469819666 0.0041571662814505073308 0.0088369712779944684794 -0.0050243626164107012266 -0.016502269279446327155 -0.01892990414904195326 -0.0057107670270424622933 0.10525349266110883839 0.012742321454900167044 0.00042444910432352939015 0.19280231567518379965 -0.13883284441992105318 0.26016772567543561268 0.2405741402867783707 -0.022794820694531585381 0.010463845693223856187 0.37466209143147360949 -0.18036309345446027708 -0.24900543508258751735 -0.061333425781091119311 0.13859714936997402646 0.07414793863183530287 -0.10289882420928489482 -0.0055265292584880058163 0.1591327428776170283 -0.26634443893586712271 0.33696656234487903925 0.29503343100671075572 0.24976538128240186043 -0.1733785613016998739 0.0077883209707533054833 -0.22721939538055463403 -0.01958828663707152043 0.25480290097402757965 -0.19548213263259334171 -0.023645372440370560768 -0.1436979738809445184;-0.090662295854829197395 -0.09872808506016940433 -0.094770403370417505284 -0.050265252349709403645 -0.019394607883206817917 -0.0062436532795099829174 0.0031606328821505978201 0.029326345301371795765 0.043593024510178532416 0.070082678888698013431 0.03238584657428544844 0.029962715376057966893 -0.017227487107850346371 -0.0081756886427346645019 -0.020562445074941860385 -0.027995184324405224252 -0.032970630489476598912 -0.00299788969807672891 -0.0032980479125245109467 -0.014769685144628761503 -0.02270972558633352692 -0.0098178026486413650514 -0.0062669056173716699773 -0.011524236576724114847 -0.019670510298221421941 -0.036123881617014449996 -0.018571027809004259784 -0.023188381308848309004 -0.021309173465713208279 -0.035441921633198161801 0.27671098353758011301 0.12482478221903153814 -0.19884718655485048022 0.0045672715023886128333 0.18800733670816585641 0.091384466372004480306 0.27554989306361171719 -0.088156747973113666617 0.041995161935432241684 -0.07207822220133941471 0.13476963545986062054 -0.089502977167622288501 0.08191016380748478154 0.132570589558159313 -0.30642900606683487474 0.065780894076879703469 -0.085234706846116281564 -0.19467994626250403889 0.31871522975794258636 0.033392528153283772274 -0.11918672829408132052 -0.12227460436785940467 -0.10156339585296680905 0.34530287277040577765 0.35327359036545036286 0.20585966580518014202 -0.073437755681731234358 -0.26717875085456693762 0.057151963209033505853 -0.37748990834573575848;0.039370561432020334536 0.0086559214499153502159 0.033616265479980249331 0.057301052969279411831 0.064204545622029055019 0.02636402758101615007 0.079399584298546502237 0.092940803659141299486 0.04467729322692281374 0.057604788726584331415 0.034130249873324837451 0.036183018002665580382 0.092785824987623208293 0.033257299769321450877 0.063231660277085266486 0.052691827733986777715 0.015538819526024849269 -0.022700825341974553706 -0.036081386510745772078 -0.046352313577791126598 -0.065982108560622879101 -0.09102064955139498037 -0.053015581730920489922 -0.066614424472456579274 -0.060742389244028381634 -0.018682954145414310682 -0.050996532115822876263 -0.080978164458069448739 -0.038031091358436741601 -0.037358995931976564375 0.33778204027275909871 -0.021028793550242053795 -0.03246138804697594471 -0.20192776772611484293 -0.079479855615059102902 0.13198944110408958319 0.19260647001713304682 -0.22967375830522532287 -0.26697817799045414633 0.1878602541936734982 0.035850555964762449712 -0.22021694703684882577 -0.12893999728275670758 -0.18568049394682581421 -0.21366795907714844494 -0.22406826949111363634 -0.21680757098051101073 0.0065386819287964444494 0.026160513476623362128 0.097054798555266788562 0.3714748022371077707 0.38840240266984243922 0.29783753259126832802 -0.18256232879944489511 -0.18565946827114254702 0.25359511075441393269 -0.12715159676502965636 0.26946868016944863777 -0.13163614369689075057 -0.013574111692019000946;0.01623774182581943018 0.020799658642612510462 -0.00060335290569477344376 0.018635330247221189998 0.016901852305191186754 -0.0045860253644091075742 -0.0033454577651358379659 0.021956567879792859843 0.024483261137918994887 0.0026824795014095841918 0.0091285981737248278467 -0.012086853238388090351 -0.032167639801363383245 -0.015962408648161976327 -0.020486798663781832092 -0.032651993975391230274 -0.028091482484263099323 -0.039195740822422421579 -0.024707209868077166515 -0.030549573033357806107 -0.052213942805546274817 -0.031740221869410244204 -0.038612713031915144035 -0.016776647837541177471 0.0019207690845456355886 0.0084788659989439747744 0.0065952707970906142981 -0.01928953851278384854 0.0067218798556821033469 0.028415825752840576796 0.0030920126229061471214 0.33333839616939481276 -0.12567163266493849849 0.36153433103873100496 0.033958440630522418457 -0.17515294384226079427 0.18058881952306168883 0.15118209506111734974 -0.14182392916025657326 0.0027954594753194597113 -0.19744946859632023228 -0.0079584847342200719378 -0.095389187522054955104 -0.21328948324434296446 0.15049428113671936558 -0.25368947482193676679 0.33872374529946863708 -0.21562758933374848169 -0.27539166220609900826 -0.22248969808720955865 -0.11310119999436139826 -0.22160902299825238626 -0.11992812559150867191 -0.25892684824402334431 -0.013841892519330800324 -0.07231867306508502069 0.28463291420531128262 0.38239840067157471193 0.21313297883442444691 0.26456927952473635601;-0.003875508558001141985 0.019034684397694085628 0.021846597080214805869 -0.0089260877587558976054 -0.0058311795796833557071 0.035422120416019747813 0.012557113279475414988 -0.021847511058879453411 -0.0054745404741622987962 0.045557763722714125776 0.009202999026995352036 0.03737869280211830042 0.0377237946205237068 0.063078506575592038774 -0.016114811803680774427 -0.012340028717026777644 -0.020346848439638100942 -0.015677819125826882724 0.045566029460725528122 -0.045549253671666227461 -0.037064636133937289841 -0.036093430665617938502 -0.032136176676043216871 0.013525700252304847029 -0.018165252101500099779 0.017611875473945499959 0.031647587282002523357 0.06371140089468739498 0.071678897752528530907 -0.00092085919783127816087 0.056289638315565659887 0.17789487584188248825 0.31189451296623987853 0.15706128511708680739 0.27777756214311510874 -0.10144884941026488523 -0.30572569538301502812 -0.020215860557006734566 -0.45529425466131095979 -0.41286667954971706385 -0.0052977140428600221975 0.058358392371672326848 -0.079120541199036831248 -0.028177930073474397044 -0.069920420077191625108 0.1333316197654798585 0.12924862657238711527 -0.13840605664476127168 -0.32311149736902428087 0.23453965887270619706 -0.18362920754759054498 0.17016165996352813905 0.095911758371264213552 0.14439487979043358346 -0.32582325006765372466 0.20529027380257316993 0.081213440345671406018 -0.092704749546298190199 0.22421279357677439958 0.039619808869811944108;0.04418805868865229719 0.077247916588849538377 0.038579143250742513327 0.055550737570789966713 0.065484711747198678933 0.0017051808949248403301 -0.033291401134627800207 0.0164355629516851863 -0.060366578150158826943 -0.047818115347368225776 0.0300082149641805844 -0.060820995892018572815 -0.082953386201099543751 -0.038428126771055733102 0.0020136911536849061259 -0.026859905252644356716 -0.028565239377613644428 -0.022712104977717615523 -0.035620430634539866632 0.0033600812568545953239 -0.039731881113667655292 0.047151159677102504053 -0.018330032958646907959 0.072984224337961658979 0.010780671128165612155 -0.060817307276179004283 -0.0045893510983999160138 -0.044690417526718789754 -0.054512608166470549742 -0.10079164766547082932 -0.34519492522711348048 0.072446010379983799554 0.042568801145390855467 0.21746669594779644008 -0.017330001383777469265 0.21054836754621961137 -0.065194600314340794833 0.17436447069663804643 -0.002237570621014190516 -0.20303818518720104236 0.22109406559194827446 -0.13868108731724876348 -0.282659921308763884 -0.36094612346891047361 -0.0021969304802449303449 -0.23757209293068895506 -0.21384368385579885508 -0.33796732112158051065 0.096273166963917383709 -0.2482610677947847122 0.23520249996806766313 0.2412069922031656044 0.32587573821962168008 -0.043195511042626248688 -0.15481418703380872559 0.11240968935200000567 0.010414027579351087249 -0.25459781498319838944 -0.063503849512729318438 0.24450547566450717141;-0.024367950668421081706 -0.024734032054611835433 -0.028124471477004104464 -0.031155641222013117503 -0.028715422368103631773 -0.024188630891934070899 -0.031792540008455702494 -0.043304075133631964034 -0.04461450770742429045 -0.050859618798562766795 -0.049410031716632038523 -0.053499983603790657316 -0.055297870951926099414 -0.052685025266311524828 -0.054064722752978633391 -0.051986709937515855617 -0.043690411942215415242 -0.033851478057560439872 -0.03182590777331646692 -0.030495623658685761664 -0.034795672711857322801 -0.023720823614303672422 -0.023660658240873610331 -0.010818978739880488402 -0.012297898432209049616 -0.015873046303491081255 -0.011315126924063558314 -0.0079501379167886982585 -0.0042950033040861316375 -0.0065376255508471465758 0.0042165706149512576645 0.39888218588841045653 0.13615078361373145199 -0.1918077010084598133 -0.19834267164424373986 -0.21581652131855183496 0.20681054277772195626 -0.087628335335428547692 -0.3212834811739896379 0.26361795103333884871 -0.20886559741979410232 -0.33759757429544845486 0.26913791230754108286 -0.17129322458198378842 -0.13561410376087121299 -0.24437124843355861881 -0.29269374640365841689 0.22088882553511837714 -0.20920360594237741303 0.064681632880037781552 -0.28237616068776816292 -0.2016000472758597839 -0.22842463454449848936 -0.13615937510669090527 0.15365416828320974107 0.15007676673464337425 0.20392942234797553636 0.38755382198557497553 0.16359528080319180043 0.3423261205945358765;-0.044229441537092011039 -0.071573719805294228058 -0.040192301661890500464 0.05295515086911665309 0.038259466735065916776 -0.014040469151000321488 -0.016230489329513906466 0.013502395137604828942 -0.11004008512050178492 -0.04574648763175852284 0.024258999712730301701 -0.051536197066381413123 0.036649840616638264257 -0.011774035597361084612 0.083775471626215569643 -0.022831689128715141474 -0.014571663031536551472 -0.019328389262436160984 -0.015727658993608291393 -0.012340500329783649081 -0.027276932567580177563 0.013150271150527312672 -0.015269585209089777192 0.10038079776607349014 -0.022736458094276618819 -0.040636136316206841745 0.024446861347921480107 -0.046056635024827367875 0.056872571762556403674 0.023221937997453829389 -0.15304603230679617032 0.0053521201580438654624 0.086479249424032247906 0.07319209655096685363 0.14910724271052872014 -0.30624004961191475527 0.031967214229166651673 0.12806600301197759717 0.29763794156878420338 0.041752394317421781533 -0.12261822476166837903 -0.30158097940512640367 -0.1094929062587398777 0.28998984585914017176 0.12044350235776501989 -0.31461265334845534003 -0.17394971034158812628 0.023102517657386155425 -0.063641818374503750233 -0.024750650055323283188 0.018017359429851591973 0.29064705106278265756 0.099778002790373312991 0.13350754803380049385 0.21919754054824999723 -0.19930846286267409062 0.0050739319380861376899 0.11341535591347585987 -0.13360458131854410779 -0.12337108079312270048;0.081579433296079251203 0.093154690563371514433 0.11608785299072643671 0.050016716576920354498 0.007808329776999183014 -0.013458671640115302953 0.0059696892353261954076 -0.024683845175189868953 -0.012532096438768560928 -0.045518113010663587004 -0.0022348461469579314689 -0.037563676719272881543 -0.0074256602693934959519 -0.0057140289526747085544 -0.00042097306430675636782 -0.00083077820611315866556 -0.002469069867117471527 0.0095029714108499224734 -0.0064230228889608238091 -0.0053123996475470114387 -0.026714075546722153981 0.010043934874351401199 -0.0045118738628388823861 -0.0045084853980186150382 -0.0082023720887784683925 -0.025756524159755128656 9.1840752994376719095e-05 0.012709601339795815675 0.028083854137455944305 0.027820919671216224472 0.074340958735053724871 0.26658748557738265461 0.24565013894028370212 0.052926579272125899578 0.20656139656027028284 0.20567060140172843674 0.16631327922981864464 -0.18785204326868037983 0.32393155014322572161 0.3283717060301163948 -0.18705924031021373133 -0.28910792946825408789 0.16329267050230833469 -0.19319351793718073096 -0.17728430228179961614 -0.31153548458732177595 0.14609128876353758009 -0.12098221902439576514 -0.13090146404365621269 0.17262284846378944669 0.078413947448990925504 -0.31271237897070774947 0.23391644926672322535 -0.35928976437894216689 -0.21287933219538263119 0.13754826583573659393 0.084737852868312535382 0.052950582789647371307 -0.0075683676628317672272 0.23450809006362519082;-0.020809098973029536983 -0.015110371183479749668 -0.079331740669118189224 0.12745948893629238663 0.038130927367406211581 0.034765190918251837049 0.030841273227138182172 0.0017966062780818820282 -0.054401760782616576106 0.010264283227414516819 -0.032384257605211186348 -0.0034414450782460897366 -0.0094415049587488527466 -0.07337251613719904253 -0.038549251778264001511 -0.052196824053127595378 0.016687593648223218723 0.086565528074942263426 -0.0097379605945632427555 0.018643243948341350208 0.039802408216342004266 -0.0491849486494626148 -0.017721672350049278571 -0.075713157703109018604 0.021727876977091876293 0.077891667377436774045 0.054225455805223310435 -0.053427173830510280017 -0.053362745350099723141 0.015371997148434297931 -0.17303712658358466614 0.056569894745336406217 0.10013090626300757968 0.11328910979675942128 -0.26061139394546201098 0.30446518414724194068 0.028549061331149927501 0.28466340214885771376 -0.12941964486948301372 0.18354408734654611979 -0.0019582427115416725996 -0.3470529574224163194 -0.38322285140926887204 -0.018521800662372314705 0.084799143001133850395 -0.063198474094517065325 -0.25323907759059588463 -0.010016942650379808202 0.0054524957342188930601 0.02795004934580188824 0.26937529701503293289 -0.20934769555316673495 -0.037609414118600886789 -0.032144352777329944504 -0.082755707970217126657 -0.24200929089645384362 -0.08478378524868383781 0.16225931270226418013 0.29593283479752607867 0.20333786726698596659;0.08787190371983248649 0.10094755529482254963 0.094407324799122185888 0.039150353332129204931 -0.0071836306945757336107 -0.023063482245783070712 -0.023413971835280180528 -0.016616029561549922056 0.015936832189192205039 -0.015258226713774384817 0.0078094747338643610499 -0.015679241132189283836 -0.0061810163182086643938 -0.033967114390559854931 -0.056294291146679650839 -0.021118914272058395692 -0.078590941303465361445 -0.046472672588474553401 -0.032848638466114285506 -0.031433821103402870278 -0.058355186047140641947 -0.020505228684266497974 -0.0477427803519753155 0.0019192635719655385621 -0.014509656167470460358 -0.0382071758442768597 -0.027214224474446879753 0.005600066789417380321 0.022245753172749349602 -0.037984463930498313378 -0.20932522787532784059 0.25045199603342804817 -0.28295793469878688375 -0.25963083353090848915 -0.17748573932593406099 -0.20818695484604882173 0.1817745953401082859 0.02066025678937779067 0.3278947286775517056 -0.26366256108589625207 0.18311428385787076323 -0.34064584456171925764 -0.11148894685200111399 -0.01247561508955180587 0.22706356148203604706 0.14916141671960259085 -0.065479963681432634681 -0.1159129007688531332 -0.11101251389947408565 0.25335704634884165243 -0.028285943743418938412 0.26330356728373166542 0.15428676902255578085 -0.21047261824312035738 -0.18352100725582989882 0.276994299399689059 0.29952895376084132106 0.0096980931637824351749 -0.12674367538098554875 -0.24237190197730321128];

% Layer 2
b2 = [-1.5650206630080458758;1.5160063665698100266;1.4089854971535866746;1.4282242208487716528;1.3915201420880485284;-1.302741500364975602;1.0615788050930721198;1.0997498500901934371;-1.2606948164997822115;-1.015329379838662005;-0.75662815690627993614;-0.96022001378613142109;0.8100035718033165022;0.82274045767242109939;0.60678587292776531292;-0.31784679020037898134;-0.62531620921480290942;0.47046515190805793249;-0.24547580239686594972;-0.50996550964462472599;-0.44984071763323757454;0.35080591921746540063;-0.065122519589749683355;0.20650219267827299441;-0.2373989630170563192;0.034289728249513574954;0.16105986285848677975;0.22713890148544269021;-0.33546039469043714698;-0.34813668170659167744;-0.07064796731957427578;0.49929785336498344606;-0.58118627633712460767;0.53649678686271806693;-0.36527196606424300329;-0.747123179880025301;-0.77813802641186913256;0.79644115590319553011;0.89105659312610185907;0.74110481743320177905;-1.0797617684238489666;-1.0022829410778462123;-1.2750558671540741518;1.1968881637900254944;0.93379369681932200553;1.2341261325533479098;1.4146926396883496846;-1.4652158153760446169;1.6495436692945626422;1.5665864163919382968];
LW2_1 = [0.064370630486695515349 -0.19520066307955502571 -0.080780178481058242945 0.14284705527710533923 -0.27580100147988761972 -0.15006427562669660825 0.13947462056806472774 0.1686815967321786125 -0.010521867164051925542 0.0071922909683550450763 -0.046614728438454156034 -0.31737339202117653691 0.12663555862313768952 -0.013524685432431420365 -0.1114769574216718101 0.27851825140982910956 0.098431664694770881763 -0.031899387930529973789 -0.13718434776483620641 0.19830108403273230544 0.086050911024058387988 -0.078104376160908109417 0.041880310513306560904 -0.22183149715898622945 -0.2439317701994003218 0.064146762641894158885 -0.12110649311742710532 0.047254004416419054246 0.032655314567474350018 -0.41963045993331227201 -0.20915051702310175075 -0.28358824507523200387 0.21862622507821358186 0.032127874937156741808 -0.10376379811049067647 0.11682040603632717901 0.073252845424209567238 0.29522497875264214207 0.17816173650722944011 0.099747387147403804297 -0.20336716937929291693 -0.23893638437105743644 0.17326378266190059496 0.14427681655781920966 -0.040303966398430250695 -0.13433823422898444333 0.096890563546167124409 -0.10930761609934645795 0.13449697014238218284 0.24338354608527790202;0.050945733731923251164 -0.14820250073633858823 0.16653799816532197098 -0.38096071333712400175 0.070106493664785468622 0.065511863710115539328 0.1137241908519860123 0.18743769776553337314 -0.23593173149530105581 0.27280684076386935155 -0.11757162175398189197 -0.15019338706598370226 0.3180533732885246212 0.27097370937409986924 -0.033818145297129349747 0.18627006559673753294 0.20505125891619058187 -0.37444105521898135569 -0.28587186453993312929 0.021698461777415647966 0.021426035096992396278 0.12425438300615453124 -0.12621684513522837823 0.1106829169872488583 -0.19973120784720124754 0.25615877200977393846 0.14964724168991982989 -0.090707158804584867018 -0.20199703533926305354 -0.11866246147203350636 -0.14211650963237049128 0.13399915908517601171 -0.16370184067314128007 0.28343274475932123124 0.18203462175617959873 0.44521735368900949847 -0.32469641039503716051 0.12822986363707866708 0.16774402703709972995 0.076953761348714941337 0.30603725547348453739 0.1968244651591612715 -0.28517476563946164703 -0.33801225295949050009 0.063446059339949845146 -0.094845501239314983222 0.14368767335832546839 -0.096956899256514544883 -0.071787570679777423788 0.40736403556203865106;-0.3255092908055303158 -0.052503377893149683064 0.13795167064198995965 0.17336741112159351208 0.26234287396746147625 0.22971316715803788422 0.36082447782618559673 -0.21921765692547823257 -0.050457415893727992906 -0.19703864491600803222 0.12348261311591263167 0.33556506771400390621 0.10491933885671174409 0.027124487686075775261 -0.0373037883169976478 0.22642903898559610387 -0.28594200751610249212 -0.35310258107262237903 -0.11274308539035264587 0.18190622374366111069 -0.083267493978996173776 -0.38240729851584159826 -0.25906523140788551007 -0.28512316252332203792 0.090526165150906501289 0.17956175395000303907 -0.15040910354970749019 0.067662384599288374898 -0.13733071823498640973 0.025526318207611392586 -0.38807740510057664451 0.082589071227316471213 -0.028908816439107729718 -0.028191506839371438531 -0.025730523905889056413 0.16735390536927111094 -0.27420521942492426248 0.047781336117331735247 -0.19470594926508158484 -0.26874924975435138252 0.25962076812356293942 0.14862143368170591118 -0.31095521409873211338 -0.26362159825844688754 0.24212164805393612821 0.032106212145497733945 0.30412108890906230929 -0.36022391003268378062 -0.14946477929670554108 -0.20014666678494233421;-0.24243748591904909495 -0.090689360635826943291 0.34947011343060396804 -0.14563279607553866746 -0.15308931308035969576 0.32676300149705467257 -0.15158972880029494834 -0.14156878095711641907 0.016106910149280756483 -0.028281333649761295629 -0.02229914936428868677 -0.0084628114137775718728 0.02590947249735925037 0.19124641660861238512 0.2687010818378421928 0.19460928009021372098 0.11552540090213535284 -0.21934894249786746068 -0.28237726016617537006 0.1008549676199951145 0.34304139759286494948 0.2236118598497594534 0.17099087118841982402 -0.22691684783815133097 0.039630134596553130699 0.057417211809337502515 0.0043112998323842875725 0.27499543622164945855 0.11125353745076725642 0.15050511239502181726 -0.062066375253418563929 -0.24661525968549105614 -0.0026783184490303817323 0.19015964197118440104 0.054001931883650891586 -0.26272380860839211758 -0.29059535828033389304 0.055704862040947704382 0.39552008444504233031 0.33625501221048220701 -0.12817492163089116985 -0.46147941054592978016 0.13973243003199817269 0.23965170845837324709 -0.090583164102772423254 0.0018019240347112526392 0.17045627002872082434 0.06584332652566940447 0.3043471429972035569 0.2155823246024676787;-0.23617864624784545846 0.0039967232274266163705 0.33619909653208041034 -0.48845583225240785108 -0.04222568781998895654 0.34783652342379128841 0.085594371125496004904 0.1172985068110351109 0.25472769827313718194 0.20803263100764479709 -0.18281817074753281549 -0.23766470581628940106 0.13023763630563245375 0.15938650774217372197 -0.21453541050112920341 -0.20168049870242152344 -0.31497131469905831347 0.18032083011751742774 0.016694699742751509947 0.10873501804492008427 -0.23438395466551048552 -0.060351765633009361867 -0.062987271543546441421 -0.013614138684753094091 0.20449176751467065816 -0.21265349353453610881 -0.21190407071457079136 -0.18478341590328789534 0.1527909590185064781 0.072323318642928069444 -0.29516560260618840417 0.29383919173143813186 0.08125963611673356346 0.13349806290542678977 0.00011459821912149680196 0.49639308292370526443 0.19486232027285549373 0.046990104873946100805 0.020916984865793034065 -0.039239398757451686428 -0.13976134074077542491 0.078446982739490619951 -0.39564279719940470548 -0.32991224349082537426 0.029472137395682138777 0.049593672528695106894 0.12227871611552429409 -0.052230946300906973268 -0.26682481865583146385 -0.13885956178399419536;0.012196611609658892378 0.0096971685992917680541 0.085385420383334756367 0.26289674462748535699 0.059505499520528609692 0.1051882936552106379 -0.21722701780816505712 -0.20407222703294081168 -0.47186161982246854762 -0.17960029529869814269 0.24681538699712596285 -0.02818327901693464671 0.2485319149232116942 -0.14443895596561071026 -0.027664216182221965101 -0.15145478994130801009 -0.21494203438162395869 -0.065962804371625965993 0.28815532927437736976 0.17883615118638035435 -0.25667241972260534943 -0.029781493634663713105 -0.10538401973846521498 -0.12654946778250078521 -0.058361686260475123533 -0.094276930495725122516 0.1812930551873692675 0.056010945894732655503 0.26017686508633858233 -0.16627193917669172429 0.2297358811007625401 0.11891966100894924008 0.24124802044692952863 0.34573462209018068769 0.082833516506487014919 0.26336918622232063925 0.044821153598523538752 -0.042474296142287003286 -0.32802543268664824394 0.27824034272005071511 -0.1985346352944578896 -0.17597295627758599568 0.3377699263912112837 -0.0078869426771365127443 0.095088392632255797077 0.13917098967378585539 0.032668691702268326527 -0.10732218504177132301 0.44167849335465469984 -0.38350922871009013315;-0.38088687474425397816 0.017010580523851612234 -0.47552028596649692505 -0.15680657499863315252 -0.096393313491892063105 -0.32088398646032184613 -0.3657976281952970421 0.23514149077356885642 -0.096074643099130038748 0.20203402433042186304 0.12354244199170981433 0.050989813821238870462 -0.05700137829152974317 0.083763158283443550634 -0.36368872937987184457 -0.36739878735253173048 -0.042277873929553545784 0.21573671661710072667 -0.046751049155670271196 -0.033562075815152025982 -0.0194990074311544824 0.2086663341188145504 -0.32585584438816989072 0.29107435963389921563 0.1383022568698956678 0.10920242338722130349 -0.20684403972171497288 0.10981469169587540491 -0.1113087963069262637 -0.039393438197881963658 -0.12219081981265381143 -0.010539183789090191337 -0.32271038409123925517 -0.019877388820859716312 0.29923153210077146902 0.04238109810494104096 0.3409516324422726119 0.14801292278111868872 -0.18793905102257471573 0.26388602826681117897 0.29897660527088243398 -0.23715249705192220642 0.23341456210526762005 -0.020329464671824722805 -0.0028448513620858229337 -0.14332930393786511014 0.084116673251989501625 0.072352430081118287997 -0.074206520542797513307 -0.21487242212450188839;-0.28679600287912337953 0.15311618881946148507 0.11367785345791855955 -0.26812536558044341994 0.065042731228193859105 0.32091052403506503676 0.11565288797318361291 0.30744680641719496217 -0.12900064532890220814 -0.10944709744524971917 -0.0083459722720278291946 0.34753590661715111354 -0.058179921089395070233 0.0098151454394509642792 -0.16234020132431273287 -0.40776826543273736458 0.20042215129351279024 -0.13625116196148770453 -0.039733115793766177193 -0.076033943244171134368 -0.21889317596656154841 0.2467964179378147882 -0.076146289781426512722 0.14394475895104574814 0.029318064117570829391 -0.031871801715298311852 0.45389242229720327959 -0.08581938669917475726 0.021483652015174145578 0.057470940015531740697 -0.040359233032441585443 0.10682823989626821781 -0.085503449728042357769 0.01068804744041725735 0.11802797554093544252 0.13532403817990634742 -0.068578354179138475977 -0.036305977659259171253 0.27167233077863167656 -0.012907921998003604389 -0.19824762876070037287 0.066203891751368468266 -0.093353404441133741587 -0.093150542369563146816 0.025144222489122777797 0.1502781884624584674 -0.14032454772481889327 -0.0689949539315467264 0.096546082436785793379 -0.081618989299431260465;-0.16951423022672795771 0.47129441228385454687 0.15757032166520676397 0.010107538792305532926 -0.03562389899048435532 -0.60410093039139423077 -0.19546101883914601682 0.039935647809978019884 0.17761034557984392568 0.14046395267405448193 -0.28083020467274516507 -0.042950710617124167323 0.17485050621299547124 -0.10628522317516179985 -0.071318869563595857497 -0.33524979730292031599 0.16156310744218616016 -0.066901939784797692656 -0.044303259966613141307 -0.045971551978810594463 -0.33019729767335531667 0.33557133754162027373 -0.13885522487019996696 -0.023687268075536577899 0.11024019877269844447 0.15604082869478533291 0.10797043978291027966 0.095112174972644750182 -0.035286556889231768253 0.0019625312443679941536 -0.17605333238765064063 0.10914495016300662655 -0.13597473437397702978 0.00021011438403946647519 0.31183808965817721992 -0.030638213545974190416 -0.096421042985992883034 0.22166627472153335732 0.20117122503302026226 0.074516784744165148746 -0.089271589434491829818 0.35460366091921557974 -0.05682162787415323546 -0.049446926543521466102 0.13284974957959672093 -0.22907167804393704924 -0.27094010153646008732 0.00485443489111537195 -0.0036192962299360616554 -0.20480532971259621244;0.24923325232328744083 0.049957953816340903985 -0.24775431708523037999 -0.074025024745948214688 0.28139188119417946066 -0.32421126052216148183 -0.15743263961346162794 0.020616353106350421981 0.031407220245541267456 0.15127122527620279202 -0.16075036116382637741 -0.29818944884182152499 0.2525117930844920644 0.049537911121063871178 -0.23052471095430773773 -0.25190923704258938454 0.16502923817247025506 0.19587325490130891303 -0.048959171532943684957 -0.27500288485884177847 -0.19058357013952270664 0.11577102911375539152 -0.22813677186357428361 0.11410692409734381203 0.13395450305620593134 -0.18529038957512286578 -0.37395235700434309445 0.091294176792364692408 -0.17606324453530444729 -0.15666651347478138812 0.12377866722464581084 -0.27913749891881001197 0.22238139552846045155 -0.17081460536382561677 0.040796225463508493936 0.32909941841550183206 -0.23565722098484051528 0.10059333637898258684 -0.0024923385054733473987 -0.060420725452445180059 -0.07132980984573761285 0.046443324823395609746 -0.34611992699271754148 -0.0037816092728961778896 -0.17177757334292145797 -0.18892170605809038841 0.24344039426193694875 0.2090997247781613555 -0.32087906771081259327 -0.12379445083000509276;-0.012539857578795792284 -0.0097784414509261025766 0.019348781989932659076 -0.055339201395795456495 -0.19814956541328548889 0.19127000094679222353 -0.10793347872742425908 0.11942129657027440726 -0.30702933045232289055 0.15753095955263154981 0.12638276384814414732 0.31357319886201179271 0.18586165627497783226 0.010902558481594628453 0.52629660054016791371 0.13502080466391977454 -0.14604135620296712639 -0.06119582712650255274 0.036334758252555353353 0.10710475886771197995 0.043485766249839838404 0.059986431390369306105 -0.20174502307475508656 -0.37126834785327550437 -0.55184906387511867276 0.038374072863412926615 0.17292638496680745597 0.33968529153141263643 0.20503523090172692811 -0.11391092392088697505 -0.12200278720178633907 0.0061414887137080931279 -0.16781587116483881461 0.1726897097210762233 -0.060285553854877931002 -0.011838748544069299662 0.062653512025045265954 0.28215188107443817112 0.054274605146280352486 -0.040635202058919940582 -0.02702403283053674346 -0.07438364101882342927 0.17074490346488863102 -0.017165459010336378554 0.15972620293529232738 -0.015368895348583584345 -0.022525678919332828981 -0.16584429469999342754 0.11954103474510768823 -0.096180929714716395518;-0.019943409333881813306 0.32468581357664827447 0.18256184126265156964 0.23785614204548896633 0.17658919629908834126 0.011986478357775031886 -0.20629299140389734113 0.44208251863861880437 -0.33245100395378435199 0.085849572851012273533 -0.22543713174797572196 0.15063332378271448997 0.092943842693344005945 -0.2279849374036264642 -0.10360509010854190848 -0.048935623962110881557 0.29384098311143558302 0.03715830742357188049 0.21167476979352592426 -0.14587857774687715273 -0.38175584415909957769 0.32305835481923295127 -0.18730427008797831401 -0.26393739213843786517 -0.22000518178417527437 0.050403462462212014761 0.26484950153586234167 -0.21432205005564361477 0.22101177665465920885 0.21078016832002255398 0.19549192348686897369 0.055951359451072060769 -0.26393848209829512408 0.31410430741176326164 0.12686411070013395297 0.19825955618736273989 -0.081981012042307260801 0.17575081121663191364 -0.41093108116550930431 0.28788760069261498664 -0.16245114925255449423 -0.052220808325171355624 0.30697013214636786893 0.24706111609537403928 0.36925366909776413671 0.17764933751081801727 0.016658799303845551326 -0.031223327463070830318 0.097926650253094521537 0.045805776409910722857;-0.32732931511312846062 -0.030717956415706758333 -0.17569688590982315834 0.35300698014672177161 -0.1158796263309674196 0.12649382855371804624 -0.32644041325020017874 0.12581372262165371745 -0.34484559842585482681 0.18231413510306393455 0.092781109841245601455 0.062093726132554219466 0.14571665967705710321 0.0098811534956654567541 0.13230226760781074735 -0.11865899484769881767 -0.31626178172437624525 0.11729587793974317889 0.19470515866437015928 -0.18030762935738500752 -0.41520265568098846387 -0.069101583352907322566 -0.40191819955530244668 0.21282044680383166435 -0.034928357542131797941 -0.057890069688532753978 0.16230865056209770048 -0.17407306406773911944 -0.064839294033539912609 -0.39873368544451753825 0.25594285833452018464 -0.08743069007805770454 0.14345704617326429653 -0.1351564499997065516 0.18926374995474820606 0.23171788760112291272 0.11359573964797267664 0.053197498276893358249 -0.1863223741040078707 0.17489410418965317673 0.035248985307181575355 -0.22279086036126280468 0.22977293863477721292 -0.15662657431285387233 -0.11451854313809972652 -0.02679409380977701427 0.19803757098012181315 0.47947413253642107156 0.11653555235282966884 0.37624472304243183896;-0.19917868957875323188 -0.025736981267376123766 0.097184911087731140622 0.25666550483910355318 -0.14810165441495556915 0.21987156027867041375 0.23020971742057996789 -0.14355789810296187836 0.33751962811136276832 -0.2584629147146271233 0.20019531985604044344 -0.22955864033522607737 0.23785447313845614614 -0.074077247723340094998 0.044426619063740062365 0.066720300778759233928 0.33832386846998951935 -0.067159082169203687673 -0.36912801387209431825 -0.388348291748276786 0.029622514683687577869 -0.31513424092693564926 0.02074231701191968022 -0.086926004921191332708 -0.030435164563872248167 -0.21325233579727664868 0.166830270137910186 0.060539238308232323771 -0.14688444763325522735 0.16974889654800065508 -0.19483737745832535593 -0.33187717209477674007 -0.33653081932769779439 0.083200314899611077513 0.3325852923708754183 -0.044938930836965415572 -0.15677004547238757026 -0.29295759774884244653 -0.039731609111998203443 -0.094409685190969053203 -0.077872018421039398972 -0.21310250976086542174 -0.22865912640781560494 0.32361962950519779225 -0.19012736005845051745 0.18989017558514292849 -0.038923038204947128793 0.037471583444708751742 0.03002485730873724265 -0.26071799611044421674;-0.01787111936084346403 -0.10258436006802093554 -0.070411106334533249407 0.026198548150793980055 0.069083741964064221408 -0.33943332973384676698 -0.014539810888780270101 0.15171986918910485009 -0.039173348257608868461 -0.06855443629679534856 0.11297818378777947645 0.084536981864479970872 0.1804884095441199876 0.0079927291728769337548 -0.12445343857199117621 -0.39989925286682587169 -0.041254465807585065373 -0.074034324320335714864 -0.018230023172558815908 0.038908274399042187819 0.098857699891035322182 0.060046846032275273675 0.10511667709381718183 -0.095975454998290021802 0.11809799353650810017 -0.0090780029644610925332 -0.079863415156788380989 0.071969317936300042371 -0.17325784868064306177 0.10957666475408217588 -0.18382697034012543402 0.34312824167172845113 0.13975857776223618578 0.095878129849420068442 -0.078283078181085277714 -0.015265625502722614953 0.16875200882697960481 0.16665149149894739611 0.10199337824248691509 -0.00037206355942439792422 0.040071982373226733287 -0.046416218126297897895 0.056661269083630595722 -0.059424654426486631098 0.14416878970820368178 -0.15340976746748558046 -0.028261061000784862274 -0.079723801326363627484 -0.16471741078445506501 -0.10515562980859505249;0.29912344265173457236 0.1586465160376354655 0.32816295000993622732 -0.29194380202714359518 -0.39802564223685427125 0.14167737835348376274 0.37632408903167169356 -0.26803741291035904082 0.43579108000526328714 -0.37606601508480430596 0.05085979202724771886 -0.19017093256765554843 0.15040884905260967774 -0.50882288090377769674 0.22102605373692879587 0.20455892489063898232 -0.27638346907720467982 -0.033842664259317194186 -0.084520386277109754714 0.30740635695521534299 -0.1334188520331467398 -0.07234882213982175847 0.17893058362064614975 0.27001784427363179075 0.0099070561553298731178 0.1754537109781796056 -0.079726352233507130629 -0.138281673979537445 -0.15761783563703679611 -0.16477806896305671747 -0.036739547903533210926 -0.055103495190665173487 0.32706687856921046187 -0.39628483135431907813 -0.35021846193147765369 0.30346933864758102173 -0.39489456752256862915 -0.24136102810572052091 0.13477725242801896766 0.098423358152902790108 -0.27952196201423962219 0.13962987704638768482 -0.058281228431345873109 -0.37013934662969560918 -0.019894538541362600387 0.0040622449922957243329 0.067767374054114315474 0.073691905681197919509 0.06296831044810068112 0.2847811324895767604;-0.10576897486362769885 0.10824628545984391059 -0.25056267004056020919 0.39016107392914090024 -0.084552429499290496229 -0.19158113839090312736 -0.16874069716475684211 0.14208044411676495899 -0.17954450896277349137 0.49242086644609472934 -0.10577173819014863698 -0.030071681919619140666 -0.13900441896557055865 -0.19765134699282851938 -0.21195042887816942234 -0.021877952430779813719 -0.085966006382938858765 0.19382452851410922334 0.068775015212370366191 -0.29534991543964367322 0.069692985218047967533 -0.0079425777930057436804 -0.28172919435684512512 -0.19990361797521788434 0.030131521001324219899 -0.12788970664056070747 -0.25805128869560267635 0.048429745141300370448 -0.23476893294407208401 -0.40750822335892811221 0.17449322673070477574 0.053043765934468189993 -0.33813561968862559937 -0.29508628636136879919 0.24379030967515988304 0.17303953377999845009 -0.18140654711553155787 0.092314346859314555527 -0.020035305387802519045 -0.12853540156406143002 0.048311100737112117054 -0.26746951927903828139 -0.24456201047450495945 0.14525914103789949738 0.28722557397067705054 0.060577772833618766246 0.13642948852167202656 -0.1748078483284569995 0.2427835074023364792 0.085080443363303517867;-0.044710118160385392549 0.043104390815434545647 0.011751643160755217282 -0.083188042432986830654 -0.2125359681605365203 0.2092582149963278515 -0.017257853263114977804 -0.1427317577802669768 0.44145691654474672472 -0.16473024119073709226 -0.13973556342268877994 -0.13058375598784321969 0.036533762429567420704 0.010960597470835095613 -0.057989198456081976485 0.062757759216233818811 0.03624643875919502517 0.11788671227030185495 -0.019477642458367760286 0.13588407034664889972 0.19328234342350167352 -0.11594409305345970695 -0.054896458211923133963 -0.30109682086582206795 0.44183616666596947642 -0.038882314996585204403 0.20789333390133118984 0.023124945093728716677 0.035938781167740969924 -0.30238888888517650999 0.024129222841733258265 0.42467432097972451777 0.11599284744839649663 -0.093804668170934982219 -0.025665095340573984561 -0.39355870829573291747 -0.027210484539173809826 0.30109972378318344832 -0.059652617968779075852 0.084396214472340191914 0.012719652921777959212 -0.039309017195934561895 0.0082541189800915786001 0.11162542423587679119 -0.019204014775192915221 0.35985364338603698098 -0.076149263298436617453 -0.0079499071720127469087 0.17538019081978362124 0.24462150145334668472;0.067463580742150378033 -0.051140024540710447842 0.26598468212848497272 -0.11730351820082125791 -0.074404448474101034239 0.084494645858588152132 -0.12598886339621404029 0.023967542262533392261 -0.17377447572876661419 0.0081962232370540195198 -0.052785304816106055903 0.14183569590700911833 0.025241558413117017035 0.021335438698267747415 