function [Y,Xf,Af] = myNeuralNetworkFunction(X,~,~)
%MYNEURALNETWORKFUNCTION neural network simulation function.
%
% Auto-generated by MATLAB, 01-May-2022 14:17:30.
%
% [Y] = myNeuralNetworkFunction(X,~,~) takes these arguments:
%
%   X = 1xTS cell, 1 inputs over TS timesteps
%   Each X{1,ts} = Qx71 matrix, input #1 at timestep ts.
%
% and returns:
%   Y = 1xTS cell of 1 outputs over TS timesteps.
%   Each Y{1,ts} = Qx9 matrix, output #1 at timestep ts.
%
% where Q is number of samples (or series) and TS is the number of timesteps.

%#ok<*RPMT0>

% ===== NEURAL NETWORK CONSTANTS =====

% Input 1
x1_step1.xoffset = [-4.339;-3.989;-3.745;-3.59;-3.425;-3.17;-3.082;-3.368;-3.455;-3.503;-3.852;-3.926;-3.985;-4.015;-4.501;-4.703;-4.808;-4.875;-5.258;-5.41;-5.545;-5.52;-5.522;-5.556;-5.578;-5.569;-5.573;-5.481;-5.353;-5.159;-4.982;-4.787;-4.609;-4.535;-4.395;-4.365;-4.391;-4.508;-4.603;-4.699;-4.923;-5.12;-5.249;-5.248;-5.319;-5.454;-5.655;-5.678;-5.6;-5.583;-5.6;-5.703;-5.705;-5.796;-5.853;-5.904;-5.945;-5.976;-6.09;-6.033;-6.031;-6.058;-6.077;-6.1;-6.131;-6.072;-5.992;-5.968;-5.933;-5.919;-5.886];
x1_step1.gain = [0.145032632342277;0.144320969836917;0.144529556294262;0.145698258905806;0.146220207632695;0.147177864449187;0.149476831091181;0.167168171180207;0.178284899269032;0.190512478567346;0.220653133274492;0.229463056447912;0.239549646664271;0.245489137105683;0.252016129032258;0.250125062531266;0.2460024600246;0.243279406398248;0.24339783375928;0.240847784200385;0.238208670795617;0.233345000583363;0.231427910205971;0.233100233100233;0.231722859460086;0.230149597238205;0.228336568101381;0.226167590184327;0.222469410456062;0.217746325530757;0.213424394408281;0.209270691639636;0.205486489263331;0.202306291725673;0.194118217994759;0.189627382193989;0.185305290466043;0.181752090149037;0.178699070764832;0.178890876565295;0.179726815240834;0.182448458310527;0.181028240405503;0.175453987191859;0.172161487475252;0.168833361472227;0.165425971877585;0.162311313098523;0.158227848101266;0.155994072225255;0.153964588144727;0.15180265654649;0.150217815832958;0.151343170639425;0.152881822351322;0.154464009885697;0.155666251556663;0.156641604010025;0.157109190887667;0.154320987654321;0.152450644103971;0.150761344791196;0.149164677804296;0.147688672278836;0.145158949049209;0.143864192202561;0.143092222937683;0.143163922691482;0.143102461362335;0.143143429716576;0.143626570915619];
x1_step1.ymin = -1;

% Layer 1
b1 = [1.3007109975450825701;-1.4485087379264613983;-1.4024434127290070773;-1.3157935831874305599;-1.1613835084321841862;-1.2907038921263482845;-1.2519815798048385957;1.2615068278079457631;1.2490272037950453932;-1.1405446600976132387;0.97846566567672310644;-1.180504603697998478;1.2078679613070069099;-1.0457606242588883827;1.1359642530421187878;-1.0756281334053987564;1.0449171644096761913;-0.92071568567126793603;1.0811557946931091845;0.89560872843118777276;-0.95136513955851631508;0.77388945044975010479;0.95050660871687531195;-0.79573594258798940881;0.59569136619260942833;-0.60639732430116477513;-0.698591645306323894;-0.57203130096022503093;-0.39970670575046846063;0.62205000074704497326;0.43233672123792049602;0.7294511925620542625;-0.51862082766027328695;0.29822433045991048051;0.4327581473174338389;-0.11379532819433227364;0.51488148395855348749;0.074587809695353279871;0.38705423013640721797;0.46756583964039705181;-0.27919121374372435351;-0.023673009638462663012;0.29619519418776152353;0.26636656573309852591;0.14378368813096423229;0.21635313853400647832;-0.036318451712222581118;-0.3279770644532757351;-0.18646102927719382381;-0.012022195433784679461;0.048976910071329232688;-0.13071681849900751438;0.060082000861971865402;-0.15008791839192264783;0.10213482702280807235;-0.17438050776710992129;0.27876114847877825342;-0.17604317125280863343;0.67265748653237877885;-0.095221834491320767047;-0.2695586677069117254;-0.28812612598991060864;-0.5405103818791073822;-0.39150737406273183883;0.6697376798851977231;-0.47552795772026901222;-0.43740417281105409275;-0.91458014418056599037;0.71863465276444749019;0.80643519399183716256;-0.89904353696696281961;0.88316884538750428657;0.61395609276123153109;-0.76263610816244853385;0.88977526815292118378;0.46361245369273623718;-0.7354240339871022103;0.80213954299922318736;-0.7999572225560297456;-0.83136684155858942002;0.97640367439872555178;-1.0391469904773238397;1.0006180290234272245;0.85277229121646691556;0.56380209616305909659;1.0111356306338912248;-1.2298670958691551025;1.2276427828138651854;1.1336380300629582685;-1.2121146904579886971;-1.3117759349006703484;-1.0193597740740700797;-1.2139390838530321748;-1.1634452994181740948;1.250510673296045816;1.293858658476826351;-1.3956330538768504379;1.5479316766326027821;-1.3936504504229783041;-1.4094490082156367894];
IW1_1 = [-0.25542552248367889067 -0.068173107953968803407 -0.045076887323120998219 -0.25472605011150267762 -0.074719068633749358144 0.021502691560839771318 -0.17917678021840274805 -0.011029247853865525864 0.05154641555264088959 -0.026349361733349611903 0.1634876457068870359 0.3011555147712090541 0.25363419729194885965 0.1752303636057591929 -0.095028278609295732671 -0.075751492020499092139 -0.29355602153138848909 0.14344123581467588258 -0.0877924620166213171 0.11998998571517967282 0.13340928029246579278 -0.14830133307359083528 -0.30945294582883725587 0.19216901576245984384 0.10227072479630926194 -0.078980989162860795738 0.060863749153665352987 -0.26461740329975230734 0.26805398308189426482 -0.14952911811342506354 0.22832479083384654706 0.078592509912269931105 -0.2852026364100588296 0.087137711197610795422 -0.081770076094575053216 -0.26498528399875209693 0.19788542391319413616 -0.23818070772565730353 0.077428322668964794095 0.25575066829650011657 -0.25782074167719531976 0.1680521729704465006 0.043723722149368045298 0.15199758277753283586 0.0088036767362377182228 -0.078695215782036212482 0.15430847080731435739 0.0125178638518015483 0.14575928245849051335 -0.042555516355312364429 -0.1187163204957421142 0.099710227071129559073 -0.29976610459966168687 -0.13303822395237810405 0.17153802444708116104 0.27519378903632224498 0.25715574793896572858 0.26332063701981928139 0.18275855502917109918 -0.12975400667354308748 0.048370595965097629154 -0.096851543176386958867 -0.24304019901503043366 0.26646342573155490374 -0.13079916394208421226 0.053579922416317309064 -0.022311871750790048669 0.27413255870267166925 0.11334964199542396646 0.1539105631889593484 -0.14653391128481327299;0.038790718566079560037 -0.37735331808019378919 -0.059707891727626090372 -0.26771435485170352875 -0.0065797822178698152362 -0.20052435497142878651 -0.24495875719038032181 0.046490422584420251773 -0.24389494019304883143 0.1610400054299372663 0.14668313434168467335 0.18236504530661751255 -0.02359969102918429984 -0.1853544100229819469 0.35197674534324890905 -0.016679954788939761051 0.18483165639032839156 0.046446398766908883471 -0.023700178262860058936 0.098724309810693480771 0.0012972769347202139749 0.11329418172058054737 0.10635308631341869323 0.073476077895156435837 -0.28211078552355062232 -0.11513036398722216458 0.26044799032863041877 -0.016804673393090035355 0.22852584083573679319 -0.23492387214841306542 0.024734033689762083275 -0.17587587045644828554 -0.17138178147736216062 0.16110678815495918514 -0.12623776871137876165 0.021204401762220825844 -0.15544219771025138965 0.18450748780048450981 -0.22013020882630829345 0.12136398327137859487 0.31395116212675794332 -0.14848795072930640049 0.15686455020469161625 0.11780242631650396368 0.055012415725196772698 -0.20632964522360636161 0.10491059380618550367 -0.10161693501349176871 0.16685140259513353556 -0.27339670373883662169 -0.26768291308406738649 0.22537297341516870919 0.19941355447492234432 -0.092890665796462157378 -0.044382416486510062326 0.15111792088030451264 -0.28334270631054664369 -0.27133898342269963111 0.20629611463397731774 0.23298593299146952429 -0.25183918009407874061 0.22970990725461154502 0.32036547018465688641 -0.007926777940842373929 -0.069879048790601347441 0.2318443452270539662 -0.07878047373269581044 0.098259634372543896985 0.032099340249302263373 0.22617444157194485643 0.32540147059000623653;0.32514847012040892782 -0.10969442944338583801 0.13621477553990524179 0.066029362133512722877 -0.3392145531200678743 -0.17252873360875667363 -0.084787388463727797472 -0.10682271246442795465 -0.014121748083903252341 -0.25022022545198713273 0.034552747582545624561 -0.030506069697887168435 -0.063784130801680119505 -0.42963718791181204626 -0.12580407703140647491 -0.020017444733208978463 0.14006444561978700913 -0.27356396109130876049 0.24323985306927128902 0.10467108478826665785 -0.16910442628060590176 0.23534491423370804131 0.40789291007608668993 0.46356290433968294629 0.082965859384056081516 0.21524103819625717282 0.18265012586702186748 0.052765844377212961502 -0.15218705049228098414 -0.030137476859001512131 -0.036558417604093736142 -0.21291212227572092752 0.094831100096875911576 -0.11279757703686014991 -0.081161128519001660142 -0.25199043519014380221 -0.016596015840576783945 -0.0028825181815325890203 -0.19774344856646755564 -0.14522839087474614939 0.26374995328655492788 -0.22715353802907481406 0.23456087467449451833 0.25148956390589555232 -0.1006877428382637607 0.16307263444681657782 0.17457654335471287088 0.12543383528674026395 0.030559196441048590287 -0.22155440846370996755 0.14165729290943859797 -0.11870613166164038776 0.048810782191071364067 -0.12472080422262532551 -0.28942471523311796844 -0.23017608057395300136 -0.17154896557440840743 0.29449114531666653605 0.29721181343405916886 0.068379637611845262013 -0.012502931519397556329 -0.15763763521927767752 0.12508195689669479589 -0.10089057204080471852 0.24261482474968992795 -0.21510262419774722753 0.019127103741743645138 0.27645043320646428553 0.066720362061204782633 0.24119475716653626662 0.28067937544078130907;0.23519446141806385486 -0.2143654667957122506 0.291151269583438288 0.17207074839030392366 0.093466103384024279421 -0.16695093210465730693 -0.23891367146910449937 -0.20648724812379698479 0.15120141888023572174 0.16037622736280113256 0.15601865285327817801 -0.18271526251922681761 -0.079064946366422070301 0.20135057619366836246 0.23093525589592464597 0.32219194675609363898 -0.1802487925261544166 -0.015726406978558163385 -0.20210818649814310533 -0.18467652517663640799 -0.24159855803325691603 0.10954583771980702656 -0.071464105104372843691 -0.23904188383852173483 -0.03473178456330176106 -0.08870774106788274771 -0.030135736746980921336 0.046635242505298706017 0.081963276107570967599 -0.18293156303961147224 0.2238140200754591691 0.24394886439028834468 0.11571903453650590754 0.045554828929987252473 0.036277813377493819957 -0.13013645668199275152 -0.094627234521570124937 0.051517755555339599105 -0.27285541473748575747 0.23845498608293647091 -0.023290655078026793745 0.056956073836619172668 -0.088335768498651101588 0.059204651656984887131 0.20329534597630657955 -0.042761450069799492035 0.26914302013174518091 -0.018297497346544049773 0.29201433109542296318 -0.16112548934003143031 -0.28509635833023927454 0.023376104522822821474 -0.078526343189748729068 -0.16792712382843114072 -0.13756655279239293765 -0.038187901835182412602 0.13428070506036238196 -0.10279852994585401971 -0.27750037650603898154 -0.2625591514686424488 -0.309260267360695007 0.099379020932792633269 -0.16328755582288134729 -0.20683922537537483 -0.052015146794241511052 0.14220391288101724703 0.1531965835255333086 -0.18983894951825774911 0.28836972036124641772 -0.25064163398458710885 0.28663311559639326198;0.21862470735703617986 -0.13481829290093683138 0.41205916110493995275 0.32273904543696246838 0.27016891214871430194 -0.0082469461228942865516 0.27770976685253068172 0.039587517021404471096 -0.29944571172745970689 -0.12435714815367369945 0.033519114316732240288 -0.31012292113103578917 -0.34803895287632014011 -0.060583004913529026059 0.081747764114951576575 -0.27137909184588843159 -0.018379413752306714147 -0.03658688048187609676 0.12017884722094063221 0.069563386343787808608 -0.21378904562881206886 0.31259427452407068104 0.19556191899300173764 0.17944474986254271842 0.27478363613786116471 -0.19840223937771925278 0.10165300014575306964 -0.2202241599416824569 -0.29196050123222699879 0.09445925016061137991 -0.18106540015793767817 0.026499275712501487584 0.24213852306183875074 -0.11522063866746308503 0.10998362447662417274 -0.13528627090928380117 0.11423179110093908961 -0.11377735695585798614 0.14056467934188476843 -0.09675941835962395543 -0.079128461798387991766 -0.28542455084298223866 0.12347821848446782766 -0.076905575635968601023 -0.18039688935494480049 -0.16375322462887018093 0.072748533759473210658 0.16798053092045869827 -0.047221224633691938344 -0.32968884808304477207 -0.062299617045955740791 0.22244930489429678988 0.21080327813291777073 -0.028028020910130332921 0.22901409671778652499 0.098548832700190408529 0.23972466841142761607 0.13066345652524283261 0.14214814546428194975 0.24194763128567806088 -0.035211442389351178817 -0.17968525253811512554 -0.017212064594993095601 0.26271153546698355896 -0.26951500057292265833 0.14188447211770158218 0.18737067278086907973 -0.1552346250258145044 0.092744221086969780288 0.14210471186924136799 -0.29506574283241882029;0.22770409582067202559 0.34184626948207041952 0.32480691245448994886 -0.21664162867111957933 0.1429748060282859945 0.2632191925758886053 -0.12463719549410569309 -0.26863821497174106279 0.15015315436606774258 -0.14770974373618864228 -0.29933480534574846699 -0.21758185516698536066 -0.020319903699718096235 -0.10017663324958729631 0.08237425758936567366 -0.36311036984102212921 -0.18838019975763856118 0.0088749800602380239656 0.19347294205446552429 0.09264942198256004291 0.014259257012322322858 0.094557574263079424703 0.022866212536581137504 -0.14513560737967778902 -0.24247650712152662988 0.24524014510381295096 0.24643596339028914222 0.014148357628421551202 -0.25792077362763765613 0.10688171680231166316 -0.2532261373202525645 -0.1032792591594758197 0.0065044173739740680437 0.12224738066824793192 0.18066821931851501093 0.22970683507119751821 0.22689635484324571779 -0.096958332789574219746 0.0032650533947710955532 -0.30411993754633959153 -0.25545487870099953254 0.12639883189105055594 -0.042261360362619834752 0.028396913239663472417 0.18696035447643788441 -0.16257750750255345329 -0.015134709100628558967 -0.082421078268356984253 -0.090328032966259214076 0.020978839938609755017 -0.060334521852829170463 -0.040616928019062914501 -0.3692734168481432433 0.21898557542218333172 -0.18373673950925842324 -0.022949640918759669356 0.044331476546487141865 0.26576041328942390241 0.034050962778881421755 0.14333246284215347965 0.14073261312319368388 -0.0052912892255187636212 0.31515154020124408474 0.20818907057894461832 -0.19100923570932404338 0.29354119116423393887 0.35741137231285030618 -0.23201878902745140532 0.26691259244666737382 0.081598450024233576405 -0.14215419284064634287;0.24144313361848307453 -0.34677813629246206917 0.03514128073650105849 -0.23332416454826548913 -0.013650977221828414915 0.22656746639376768027 0.086665663200453144088 0.19684894170278879888 0.29211561860115642375 0.066393925916686288846 -0.22376437459610970526 0.23439957617878676155 0.10135984134102053733 -0.14572029478896339483 -0.16639929606535497353 -0.074101587081466024909 0.18003169033583676928 -0.18327392971601355609 0.10365533896225741228 -0.036950272997786477724 -0.15755603804121287581 -0.29654900691437036109 -0.15255310155804890915 -0.24630643237975188842 0.021387668250041933643 0.040958983163059535515 0.042526973301459713994 -0.21541697578661928025 -0.17926923856054677309 -0.015359144814838056325 0.13987753844221575972 -0.22484429242303546892 0.27999786991648750734 -0.24599080256992106319 -0.15079706714900900644 -0.1520023553332984223 -0.14448524735899853644 0.19835278006704940013 0.26565791680272021758 -0.14141912011293455986 0.32299437144222981066 0.30081304952348458803 -0.062352424256531674418 0.020299992444897753396 -0.047059910255549869396 0.013717329458107455076 0.11873782350229515614 0.085289772236495128843 -0.13042048306386386236 -0.2926630826190128043 0.097408191628769846826 0.027132620147490942725 -0.24737421304544404688 -0.047049232546599019378 0.22390721336260080432 -0.19797066386373654567 0.059604349042701849914 -0.21698645353324141904 -0.049116906236202684255 -0.014500359896567907581 0.11679865361118864364 -0.037056335197270792725 0.078378189847121207401 0.18473816608891624469 0.099937920174221275826 -0.032665297378310663434 -0.11590006680048869914 -0.18976999055169158082 0.080806427297897304163 0.10256451714210705617 0.038172650888466837238;-0.19867511026220535664 0.059654513050146788788 0.12702183044918963217 -0.13913040948344354564 0.085100104028005191248 -0.1679095503521016719 0.082821333118055479039 -0.00044670632997823690258 -0.072604153221695624798 -0.048121789631138119081 -0.23178339685696788819 0.3447539535257073684 -0.060623370720827594871 -0.046984367088773335008 -0.071418227242602647098 0.1104270341472128325 -0.092539629124109151759 -0.23487045834231495833 -0.27995064534084884711 0.12827377832329317497 -0.24452744665889705744 0.010797879595111649007 0.110751218815626995 0.17368102042752214809 -0.30843608784806014755 -0.0053424609100609027693 -0.10001346335719893399 -0.229253396658754105 0.098942850795616335557 0.10276919376934796901 -0.11509958598050600009 0.067035109032598197421 0.14465655203729294032 0.34313019978213105121 0.041220269367166439967 0.025282311589389806078 0.18294508938568529444 0.3118218384280794786 -0.20980332601030618478 0.27743757289274179056 -0.27189946505476420002 -0.088336885008284848908 -0.01863621375230965771 -0.22549674318896656411 0.13294581571876409876 -0.017610868262711382171 -0.24540517844150450122 -0.152358383027894978 0.1054099893201893845 0.0072518378273699213993 -0.036734721133828113215 0.21434761774986793581 0.26785362616667557356 0.2549329550910091613 -0.006162747998290305125 -0.16632974389349308719 0.23393563044553192243 0.06969248187645031567 0.0021042748775959470298 0.081263757194125749161 0.24171494499034806847 0.20714869266644966861 -0.31759093804935251137 -0.29334806125433315893 0.10940658761210561578 -0.044381663395891952917 -0.12538395864831589077 0.0070905452077158421034 -0.34712605887405217908 -0.17019412418117310648 -0.038648154429806423626;-0.088125466923067566349 0.053429907833134782091 -0.21768828965244219065 -0.047830266549493634376 0.34313672306360243347 0.14489431226472418435 0.14318593467208909353 0.12142356241335763856 -0.12808529104312513236 -0.30705517343817950726 -0.12168896650643254431 0.24408823357541939436 -0.04529019113099152366 0.17923391327364565639 0.042637125054372532196 0.17812214183871638573 0.11821440461118679077 -0.11238940229043101193 0.054347972548985226671 0.056641390390476997752 -0.04312767339896042551 0.22853589623177986145 -0.18312757335312757068 0.029647110127139945229 0.17184136215692433214 -0.13653774393342463234 0.3170875192367592077 -0.044345523708521975004 0.23974361666799959281 -0.149831099327772721 -0.22698421686778036399 -0.254195190997670184 0.20500012955092380973 0.20068297180082295128 -0.032807184986419601902 -0.016771377716799325264 0.033044318418498072609 0.27356651272970067268 -0.15017446421288765945 0.26272212137883438343 -0.20462494474088893659 -0.14253939281036984155 0.12929341257075874227 0.093178248488535717065 -0.15215603663962098957 0.13076253962981301826 0.28810240338646786462 -0.099650297467274148722 -0.071932366627422875127 -0.019384374686121984971 -0.29096893167122067636 0.11490926073199096702 -0.079483548758077102181 -0.23329597772550406121 -0.24125607938735638136 0.32051540020925883834 0.15358665218113326523 -0.068892015477294926695 -0.11110792116389490991 -0.06571587392455405241 -0.053753884443659118164 0.21509421137022816106 0.092649134434707305918 0.21103021042002731433 0.06059420899156245377 -0.050387770594056843776 0.11814133925491543398 -0.16056081302929312016 -0.19634751783587689467 -0.25166397075460728017 -0.045314679211900722733;0.15189184413293993492 -0.17786489354320422773 -0.052300268285342017827 -0.063238014572272405189 -0.087086448123775833663 -0.13309347797536666413 0.10564452278966433851 0.081478426922697064216 -0.30307107109285541524 -0.19812806347166009302 -0.17851502659150994545 -0.16331818258309913072 -0.1742247033850874427 -0.080555895768099419763 -0.22315533904198772697 -0.14033879143717167826 -0.19840012371483645159 0.16760510517393623076 -0.089602702169496256657 0.36315097971165299917 0.36002188200418078212 -0.14564772993147820368 0.3871552742561992777 0.0015385385845290598054 0.051016165787611582327 -0.10500830277299237625 0.37989862678836588961 -0.078990808156055844491 0.27034648333780814111 0.017287688905149214968 -0.11247818973447600011 -0.14257949402888406287 0.038804754794551338248 -0.29686068173783530799 -0.14919346102508568297 0.20842999694157463009 0.16893404792083574484 0.071401992478835607514 -0.27015168879267031921 0.060203134108824767068 -0.099156058603148633512 -0.29401638300198074116 -0.15683279800646007796 0.2889921270220728311 -0.27766388914846468206 0.11887867926201660385 0.25519060924271946833 -0.11460386947391461299 -0.11016199632982603962 -0.11836021270545241113 -0.11415282251356384524 -0.22414292243850483799 0.038679733165683891083 0.28687550006176504303 0.042976157640520755432 0.20805937719664802099 0.15094253614345071179 -0.21280958384865336641 -0.15560782065934922191 -0.24992430311110258589 0.18826156438940763738 0.096538918642078017096 -0.017389062654580157707 -0.016352240475684773346 0.27528074006119129802 -0.19204416746547522954 -0.20960727161897363402 0.16378179533563000381 0.02521559610443553992 -0.11800430678171269783 0.0722227521081776902;-0.34775585243766471422 -0.20901845030818416715 -0.44839889196945809102 -0.41258233586683368266 0.045938579469719888204 0.15594731125699076713 -0.25433791130030219962 0.028766092988861957647 -0.17367676831026077067 0.30505372956750786972 -0.021638399660780811146 -0.012617120805335845651 0.30168094257910776923 0.26261642655520983647 0.30208686482136315465 0.12426646061852424097 0.29158430270906016135 0.1151966810749769643 0.11187802184249218129 -0.13753452743463670527 0.030489548818231460015 -0.031696655113862291786 -0.22075503109720984174 -0.29923207949361180225 -0.25191132805492350011 0.14794232059329087692 0.16977001807221173135 0.21506574207197345916 -0.043649832581053350788 -0.1322643945770155538 -0.13552225980416787721 -0.23427513396057964012 -0.30666628075895768779 0.22522152256105862356 0.13449759461339663713 -0.31532251758075119374 0.20261775307083548792 0.25872485379415444129 0.065508171989667615676 0.0021077915104336969639 -0.30442039372399598562 -0.045653674202819155559 0.24224814934393865129 -0.061014961708995632539 0.21699632957814901646 -0.33499516170870752285 0.073436008745317235547 0.16467996714208915643 0.0082445521503156475596 -0.005375009337451903263 -0.31667729751360290669 -0.063101609213531570375 0.17908219026713947941 0.076245902182434932559 -0.2070904111271265613 0.17990326653223751019 0.061920570659386955925 -0.091499471102611598661 -0.23013198346377267134 -0.037989907585250941302 -0.039471035741591969925 0.14056446272306488687 -0.28430316911589620377 0.022516057855308423824 0.10210757121043832762 0.14967467150620281102 -0.14904460755808945915 0.050780006180948966676 -0.26842487527561770255 0.074501319008165686752 -0.019166504911497232733;0.063307966121318393071 0.055105301610287545089 0.024599687776493673469 0.1640326566693887933 -0.11897274538688110135 0.09145620558342490436 0.0061694524161112242189 0.3026669388226562174 0.084473768860444817252 0.16043422080210936742 0.05116710641067163251 -0.13757608586885100577 -0.031362531558529582743 -0.14479536089540018251 -0.16647009449855357244 0.19674236271689546363 0.27507680200722284258 0.24862886801510628021 -0.09344303920996518964 -0.11451455081396591518 0.089520186974772347765 0.22712061326307483866 -0.019277301237845764076 -0.13557981110131128721 -0.28850163162366548875 -0.16397722074603454656 0.12645767352737521949 -0.0030685815325659764746 0.16010506618926079181 0.19342245546110420351 -0.30238088868943879817 -0.10739811578086465305 -0.18513084957511041773 0.21705340273631637538 0.17042696272073323827 0.16608442149537772092 -0.16514459086576924185 0.073955251204554345312 -0.14286076945167225372 -0.31125162873019812659 -0.22350844987319723467 0.29149461729267889254 0.28536768120909256075 0.058389202674813067695 0.017574622811021685387 -0.25591654147504855343 -0.1122327884307272039 0.28894502420729556436 0.17622364843841700766 -0.13224362421641963627 0.13449177859725003348 -0.29493840394114190229 -0.10156236697486174803 0.20122176958217072307 0.11082188278729855624 -0.11668193873861663901 0.19476187133312455879 -0.060065518413405315223 -0.28726998905182360433 -0.17070714185313839995 -0.33948371875067412384 -0.22392769951272725737 0.11270178553703151525 0.18999308294601049973 0.096263525246930908841 -0.33173408190484532376 0.13149096288242165254 -0.24800557108328427636 -0.070761502580934956819 -0.040535035233305045932 0.12344965768423601937;-0.18696759827343265026 -0.15446014556947038066 0.2766346175432987109 0.063084236286354802847 -0.18826607143744872319 -0.058191909583999140709 0.42585539945321981836 -0.073956352242643949579 0.20686690591771961234 0.24503077381246921029 -0.069243474530996843019 0.29754977111562658232 0.265740907747860855 -0.14666749472662868325 0.40324384414049002645 -0.020756332415415124776 -0.1191466763659605882 -0.091496743341444933262 0.080346665579732884366 -0.032305015905535638954 -0.14291106578054904586 -0.17460938462905478685 -0.091166534725393655325 -0.26810100848564466514 -0.26121528654609899034 0.03939998099937647158 0.11810042478930445065 -0.023750221791302351948 -0.13593089419895196257 0.17180273573322810132 -0.16608257863582168157 -0.088094953234377104678 -0.029152940066832871285 0.13983801173001492169 -0.068526095486577787153 0.033990901387994862382 0.29545566102976228429 0.18764778325726100272 0.13534001647868362794 -0.25195212013660250872 0.14049098860726094706 0.14519852923849338455 -0.15158099119222689932 0.045407535676026067328 0.096544551387629240491 -0.041380703881149012713 -0.11758401499013981795 0.066799019629070741089 0.29310140194474348929 0.25781483044137032401 -0.12009603558572586046 -0.054874187864165827055 0.090210931873736632802 0.047171106680373296738 0.13254434400348882872 -0.21432698101222694143 0.28006596322439020197 0.22266166231806047704 -0.2612262775137827453 -0.092770197528706521695 -0.022208052602535208186 -0.31560731457311336223 -0.0083670049809208158625 -0.28432243987280031439 -0.1426819174443396121 -0.012795325305696075846 -0.20843861577727115786 -0.16455223602254395732 -0.23369241959730455149 0.055155818392616226542 0.12383249083189332151;0.40639542738054923454 0.38847750620980742164 -0.094707051819091225831 0.18890095051168614981 -0.16111147485685220482 -0.15953906494559177975 -0.08930847029218348665 0.018143807172233399061 -0.1315535177789517729 -0.10557915785822431787 0.2035975711520192355 0.074164266663448594197 0.021010210357241296958 -0.23161256047583919648 0.070858494238540251087 -0.29766660471588318737 -0.31617499011594818459 -0.19999492860789624959 -0.17887916135331743961 -0.28392313482409425873 -0.17089394814847255755 0.029653802880167966227 -0.11936824182782994341 0.12934024404274394038 0.2941202371475055144 0.066141157161510685802 0.17740723906628080853 -0.0747667300869100937 0.31670794513988120844 -0.17504790045114587693 0.14011382889246357109 0.2974331404634865117 0.080893715044112371459 0.27452319114112488929 -0.05576441753600137885 -0.21333963248038526062 -0.2266785176525840384 0.28451331682998842743 -0.17766179067680432091 -0.133026754953359444 0.01315027294762849755 -0.10235881323454333602 -0.094826893122172531414 -0.16617552269459889835 0.055525183526957920532 0.1491387187397940628 -0.27627200134332502435 0.20368786365902222246 0.13392978029878277457 -0.31560883496890040911 0.06608542993582802727 0.21317825530515574495 0.10613551567389767349 -0.24919824106968160859 -0.041240503986580794027 0.10076354144023888515 0.28641592031693846598 0.10239133282786651302 -0.090351282322505013789 0.071502434996792818556 -0.03483403690691336263 0.1295582300046071722 -0.21782927898771151098 0.089039983891526883197 0.043398444584201036067 -0.12900179049572763068 -0.075985038756705716723 -0.19070998232955010954 -0.074394212700399198201 0.18361047793720977617 0.069785803346418373572;-0.084097022849554711743 0.19427229068613746654 0.043971115629780219147 0.11732378676008417551 -0.025229817507039651453 0.11934314173258586678 -0.11027404134008959857 0.26380997564994718152 0.12836075877810301793 -0.28205749609275215795 0.25395036533291753811 -0.22669762921514877152 0.25230279082029793969 -0.0086151727529191392957 -0.29005849666531202669 -0.10201381906881848427 -0.034602485183088615983 -0.22113794421498125797 0.20174082901005524482 0.03280210729866693542 -0.33840734905918617992 -0.27426980049782756499 -0.003748133798574108163 -0.19098980716507238387 -0.22078769067597256437 0.24779819971616059981 -0.081561756666428064655 -0.066143677411181517334 0.26065727177683079008 -0.32078046230466805699 0.25508568268316161864 0.20009114063071775647 -0.11067094571834196204 -0.058623978645144271538 -0.039949238945366886966 -0.015338949171844163191 0.014409525278125379782 -0.19262409990596335296 -0.0064893065569154948641 0.1847819177163934623 -0.12558739516759392929 0.036412419425112300952 0.2851972717503201693 0.080942460953772499277 0.13686122842725412241 0.175862250327841807 -0.011721661328315835862 0.27972927833138544473 0.045108495127959516435 0.0292108728031211691 -0.020134251860751559149 -0.2944122682536619573 -0.17937426686799126663 -0.020081919918497382477 -0.18706464289750523999 -0.069536688192437356992 0.29066565563513074855 -0.10301634725740281551 0.10166017840240641756 -0.064817270157729547919 -0.1231404047270170804 0.079840489461933589199 0.31107785680734229006 -0.23976354651658113304 0.16015551691313256732 0.32007424185391836202 0.044625672223574316955 0.10795692415526453312 -0.17186389194349610543 -0.13657915080951391062 -0.14037783623949690037;0.012791977366614727674 -0.07064708114358932145 -0.30135151929711428975 -0.3212814059109111442 -0.1445754594616446842 -0.15758598099785986468 -0.15167056819312274563 0.0045391401219157280489 -0.28282100812594823669 0.064098223439997797923 0.082720231986892114873 -0.013732932368287676175 -0.15602020362890409166 0.16143697042635607453 0.29466899803132767799 -0.24638140653407894498 -0.24804646213018979872 0.28707128869385933889 -0.0046054393129927907735 0.12766929378917743487 0.1938625919968556266 0.25051706092965736472 -0.17761244693322944532 0.24974522226654274903 0.3762562430434555627 -0.10571126560304519582 -0.026613294089900905309 0.21815992526778066329 -0.24594727679939726306 0.043020571039666236079 -0.14120385653928363423 0.21233741164624594933 0.1149458212813681407 -0.073798999798944553419 -0.14468289319901134204 -0.030297079806097831911 0.2631428249280663989 -0.25713245626973540992 -0.30300241473126354741 -0.072351109937038915465 -0.1724027159301254053 0.19524679185421370264 0.20183480012214152777 -0.21621193148459699751 0.3415351084564894335 0.11412701855151756447 0.10176775310668997876 0.13247750643597033804 -0.0041030510431695954229 -0.051869840908014025471 -0.042347161750864899254 0.33846696468373671518 0.08335675649621905603 0.14480912385865929437 -0.20580052429386716528 -0.0074621537597452641116 -0.11825263311370967645 0.12617999557949374778 -0.22353247313672588992 -0.23117451505692734881 -0.17483218561038599281 0.016750538568491912111 0.2494627305213417412 -0.26947197869344424737 0.0092906828767096126531 0.030482250126528904338 -0.090668968171709204973 -0.22554292710090323437 -0.030534272506702452021 0.019872994334569349384 0.11560765195639161051;-0.56048107425890369981 -0.20056470762430303467 -0.4345702834005698012 -0.3741728701045263783 -0.48012579168125096851 -0.387473660788863139 0.052128851880392269857 0.17905099555498338315 0.38003501108062676117 -0.043194096994345836105 0.15007655131962172046 0.18383569834075400018 0.5071086559004160943 0.67201940280824801199 0.59949057107372538677 0.41686935088889454093 0.43209078356858471315 0.27178046970244545966 -0.23393372848296331568 -0.14453828104530905274 -0.11582894439610931514 -0.29649785334885064847 -0.49542730687082320307 -0.38411594345423910601 -0.33673939588626056185 -0.27052563143210806018 -0.28463718444137492414 -0.25088743537901220249 -0.12987627113031657844 0.1671508046903606437 0.11767373729880258038 -0.19213351118587498889 0.12036648559027260386 -0.1492541053290741826 -0.12637148604251524642 0.045093724457722972332 -0.12906528962361499269 0.25868504268947695168 -0.1671792505866561418 -0.051509198209409412517 0.023838900397857999691 -0.16733614726690174135 0.2223042510417384543 0.21208273425019022462 0.19622357050155606051 0.0086450577982647366926 0.22447506296126976122 0.2622219598288614284 -0.12505136546293285638 -0.014010811408585222698 -0.046214131236971066341 -0.1362610125238848946 0.022221842073464261047 -0.24776260996367877043 -0.14513736955250744476 0.20358820741809618982 -0.29783609174184622059 0.015438861879735152685 -0.34447176935875722936 0.17598925326209532982 -0.12128378929839891964 -0.22281499356194209294 -0.33271401751004575642 0.15660169965302644934 0.015176898931142731794 -0.28750591547672071924 -0.26618146960276889423 0.19644997033337380232 0.12071688060425664335 0.15184863470828419141 0.25794869001167713973;0.08507478940459355099 -0.16315646602803943188 0.12426609610251987403 0.22805421355343258316 -0.21247534531378661771 -0.21180316216413461183 -0.11512468162222086465 -0.18635993688982052663 -0.22717014714068980985 -0.12409942545878986653 0.24937894195982052148 0.11115602688599576786 -0.20394500718623673197 -0.22946329300591133959 0.061160506216262733314 -0.19104335735854022227 0.24791285331450294005 0.22386309237504259384 -0.24973490560805647331 -0.041102504096985313653 -0.0061055813511627773579 -0.17626137338478750638 -0.23545345444748796981 -0.055465061891938907679 0.24162532603806555209 -0.11332749530957661466 0.2023760578237951413 -0.27017972823199870591 -0.13764846662499161112 0.17642425159593325135 0.24975253002765201993 -0.057204413802551826174 0.13222627543361464841 0.25886463641880536057 -0.070533136944522345502 0.070925844166571980209 -0.055223711450246064369 -0.054835223336983901499 -0.024029343318591050993 -0.13208178964249031595 -0.16609086549053911352 0.061829781187152717259 0.097088576352261590774 -0.13160747368999767271 0.22821350413403024282 0.24853224719593369763 -0.233691496050707187 -0.0085777326446240288738 -0.11408841847366513189 -0.22173713908396486261 -0.1742713908089160435 -0.027724204148262338726 0.10547858397333020886 -0.22459933502475171174 0.11026319984679970598 0.21580452304714711764 0.20535901497720049358 0.24233578386418161421 -0.25508948006120324425 -0.20258120557064418499 0.2434935027709037858 0.2047159817369709478 0.08416399154616030498 0.030440538207338073418 -0.14827884285511575002 0.19697041552381389096 0.0035564471597953400614 -0.26168844691963422111 0.14304212311141806246 -0.1177036597728169931 0.2574711945334320351;-0.24360584735304427473 0.24466541646018941103 0.052373425175030845213 0.29429740281969463123 -0.02647276762042264156 -0.28696149878625371032 0.055849435291768452505 0.14225950419163610472 -0.077132361430117063472 -0.15089326820146095609 0.20465666341734559119 0.26022389893845032649 0.098818215349788240953 -0.15833397721494713029 -0.010990435820047720489 -0.15091110414094113801 0.14043453041614592514 0.13093174513629518563 0.066438099999105895699 -0.050059395998599931499 0.18788623640219875854 0.25320600516898045251 -0.19667544538578637936 -0.36277782975936778698 -0.18623762272377139548 -0.036350441493564651652 0.20011890387199018915 0.048651514826899368293 -0.28129853434621526764 0.048360372822734531972 -0.10297975209949083997 -0.17049080277613412604 -0.31647834234045424395 0.12996602511732383012 -0.22442181755572943036 -0.090141631793801496597 -0.20650463148837983063 0.053451230789668464916 0.061863814372565474609 -0.19396724425797146063 -0.16961215851207067651 0.18439618024092993553 0.14984365905270907726 -0.25451240352924953125 0.26470052841333191473 -0.20787059640443850128 -0.25806259695433836354 -0.064076351188471797338 0.080862912609624998383 0.071392531447019777491 -0.13306025996613154994 -0.24390452781933399939 -0.035730511069116170642 -0.17833333855836552839 0.15727075728407580169 -0.095582478031005085883 -0.219959073229930413 0.2389847783326813635 0.19245800028346726762 -0.076528472170480560388 -0.081121230911694056087 0.24337237291014360285 0.28880980023480989916 0.13517962735757496628 0.36032276072502295028 -0.23988231805426310506 -0.093243758470995530274 0.26195870337364274283 0.30186174080188349356 0.23595948743415243176 0.14543678303368834381;-0.3132367182057341215 -0.14702845480724568983 0.12998938497808976145 -0.10143420695283386634 0.14282266560541934108 0.097213441441814874011 -0.20159446563029137511 0.26918979005103316204 0.12461419200831323761 0.015243430621363825497 -0.17113348903404046464 0.30575035636412267737 0.28765132380180558069 0.027797796743042141321 0.01285774028943537442 0.052602186010087745305 -0.13911385984437193986 0.090924052180524170264 0.22965048516973668447 -0.16975261613414624473 0.21541760603936782603 0.050081195269358995403 0.088338502722430045644 -0.38528497911522308073 -0.36228344025855357957 -0.13864129458423393726 0.21264349910940280597 0.0179770307610918334 0.119364280986399382 0.20929540493448087202 -0.14502208254532147902 -0.074341049153334698429 -0.016355145476043050218 -0.3183034668101046849 -0.16845198557708088161 0.13088163078527384475 0.030553930610604160961 0.25766632536098432738 0.057502454574955383371 -0.045507239769037040322 -0.1403546356621268032 0.12443581831446394459 -0.021723618038418823772 0.1489619767242128523 0.1720489427668334681 -0.24881636022795103336 -0.0007146241127902084548 -0.24564770125025606196 0.29762938285586215681 0.049091326428203810317 -0.058995566249529562963 -0.23308994961863527262 0.023477300752987654425 0.27107209430054679533 0.10707264396764622216 0.14625152956176509789 -0.27978077802873985158 -0.098581233718265603994 0.11286112623930460996 -0.27714592729163756157 -0.12546379679102692695 -0.28825414196379961496 -0.08561065327529716884 -0.15312053391249036416 -0.24540836228229739868 -0.20760089612648718882 0.058212234387728323259 -0.14474503768060739683 0.17103676228293027139 0.12143435791781141686 -0.18210379545930677203;0.15729177414667436241 0.18462225674699589417 -0.006198336727159679295 -0.0038765581957221489917 0.049015559861412018317 0.12832355966442357542 -0.32446563095723779391 -0.28726748945650754097 -0.060198509768424203481 0.10714654113892843612 0.24294687662997674349 0.11106472636015501942 -0.37321012854732515951 -0.1684106332108475379 0.090610566049939222921 0.053814986378506769749 0.058017141643934233564 -0.040517046571349642214 -0.11389728184465500171 -0.16799985455026159031 0.20094493991415146583 0.25218160723192883932 0.054742654532196850792 -0.15880937347943469007 0.13054830127991468025 -0.12613326603830352091 -0.21599564087966691139 -0.0067169453472046714709 -0.032838775626282942777 -0.16908997749187465454 0.12236271719228146437 0.38227942677049525644 -0.016504462223386060643 0.17798522558315016395 0.13714636795099230393 0.34573318728191004823 0.27008058000080487071 -0.082781358906274124521 -0.16083323917246780677 -0.1705199342603271051 0.26180912303720188516 -0.1235175418073077569 0.27018175825238821552 -0.11404178636869558017 -0.17643955153078333398 0.21943130741247121596 -0.015542802656874193587 0.28621779886592030318 0.16696275403678184635 0.25537731278769071341 0.067461597927858510393 0.045700571340237715334 -0.047331866299605465653 0.080820479936227776485 -0.083119964313354333107 -0.098710344286743356701 0.20566388318748571318 -0.040272328125660457332 -0.28015871201891717757 0.24359436760155361856 -0.13554169505708654753 -0.067975794960187532756 0.054683450330674815421 0.018030953540475031655 -0.13330220428401448607 -0.26159514119957538725 -0.38530883540498944706 0.10771412194813075047 -0.17075462401082946995 -0.1642775868406767259 0.20436571476430268057;-0.31819668370851211803 -0.22303887364593549814 0.1889221364264656311 -0.015386058614543018236 0.080476180689550244618 0.14065286133266655111 -0.16799041845226425629 -0.060115305364297537405 0.021492856707993359539 0.098563616238965215399 -0.043728549836712704568 0.031558604629008099596 -0.037607530586389062432 -0.19023060012753267856 -0.081998973870829203192 -0.017685727158231440148 0.32096543446799380428 0.064648387755597086501 0.15999063975207822308 -0.24561851252507491128 -0.17160868584349006638 0.086405472784656128793 0.1780642570986575024 -0.19942016729543740605 -0.021279401242151770729 0.062616249872040646851 -0.32580931722918859972 0.2125806882682063359 -0.2705877809278071644 -0.23208037235398540354 -0.024500934938385468542 -0.22084872070511363251 0.23569388934230717236 0.035898344289430623999 0.22344423554283526778 0.1211492067885878432 -0.12969382410197127786 -0.17680253128493556014 0.033545586899268398096 0.0075895578801167574989 0.10596963302090757486 -0.095124234949277575168 -0.2189225980935392557 -0.19184962171765629346 -0.087677192675542428568 0.19287381507004122683 0.32268284603168101432 -0.052430262707446696757 0.28669591460414689532 0.2181901956668702014 0.22006419983398370355 -0.10024577705698813068 0.27393463152432251384 0.26312381750887897658 -0.19623656604308795104 -0.10835623525768837971 0.040956858699356224474 0.20183322166259937136 0.15050885951397602325 -0.071890868550392589276 0.0066651200716797620247 0.27974198872203059896 -0.027647211206060236244 -0.26558343783767912605 0.2985252374120685448 0.17066941281159220267 0.068197260863336592318 -0.28316610665873587216 0.22349871192356304817 0.0042074652271648447371 -0.25452280924948278429;-0.072985433675885211247 0.30459348713248241003 -0.24036510428662632988 0.22873930928095209669 0.0020122675635684643403 -0.1150922355476044906 -0.13722128664833341261 -0.23594184838336101917 -0.024588531590468077487 -0.056776728743876958561 0.26791198037718538805 -0.020239000845806400658 0.18623911946100371595 0.23137630003735304429 -0.26430933478412893534 0.065788846484741050902 0.22072015440971232136 0.25832635689962668568 -0.19051360675419909407 -0.30528920137061893447 0.012881831433144161 0.011779757965617698723 0.17046385321627208209 -0.3775634880772198998 0.13693849336573113429 -0.21972558006658443608 -0.27340357986054758532 -0.072734868527453130915 -0.2620936662586010879 0.19227002492721198545 -0.26223689295285096401 -0.27242215254173896 0.22981807012415450542 -0.081756812294482714143 -0.20879138345554681955 -0.057122346554221298254 0.056847825309215893608 0.018787300987021540721 0.11928386754475643616 0.096239392501370576993 -0.092754527876237696793 0.04627728078178899862 0.029044063727230826077 0.10078249916850530454 -0.2604202746762699916 0.26738491270993453019 0.29717194276721753399 0.24607971001345213535 -0.13451785781586100832 -0.12127898206318585284 0.1473451906178577242 -0.2123221834022136767 0.29222997437556869071 -0.049182939772896415442 -0.13134850676921391854 -0.10158182048155887933 -0.082726973543279416767 0.27603388148189417217 -0.18513640601540296005 0.31713328432714738003 0.21172212113591160065 -0.0049667056497014628463 -0.013135296827376938961 0.10643687436891188791 0.010667821576207315443 -0.06884171273677443248 -0.027474621982594517322 0.14007197259797515843 0.02182393049000896923 0.20552125364744416869 0.14029456997639044857;0.017373854542744822382 0.0025557138808963552473 -0.19090776198979578226 0.24631904270104684751 0.22117255303825447688 0.20287465364728024531 0.20617139194447822725 -0.18679374673219770187 0.11575289933026718103 -0.15576921737626509001 -0.070225146724153544864 -0.29996241493104658371 0.14617684209358036695 -0.11602398585169684808 0.19279524741409881372 0.13499335754295502254 -0.0050440449386106112409 0.19882222296532428563 -0.26859152207519931821 0.19610275933305382212 0.090200319104600690245 -0.034485192895052071971 -0.14489635631361696966 -0.1432344224679363287 -0.21604797514826692972 0.22372924186393855495 -0.019515746161326952279 0.20358078367446699741 0.19922355318105058886 -0.042936497110152418988 0.014891750265157066915 0.1579260802352488724 0.21747732483082971022 -0.0143037087847867634 0.23692004414694844971 -0.22681380880736573546 0.26945335426108257826 0.032823505774859637607 -0.10244623751855626292 0.10055541879201755628 0.03002704961272092965 -0.28114593239490176524 0.076546646575662097289 -0.190964008803410773 0.050407195071239183082 0.085263499575696566346 0.18064852658040481126 0.19357382697771072233 0.022924511557854628657 -0.25118033679698281713 0.11826496317252438439 -0.086678667965417358077 0.086123752547348761399 0.14757533224798455307 0.049596680187140071427 -0.31385737553099019026 0.01686969387006425139 0.19275371460941587154 -0.20436312939990444737 0.045738094326977701831 -0.12184837473950774211 0.23342974495950546965 -0.23065721226954616352 -0.13304439090202238583 0.1213833985409311228 -0.20710150406159433256 0.14345036127316809771 -0.11268277577716484528 -0.062534044222575926875 -0.077728151664747446858 -0.19242809588499254492;-0.62512668946651483992 -0.36935032642002874059 -0.38357238198983750754 -0.53772271319042797 0.066939080483370341779 -0.11031548437404792296 0.12653855153901766295 0.072338671949483984713 -0.079877248684292023739 -0.13111194963849701067 0.347573277949714321 0.49684290733926145256 0.31835063468494129157 0.40058228001260220985 0.55916148301156076705 0.35995798464534101146 0.36650741311828566316 0.027621577858451724224 0.013341996476274608358 -0.052601485262782000929 -0.033342835728231372261 -0.32759767108923948387 -0.38575627481677665642 -0.47946198401745732109 -0.019372058825670758486 -0.1298507941435393942 -0.37984279353154964953 -0.079461715135259791687 0.21893155157411589573 -0.19757783960731850614 -0.20251512349670608426 -0.2672138339835629095 -0.0078177332218591980006 -0.030567885123387764784 0.057626564856878975673 0.26649736863527034858 0.21174016472855217152 0.11165584321429265768 0.19884451525453858411 -0.07771244552419191709 -0.11388192205731113849 -0.035379261747277304662 -0.12525548072803466271 -0.11620803013293265482 0.31654888940997527591 0.32888486895674207133 -0.1105039564392999718 0.059027081276147294608 -0.060810697557378577682 -0.036925727986133374814 0.04871256963179126237 -0.11762180974364225272 0.3314616230724406476 0.034631739057189567244 -0.25613283540246450931 0.24953666385811759665 0.19484736967205024127 -0.029188984119476540924 0.058344852554155633706 -0.017435605938480452926 -0.32752148181037071817 -0.013267650611531848354 0.18843735719881415935 0.052525510269758143855 -0.31532433871463849684 0.19681426868706189404 -0.087767219033324100907 0.3505685246484436246 -0.13975584962942805278 -0.2190994297038771077 0.18161930256777333859;0.14183811561542633561 0.40578815381881777613 0.236828591891439455 0.31825157968104439421 0.33712187613218680404 -0.22480378477619475386 -0.22214814189809847789 0.2592150235172960282 0.10864873909670806629 -0.19551583754181547925 -0.052928875412448533888 -0.28721644286102199217 0.23839775672874141677 -0.029417000559991291625 0.0848870049996645476 -0.15740186520591620267 0.11024579649487839528 -0.2979309787476100424 -0.14941055062652347507 0.069164899230916329631 0.11691344373309532634 -0.074221767621194631448 -0.045798850759135520394 -0.2915122329411811708 -0.13950960551845270619 -0.078351403340110856166 -0.32577072396304534996 0.23195224229380706493 -0.014888430496014131918 0.11166186279536005621 -0.16675716945408727843 0.26212955965567519279 0.13720204776638714184 -0.043006562552073274164 -0.1873115931145377111 -0.07204316714494657381 0.19323764977929791531 0.061278400198359901652 -0.18541056931336513669 0.29076486678431950894 -0.12705757397429306987 -0.13377000767893373889 0.045845855315042115252 0.23739956496159811405 0.16705730789969913674 0.048574416488450074258 -0.1747794220684683042 -0.055336869469470459371 -0.24951508444078995819 0.17063122127997135125 0.25492779542271959414 -0.051810486685907743143 0.05134843039908605633 0.27993368146239833161 0.038731015443301361478 0.15213480008611879324 0.12868539792667707533 0.093531442471968859187 -0.17338579631499417832 -0.14597622611449634356 -0.080319056169643798793 -0.0015342319811917906267 0.30043403295411341691 0.31755987899470078384 0.19355197188682313203 -0.056572689279393524597 -0.1051884277243225474 0.026292714857206675449 -0.26217806665130771737 0.074975079108760556146 -0.2632197912103781956;0.18552582588319055379 0.15692380626624005679 0.20551817550078574359 -0.0022205195550502017723 -0.079480045948948516155 -0.16742491893093378041 -0.029849382313693446911 -0.1689446297737727809 0.1616160014173767534 0.042054481095617504693 -0.043839775867300277701 -0.36192575622679845626 -0.11280886530107475663 -0.35081924368899330968 0.27093757673470170166 0.040206018536050006085 0.047736410105169629903 -0.023831613346206037551 0.34681540312629660638 -0.033855066527200633475 0.33732288873632493287 0.13477040097645154315 0.014151137129302059775 -0.16494526883781160387 0.34552903155099090604 0.075621909248072147203 -0.21937291983171025578 0.11638060995317515978 -0.31249119799179109203 0.18148475356753612786 -0.043807679540589408718 0.10952233683615708593 0.15567392497144313945 -0.36938361040693101778 0.038807592330124499047 0.069832136541500763882 0.18452779912611258495 -0.27759904504811711012 -0.21021543399992748125 -0.19659100014888358787 -0.16537072349326811804 -0.011586801778971587626 -0.067182393254880998223 -0.051570142751867040221 0.15207120834194554071 0.2835669435213005185 0.067206111109046146046 -0.23424625604583101945 0.22478535121654205642 -0.18119894354813156911 0.01944196625688625335 0.079007237963079443577 -0.18638953194877688757 -0.18163436782691128046 0.34241681160438153242 -0.099771240474122710462 0.01030314894991500585 0.3111334476999874088 -0.19058174283862408527 -0.096681022051756271285 -0.054386547810961922977 -0.21757018087928378658 0.046067959008576291058 0.15196649353303651186 0.19538871364134605124 0.21909822874499337853 -0.00022574729247227544836 0.0498589012861406361 -0.17632761320444353959 0.031158611423444493999 0.2424774820933540409;0.44030662772325168675 0.2575751809687534255 0.010402045590254205276 0.073254672476372517664 0.48135601702753672004 0.20238050974939431059 -0.14311565064578812834 -0.2342549881611356577 -0.10546870168680820556 -0.3096204076030479313 -0.38835678655272981574 -0.34435548527373222027 -0.36680931750511541756 -0.12174556239886806519 -0.20348844552355446758 -0.34831430505206317783 -0.48341255224884760455 -0.086311330110863018761 -0.16726580005548599694 -0.31198835291423687721 0.1097945774640992217 0.2676165373699209149 0.34031822545558398918 0.36176088963948344057 0.30452017198256636776 0.11301632403150377315 0.10139065338436571706 0.12199851935972641503 -0.082145677717717205391 0.12047736047882615096 0.11655192526188412616 0.20537942395841560228 -0.1835914891725314857 -0.16256823066592948623 0.0085196630516190304666 0.11033561480626521978 -0.29053631563271486993 -0.14601754341993522512 -0.0099274232711393812362 0.10622726218943122356 0.069512549474436705066 0.17879778104074622869 0.18291578783994391633 -0.25201716540655427767 -0.2105620862520669323 0.29057498714381413407 0.051934142818398601471 0.25813398180338609222 -0.0297119442325971643 -0.023701999944104046314 -0.12631789555879224807 0.054491795323133765394 0.11253003945821350718 -0.13739087629883761643 0.30206701278161146584 0.043684119950278356426 0.079473129445481585642 -0.15823624182090942347 -0.17028644651743507499 0.054058194486426014436 0.25289222118920151594 0.044583889026247450205 0.075644040113860749885 -0.087412086824092946613 -0.1620146728918351875 0.23833345871914568548 0.0020331329694506239392 -0.20041581870653227271 0.20465538027984969682 -0.25111050540815804677 -0.30498785690208202181;0.29688082929969400459 -0.22615165059755054644 -0.17881160478755617205 -0.12887490261540923697 -0.031018833288101899104 0.11551862452618273658 -0.0041489022522383242966 0.30082322332835637058 0.2575330991218459098 0.32728263255274175902 0.16930286457733190186 0.37805927320493681876 0.091724221626994242862 -0.01491458043631639814 -0.1403894311964461461 0.204628842228129465 -0.094259691617862670365 -0.24804445092992916111 0.066553751790622672768 0.060961563047985674324 -0.30317012921125630065 -0.20203131359611931073 -0.18384115095150777019 -0.14813029502244429159 0.094044379121377266739 0.17875324542173842701 -0.25772730182902703344 -0.2749035412234552278 -0.20602097613295655698 0.23968062867081957323 0.16493066991017918399 0.19600420718765526606 -0.19154182697277888359 -0.18973539712402368029 -0.052156371857733273278 0.22461449890420295827 0.15318319204045713344 -0.028735432500658932703 0.27653395904809058292 -0.013718567159354976351 0.06883238812077377422 -0.021221033834272384072 0.15183166014104967911 -0.13474196680627129052 -0.040040748808137884007 0.054102535556470363054 0.16560276872062101861 0.16528468488500477895 -0.19827147690341090369 -0.249580631645915485 0.11410428362360677812 -0.014994097477570127175 -0.15497619359124634175 0.14243955299352034638 0.072359815504284316634 0.19852428991961479365 -0.16171813903377563193 -0.046314424454534458553 -0.2530974679373325098 -0.13334310721673342526 -0.1850211685490637803 0.25395600941373031034 0.32321730657428432432 0.0064338459676914873733 -0.031897567065654580665 0.14238088724436104293 -0.18999781346422170425 -0.037917310053895467159 -0.20776204399654546462 0.2673247325467347224 -0.23117441900257473808;-0.26956475764692761077 -0.33630942272474118049 -0.077372505177287567713 0.11375841207678448475 0.04829037908035727078 -0.05275953891788996708 0.0020796655944003445554 -0.017235731160512458154 0.20401076348661748017 -0.024823069591692167174 -0.18409627979045714574 0.16516082840356968719 -0.17502993106939201962 -0.10334710353202389288 0.030119893198115008787 -0.050879838074325875463 0.0028113887347660151267 0.28441168138282896249 0.078895032716573706977 -0.06634057124718720222 -0.18716824057977732298 0.033811197242771026672 0.23536200015799904617 0.06380436710281757462 -0.18735053897633263675 0.25281930686151249388 0.099983229277780735766 0.020675350680120038738 0.2926489938129792634 0.016148482782218590709 -0.012251490412527703266 0.054550890894068740367 -0.0034153173369540225889 -0.32695615811190553712 -0.010055709272051224779 0.037442806477307008506 0.13223357343521649487 -0.30443675997665070598 0.193249292645363141 0.21392621909691952875 -0.29189486606887404818 0.012130802005045354316 0.32691164701393166103 -0.08392490173807631848 0.057010402701062307118 0.24171445250753417766 -0.11186090327332476324 -0.023003871046863442335 0.30832097393994772894 -0.26985032673710490636 0.057788203487089982724 -0.057531292994377376815 0.25483340660747899609 -0.08043839375871940367 0.18788946854392332697 -0.072518234105725484784 -0.1712285174152791134 -0.15838417848289809697 -0.20765669598778122018 0.28567453126181113765 0.20449989879841989904 0.26391634730478313875 -0.072271908912317231466 -0.3257929859482507351 -0.16978071817888759631 0.01892875540556486838 -0.25664664706248130344 -0.0014893154540528248057 0.21081904226892905774 0.2784931110241812835 -0.1415620922243675528;-0.28422833631975474855 -0.003304037526977791385 0.015215621604080572377 -0.049819965049623174402 -0.037034761124656458142 0.15000152314502898654 0.19576911335456481655 0.27487997719082674086 -0.15887012511767734102 -0.16382248590628040175 0.12215855428092242674 0.093183940654205890675 -0.034160418024469167697 0.14119391121734592431 0.27344508014144519592 -0.13872201647446216755 0.059401963447970745902 0.29964006323234754214 0.062558741255073269105 0.053099499880506911831 -0.33823585814862217047 0.10518270487685919823 -0.05944504407157071707 -0.17057047320999391138 -0.37083356760448255018 -0.23966668220966108604 0.023649041223883386642 -0.039634651747889944329 -0.099466000713783683795 -0.10630553104407676479 0.31871368639932390332 0.38208397663180337922 0.0045773651229283392888 0.13935573853115548748 -0.20655809477972231214 -0.027519224708186879047 0.27639835677959806448 -0.0725608006698389707 0.11633118201320816198 -0.028873507007870120866 -0.22461187741233948345 -0.20634319436763237654 0.29952844295234737348 0.25576064340210996617 0.0099325642222497390749 0.2836782346112930453 -0.01681267273737414164 0.33066722076145499409 -0.033900838191624302342 0.1503029710208727554 0.047880355011035116708 -0.045877977820570008116 0.29808652322293033299 -0.30687339020075410367 0.13041934022656384573 -0.20219978945144920224 -0.22772803399641228239 0.1342566416983858868 -0.35329199387723325687 -0.24069182176883929802 0.11652782333429133332 -0.23274039763962631189 -0.27200440344104304113 -0.085651418066419460207 -0.36205330133279561844 0.14270329722220947977 -0.24129329417669753699 -0.049575937422581983771 -0.26125152127732387264 -0.045352721296787835981 0.0838975892580345467;-0.06481308264223988036 0.015624844857623347918 0.077442566896898532014 0.11386929913688255411 0.2690345655597565222 -0.1566354184367484137 0.13073009308965763409 -0.084850153943441350424 -0.20966581586695406947 0.019484551598227570907 -0.063435814109277538497 0.12495965910692935497 -0.22799697533640939096 -0.014251639061486505097 0.0088564348289039470513 -0.21022997440683874326 0.15080472513773937604 -0.059794045547049437528 -0.0048441165933559094184 0.18092101334278767877 0.24425267128061933786 -0.094935800910451242918 0.14335547992461611377 0.28640354141730134385 -0.16559278442327629577 -0.26699543725820196194 -0.27907159150519728064 0.046016214327682561369 0.20204595975642875016 -0.028354522409544665601 0.22471228602839465882 -0.0067494586789279874608 0.16763085998952625966 0.019866259752276939354 -0.33093850125527640715 0.11794258571921677203 0.075554015905652235907 0.26765888678818505753 -0.33732188190769707425 0.090791369718759534768 -0.18382747371495355981 0.21282367799538839948 0.015055246527653349392 0.032793173875134536133 0.1813963080348820478 0.24112805094878292378 -0.11427720000187455152 0.12669421613289502671 0.044836431055054679073 0.18496615336804506091 -0.061135780096049134602 -0.12241666409790534498 -0.22428436118584793579 -0.047758138831394257584 0.14364583464914074118 0.16272825358109654914 -0.11655986303226485712 -0.22645845861573687952 -0.25416502463837203907 0.29907225695864714243 0.057878946311749390752 -0.19242279077325274983 0.2502521716601322499 0.32444303244905936534 -0.13622901258378861122 -0.21265770079381809965 -0.20624975800445330409 0.011461609602052315326 0.25149759024750101277 0.16386712297977862329 -0.12640115743257790415;-0.053411444398755204832 -0.17977435352960141612 0.066475041868806455936 0.21407876007373952132 -0.2180507880024860623 0.22818961535029338994 -0.22166551564528291784 0.065558921506916972843 -0.10401471068188637703 0.16203548826241367942 -0.054917154548621283094 0.090878302406774288946 0.14557001336049599227 0.18569389271546535292 0.24098814029128007297 -0.11793077607505515758 -0.25081952606320701005 -0.16624706627356544697 -0.12441905422400324766 -0.24061748449013245499 0.0048870980199185974635 0.048922079524578283849 -0.084999417103591434763 0.16146183053148172037 0.026865872717061277386 -0.12081517798419939835 -0.17120455243855933758 0.017273034029805810208 0.25038060635882425364 0.21677450087439481541 -0.025892788191388037278 -0.001942675314380818731 -0.20113497231312252311 0.15131496178520587037 0.17679105470525743882 -0.019750080701284387918 -0.11033289145877385462 0.26103157138898952505 0.28147614585867958281 -0.10387798181800586561 -0.040051123786472533905 -0.19098320246856903548 -0.27442420540709649979 -0.15959209401441873388 0.19809384549983388712 -0.02511635028004688755 -0.2305614350857241035 0.10841009720899212609 -0.15844762116284821785 0.26906191673853985247 -0.039709907251482490231 -0.18590482871012659061 -0.10761358960996057765 -0.1001129308914451288 0.12960735301746392767 0.18780981222104806139 0.29661575330403611162 -0.12536602375841296442 -0.11002877380562427201 0.20943556565031790084 -0.29243590448063527809 -0.30613576644015316752 0.13416003793810890588 0.15638820630153735247 0.0045722137461262201547 -0.23832962978450134006 -0.23659634364838558196 -0.18879085600005474088 0.094044173646216477902 0.045005366711795967427 0.34239804378535099172;-0.23076665114229250042 0.072442840310027387107 -0.15838188638479233639 0.10036983964549402171 0.14453967131643991051 0.24788045923588628017 0.29162219278119577703 -0.30271126139345194694 0.11723884141716507667 -0.11917155769462617343 0.16389649481197074432 0.023622586881892362193 0.021078259066090059004 -0.0036408636423565683693 0.13164281236477995418 -0.33548125567358105803 -0.12001491750110857004 0.13548833498389858954 -0.21553106262841503771 0.077554521904169962387 0.21811225966075520333 0.18209277003869545064 -0.25691092759880607144 0.30985996354110023621 -0.18194153972022997223 0.14155283980467880944 -0.016567233481262801098 -0.10072315716690466436 0.26827521406270621318 -0.086675869456427592774 -0.040125264931618172259 -0.0576031280069405488 -0.083347396134045140248 -0.046221160476090698832 -0.15283155262462386204 0.11421577746106849338 -0.19754427499710019989 0.28106290125625749132 0.27439797513092700765 0.31776136922652281624 -0.075704237733083809547 -0.031253327307756706421 -0.021171483855202816171 -0.064949842869820084701 -0.096187625506467672176 0.17365377267922671445 -0.27079909948816144327 0.001586557522078008587 0.087102895186439113773 0.25302848496158647507 -0.24801005443223272939 -0.2533384080198174404 0.17921440896859122671 -0.085262520725966600699 -0.14779101411619144368 0.11711742133088484663 0.089062006103578506 0.036627004140391411502 0.022598423753850419016 -0.084404804664669472181 0.016268094775912164685 -0.10808589586986100395 -0.1985713209923334055 -0.052822560939877909181 0.022769240564615180616 -0.27948472293998466442 -0.18809454439006420556 -0.16566391202168620489 -0.17790923777189840416 -0.12117663089309155255 -0.27466076186076709975;-0.31800229091891329958 0.23782467500972376273 0.12055716812354178025 -0.22693634048244365475 0.1099779421762652476 -0.040690298433881465223 0.24767275180093928366 0.054999967767640683958 0.14201500336933001178 0.20366726573405952161 0.29517431194602533617 -0.056923042270765569772 0.29112293206875777818 -0.30671996730864498071 0.051137106190779657577 -0.22629808315036692434 -0.20837164593883547581 0.13251274425946266144 0.1391695008543756551 0.051327922225756335284 -0.027912939409492316251 -0.18907754304194743233 -0.18000929319305938869 0.07924585891145370653 0.24512252806055018217 -0.087703893757173898016 -0.25023868067092430723 0.020461143858611547525 0.2664243594894707412 0.13416549765651783477 0.27535277932605073392 -0.1888099091526162232 0.032346470112027292387 0.15478623719062981068 0.11153223242389340153 -0.0074910685786073304832 -0.23895326183298973288 -0.22859664000103069315 -0.081593521270288363323 0.13493842677906262018 0.076052590218136692513 0.061388732464758663521 -0.2448009815005575962 0.20742906776874373009 -0.060015164811750849883 0.25370738606295267781 0.0019080110333398402588 0.22169267393285835288 -0.11370569703193501854 0.062659413281825518394 -0.15122170334233614453 -0.31578510846086654817 -0.03352853485866632427 -0.21264687419011066294 0.042857669533814847507 0.064107316573752057276 0.19124778531030178774 0.05460614996662860321 -0.11018702446635776637 -0.35619089199971887272 0.093506952095499806799 -0.023143771820837374248 -0.35491400301496828229 0.021917170300913387665 0.17956518373967972346 -0.14559616040047990149 0.092870325340319859198 0.085609681222971772963 0.19903022742244316778 -0.28638122200734028588 0.046176761525015083687;-0.09279933373308860145 -0.046861438900585486445 0.074036306073682972562 -0.23584482373451121084 0.07342258804098011904 0.035603098626254749137 -0.010595121524374416164 -0.19440566942198483913 0.0074825842791537795426 0.0037524120700980455323 0.11961331603125827105 0.1066355096448338563 -0.0088812651127275158564 0.021979274789155886505 -0.28132367473594732665 0.11525339015165110557 -0.25237365990109605907 -0.088204190523689038339 -0.31614847261236606046 0.024991116249011187389 0.031388278067992096687 0.14830995408972399985 0.086058607446474560954 0.20128966502609932365 0.34157032370976492253 0.3213971218644255945 0.20278612514563734703 0.27015015335033271127 -0.28772864597151454058 0.23998673709661727527 -0.0032994438792355454751 -0.0074730309217362509908 -0.28013392628886241154 0.11871857455559804706 0.15089572366099882061 -0.08250928035976692887 -0.17704603609296493127 -0.0063101789656548820662 0.20771345842321595199 -0.060771440371551008197 0.28539674570589818048 0.18613750826803904248 0.35030361977176321941 0.29503547760464143845 0.15731630308408689478 0.24688904775970046956 -0.065651627769559295356 -0.22733236439531809281 0.044276264621527554322 -0.17856397281512800812 -0.25871291668708179534 0.22956998040447693099 0.064849979996246226444 -0.13393966889278455246 0.11070479739428559784 0.1834074917666405069 -0.079789968408008449252 -0.090403941243349203449 0.26461318892630497634 -0.17025016066746875842 0.041208935957668037242 0.1153249209440613543 -0.32705871249690160463 -0.079285608296744927714 -0.19945684367516189339 -0.3676602963619422515 -0.13750192467322577827 -0.10526584203919733818 0.0094810773476722617209 -0.31478518061253696336 -0.085711924121741764337;-0.10121096262738328575 0.16997289462127032622 -0.2259930393414112948 -0.18819714976823070929 -0.085713339671330532332 -0.11388815364325069468 0.2338423025387323384 -0.081193742777866617644 -0.27790690832216807804 0.089338256574364047213 0.23551529398392812009 0.27933104310760803468 0.10398468329623783424 -0.093972304474032236632 -0.040392262379634530367 0.14172210088135231421 0.15824321314744477229 -0.19952761200833360467 0.19809320415776734969 -0.030683271164619406457 -0.058288822793435050851 -0.32102716558098381983 -0.32461516514949700918 -0.1024082232247470331 -0.13824802603390298761 -0.26959630189327388194 -0.031834392781143937279 -0.29811849614269053665 0.26759260465321377254 -0.01137351437350674066 0.22844444345447012523 0.12630378503748312946 -0.17262777648454366575 -0.003991340602999441517 0.19346557541792672175 -0.19382138542370380696 0.21260025491388800933 -0.27090062525538549654 0.13202624328673470688 -0.038494877065981626674 0.20011906184818128995 -0.17667364371009869339 0.026005910196616823654 -0.022069263967731338194 0.05243329570973648962 0.24363310389515696608 0.27941644296974527117 -0.055120969750014355004 -0.086520178937651889828 -0.30712842538413770432 0.22229468392139495325 -0.051357116101516671336 -0.35808639799357266931 0.0075486406380211850536 0.15543324971112817967 -0.021554473007760022868 -0.21607359593450042867 -0.14677839130101069665 0.0015311618376418975346 -0.021009556675366591189 0.29047749534549810457 0.15699032652861258375 -0.12651748161920359226 0.058039770546787855521 0.00053983021575105703468 0.36447026181665875821 0.062283331162671484726 -0.16216441945485782217 -0.23508167516169467537 0.094087403629032770325 -0.097921526628595795261;-0.16024153904649604541 -0.20041199207725329812 0.17277602431341013145 -0.16927705407551826844 -0.058662452688296617964 -0.19896812184299475512 -0.037798657319210969552 0.31033448534694946241 -0.16645486061069356132 -0.021793303553388175542 -0.10906473702594536579 -0.22322879049508073668 0.029121857769685389333 0.24607257268542592765 0.25452873265339770459 0.26269209933067172447 -0.066229291452377769822 0.21574211138727653059 -0.013943313307327820025 0.30161365978833071244 0.25909425085348092299 0.037095999006224344985 0.049339236389359449053 -0.14523142891976112412 -0.010935572016335213738 0.28814419227821552738 -0.27770496753206252993 -0.21424699643094852197 -0.24804266183246553856 -0.027039811590070770425 -0.17284370475981875037 0.27695390734650698894 0.068501197005546521357 0.21379555787343590412 0.10282194628847887707 -0.15258121618990885815 0.21108160984184687337 0.079542204754706039016 -0.17291036955596733593 -0.093498904569083704508 0.067255292319671644563 0.0038147492270082703457 0.22014905243418342318 -0.1378493715984891177 -0.2095416241992092421 -0.029390969002396287457 0.13706274391149908531 -0.10209422288088733366 -0.089473080931600876275 0.16459304558828324883 0.068859057121769776111 0.13513058240846534397 0.051016176898612895785 0.058106482899106332018 -0.28311666959864062454 -0.10803336272159140552 0.12308235762367610022 -0.071189576707819599011 -0.23013922882854565 -0.26549403765998952354 0.081765113391143090515 0.20301028815726690491 0.19405835328123263728 -0.24628701600244648495 0.2154845063897725399 -0.092423356136463866162 0.21480014275040021365 0.17158269258287192627 -0.23260697257289497664 -0.24328111446236297399 -0.30036114725301416017;-0.16611512226861152586 -0.18137878890231504125 0.23260170308524538707 0.04818559463367425022 -0.24081867516892954684 -0.029483255826337484429 -0.13016697813175245879 0.14509224100880710462 0.17138167510619978229 -0.041576459791367960384 -0.21985840692420419162 -0.14824847531434431902 -0.054771894092214876149 0.19362350750970089286 0.011268401253290571615 -0.0584803617136605558 -0.083429445274124880427 0.29806637500929400453 0.24597529386581304389 -0.1547708950025762642 0.26029433508624783 0.060230206722283206877 -0.13593674764993976534 -0.23094459955704496612 -0.31057468362477003154 0.084058727151783710352 0.081792924231383346001 0.13717085809178572453 -0.16737891697767065535 0.23258314119806453024 -0.28144638528966120505 -0.15397034527856190422 -0.29734689003647474248 0.10572648182718553944 0.20105317991230547969 0.15944181190869752274 -0.098744264026895775532 0.13015747545920339223 -0.26111488898240919898 -0.087038535835308572519 0.11527602718256327319 0.28482362378264614033 0.083605781506083234889 0.03177273045957400982 -0.29110780096610938683 0.21617977508949121068 0.071255431794400414525 -0.15441801647214140059 -0.11059854518588486949 0.17569506694288750115 0.26683198318389567127 0.19740936910167319884 0.080869288739733813376 -0.1774514352084086144 -0.15582833500609863386 -0.2945931444237717689 0.22806737732525411699 -0.078724296381335004402 0.15118796769772568922 0.25627097684955840728 0.23827564147224888913 0.1208315282091477344 0.090792717527345037642 -0.16770815704158295589 -0.1454985324122201884 0.11122294165923574116 0.043088751709432687731 -0.021989200586192466508 0.020446906204976290217 -0.2074210128533724995 0.043293275286891128029;-0.42492796760418638513 -0.34542880604907422182 -0.3298337008152436578 -0.017009153905899486448 -0.31412868864596332763 0.12398361238835675646 0.015614603557825464109 -0.096417911709385309416 0.23258413407758585234 0.0246993780024080678 -0.027848675092211203769 0.14912988228238455157 0.30636105518725276209 0.21245224429795456222 -0.10704737337281584886 0.35388722256915222664 -0.10634574592676175608 -0.13439188740580981785 0.29864386974072881786 0.0308725077241824436 0.054606474775497466922 -0.32833002635035463124 0.037295237651674487123 -0.26544838754433852657 -0.18265023284286754923 0.032206086042603478126 0.18845467620638728379 -0.2932901261172766727 -0.0093086946940092122477 0.091699261093275363788 -0.193634221559877584 -0.13750683372478153532 0.092977560851944460185 0.036794777020987393112 -0.083616128089866195716 0.24489459165440027877 0.3150057031423483811 0.27257160863179358268 0.23879174987918236339 -0.050260671870392736871 0.15754744626200631319 0.1151439111967878931 -0.031771263039089107927 -0.20164525824097032092 -0.23393592757571385343 0.26742037074238361738 0.10660986907700931159 -0.22639513706582142794 0.12666769786937095987 0.039522082324784012231 -0.080632228026968136292 -0.1763116347777806403 0.098605302965140154137 0.20379501068891814342 0.23841810530045379202 0.0066881326829257223276 -0.11909361205535964889 -0.26692343218061559407 0.11448003873292407484 -0.19955816566681408575 -0.29444324284159678617 -0.19827200774026321195 -0.21388288313820824627 0.0076821443940341101533 -0.20120504116545184781 0.13474546771616011109 0.15837023385893284066 0.31733212146512262963 -0.060206267631192238177 0.25911027392228452859 -0.12368763887476026675;0.16354056930059462927 -0.092519345458366569757 -0.021777366678221575513 -0.011804280710783258967 -0.056377526544833016231 0.22993381505199125825 -0.16586379125949407554 0.10963498401573379404 0.15515244616432599667 -0.055848034134569020381 -0.042798632899996871815 -0.042976513587839028363 -0.31493614077277065633 -0.13061935918755085417 0.14849619929161722576 -0.22444648209689238572 -0.18661377502091375247 0.26319383757717873529 -0.021091067183151561426 0.12262471123612964097 -0.062131026676102173167 0.30555971463650338782 0.32819906730011788598 0.356616471074810093 0.080275454882037827753 -0.17233347107268601195 -0.18670170278571268652 -0.20395120305234384905 0.28616222631006943411 0.15534955619456716769 0.021697825297012016121 -0.11593022425455286328 0.20535749944246528553 0.11918458350971855575 0.25146668278123024409 -0.036761525506784666073 -0.30730377432107686131 -0.23987954652043647075 -0.14341785646671853516 -0.28117976913423925467 0.014129163477323880213 -0.2668612724198572983 -0.24921784259176207876 0.20834068494011576123 -0.15246361063368826794 -0.056548126358356237686 0.30263818011342141778 0.27156001982717553611 -0.11703531235903523455 0.18511509796856898125 -0.0027201617778038079259 -0.11565340912075505742 -0.17385170014286024931 -0.18653718661626214614 0.24968120708929669727 -0.13255598275680197107 -0.13482692613967839357 -0.17130794993798192927 -0.22185032116691083548 -0.18116992811373092143 0.19918741604374312626 0.28318865235470053188 -0.037889420427321372775 -0.20665535663204070982 0.11318058821321837215 0.15215322376594289655 -0.051392866030189082727 -0.12725908271032312924 -0.12438473242313789757 0.086667977070007409801 0.11780091408783391338;0.11052106854535467817 -0.032738320838870300922 -0.14023803549131697022 -0.15228165052471984153 -0.031695580946492933616 0.32006411992829908453 -0.011031137683079374201 0.0016180109743602745596 0.30714527170334637862 -0.12398621047313006238 0.09750283431145462254 -0.098018208058569020191 -0.19972655747776910107 -0.22248840077407922022 -0.013399362974553127165 0.30309563523903193527 0.22437349161179415136 -0.24251704761931680565 -0.20972897814654306581 -0.22460853527412569242 -0.066832390642990333052 0.25150926793723632491 -0.21249195123510958294 -0.20861785103820432163 -0.084439731665133424543 -0.24464181956137170948 0.21221415631836942906 -0.083615614994725542819 0.06222330650937721308 -0.047299371775463810996 -0.0081872967863548338358 -0.22882200946582870182 0.0077344133940559743612 0.10451553220652175236 0.039992310083063933868 0.074193376356012016859 0.22407565421480060697 -0.10176809713897787268 -0.099407449652037821464 -0.039263876919736873106 0.14898454832080604282 -0.28661097525296674871 0.25531343136548301231 -0.17984765104358546584 -0.049787512586173428286 -0.21151751913505106861 -0.06419009406104067561 -0.26938006520676965883 0.25305693578396870613 -0.18768876763590333634 0.022097749613955205983 -0.26515782235071783113 0.1634038354498309753 -0.17446335204002419439 0.084653239556578566138 -0.16535741602363107638 0.30602258002113380542 0.089001812554913420361 0.0030581532365734826785 0.025420470270654225292 -0.24861787468749158014 -0.058068046777990441065 0.12719403470283444091 -0.016666279342320945017 0.28994986085586249569 0.28413810157909774601 -0.098977188584867314969 0.31720223919672280166 0.23381901137275204472 0.15754751201994018905 0.018245773327051583584;-0.26957847192087724952 -0.19199431302366651297 0.13422666934768906488 -0.098816267286546716209 0.010770720308467204157 -0.13281378506477622969 -0.23925409589498075613 0.046151912058474797718 0.29604620319849545007 -0.010498356877814500263 -0.10382979837597840211 -0.052871805726028731076 0.15768403717801834918 0.34693144000974734942 -0.26377183883679272691 -0.092517913767018664095 -0.12074847702448295028 -0.077816671372094900483 0.16608721058724323916 0.051786711849113098438 -0.24117879200665851003 0.14662731350567509425 -0.17179029234712872576 0.21834495660279915064 0.072259510300682117112 -0.0011473006079096167119 -0.23154501063184754206 0.24410051473954502699 -0.20477986657655183889 -0.17004725852427599042 -0.12493111464089624862 0.065249718914216242593 -0.16218479909273919581 0.32446468483711382591 0.092737261061437037402 0.13895221522851453066 0.0031659130059996758166 0.18808586723757697579 -0.091176713013744192793 0.054944416414388533298 -0.1063572238586842772 -0.045827668391454023933 0.0431442471429979435 -0.28688375294096052359 -0.020101584978002143278 0.19010540451132521 0.25000692926034673302 0.28212015008170338026 0.25821877713493762707 0.16605951756811979103 0.024543285774233553759 -0.10404227508323778129 -0.26985799939412397075 -0.034093139165376151745 0.096175609106777679158 -0.28331123122434537231 0.31263697567221815365 0.098224780133889522116 -0.15763042843938804283 0.0061272629071917762006 0.016952964865209099732 0.082467772480752529751 -0.11520076446632192269 0.087448701113789120698 0.015413941614735790497 -0.10976639699424380059 0.34792501545817217101 0.1146381389771261583 0.12530356617728977131 -0.27238202464534727598 0.25680879483540214325;-0.19066020050085050186 -0.1201169368117493419 -0.14897744898242210043 0.2136375833459032425 0.31937439074840640041 -0.043252869386463263512 0.20141714638913960078 0.34036089546286507623 -0.070432524933558712799 -0.15349846603744168871 0.2866930996151992872 0.13738990878922435757 0.087019445048210034011 0.24091829835184777608 -0.16656559330197592828 -0.064040504220753607934 0.14390267050519667258 -0.28608108100578205635 0.041841828416770754373 0.12568036443687474746 0.022532125528699903372 0.048610518839910139832 -0.20917350937296014246 -0.14402516280785992997 0.095787300811076434015 -0.35501199250475223845 -0.35123394104649957592 0.020959933428890992202 -0.27344952171185793466 -0.087213714915913939651 0.13220787928302060732 -0.088189141813584434604 0.13532404437593353874 -0.2339805870210125982 0.26966140724766607395 -0.21928966618786480125 0.27909900180628610666 -0.010091776491207255645 0.16977665092702873273 -0.10707243484121087285 0.079872868277371930623 -0.018166341189915221482 -0.19625240510397504168 -0.27863043745360605019 0.27708393590002033946 0.029967467773142304754 0.2158993914150583171 0.085010542853124385076 -0.16080424351290611984 0.23358336883450009358 -0.047640345686186968965 0.057153864506641741117 -0.057619625162133404628 0.079868648830700925134 0.11517258739728744588 -0.06040187055090028706 -0.25973356186808266299 0.15254724986027559663 -0.078404521477660943374 -0.28256175136953359806 0.076781269060859039244 0.12335213353052475183 0.047446787278534241494 0.17460010893604216431 -0.00043079692053132531953 -0.17634098786345236975 0.17791860632097833417 0.15254156811438726593 0.081703293756233530409 -0.21138319884931727755 0.15388414791310214835;-0.046475043757796090371 0.069538312087146017526 0.27787418028071070308 -0.082420277833588490024 -0.32171232201229005288 -0.25801564412451705177 0.081885368786434001298 0.058341935761219057555 0.01032359937337981072 0.063755956540135980126 0.32981089280992614832 -0.12198489397858193473 0.12537110577161406089 -0.098374420406768373071 0.16086120132453393672 0.2447734149922191349 0.28656204329193279978 -0.16344348934205085722 -0.014168978206033785994 -0.10309523559871093534 0.10903480290986135304 -0.14015804860619382466 -0.34619798250824407315 0.090208458152325601831 -0.049045754415741209253 0.08523616948658478687 -0.02452679073176727495 -0.32413752403636475474 -0.23897145829064847522 0.13086674168140399743 -0.028550463471341179511 0.23697374906750065526 0.27626479457172531395 0.24143138603611064008 -0.1417304338891732518 0.071054564552599869254 0.24870211804426509139 0.049729787082703008627 -0.17064418049650365017 -0.033237029335470263947 -0.13157347742913355626 -0.012512858080871894217 -0.082518991202123248563 -0.13263884090074889999 0.089559583177858614889 0.22512816513801986451 0.13722940420776072457 -0.37525604106696480722 -0.24313611945248861379 -0.13244553820635576735 -0.036006046869817648348 0.19089796929744101694 0.14831109615661114409 -0.30341566694319310749 -0.20675875159499293443 -0.34989536067068943703 0.22520780459742642532 -0.017673136893473835596 -0.0140638849831193017 -0.036043265637219407127 0.2095856282518731295 0.28455481557396028469 -0.10359090529469278108 0.060007451548517408424 -0.20921250639560814988 -0.15932365340879578453 0.25460896816750450133 -0.16948671778987328684 0.2011261969820733464 0.2375543790228501484 0.21568140587051004564;0.034340771885695994814 0.25560807018001185931 -0.23025585318998506579 0.22505169369133826152 0.20241270519244228265 -0.026566825174987089564 0.18378388833021508386 -0.19379365843715412598 0.17202684479124466521 -0.30867852067589990339 -0.27702503162636643586 0.1557142103125261634 -0.22548750666307534885 -0.33583988034513517773 -0.15735663587021128662 -0.14053187835801672634 -0.062979929512432808458 0.15156997457157711517 0.1019087121135810875 0.053988600575467331211 0.31246618189073199767 -0.084401081472792585658 -0.088135121137097358068 0.13775368426756287588 0.016211379653804789541 -0.080034418047997074597 0.35782222481762443467 -0.049472338448460710658 -0.076740473081074012107 -0.16272964437290957096 0.154764276950154267 -0.021782225694321474124 0.11487318780532199125 0.049998992462290461902 0.30022257723153955578 -0.17686280010810728758 -0.20410130938131620937 0.23693953696207439852 0.10159801020099483437 -0.255064275385558481 -0.14846564865507652642 -0.21757739934913070123 0.23040980624473525462 0.031967990889242368924 0.30494464257572823085 0.008678761155533483776 -0.26530370332456404414 -0.28038174124801290565 -0.13112408120203603024 -0.12055497500346711026 -0.18664493639650159285 0.078186773369492201802 0.35540174134749213941 0.32016798870586493653 0.14631533308197483545 0.022118382242341822624 -0.018148753206671610488 -0.098597762405077435388 0.21781308962061360357 0.033528064184483181986 -0.16114114169030932522 -0.12788882486722277787 -0.22321102289886926573 0.072004102860579954903 -0.23242121413678515363 0.0031192525607661330568 -0.32127290848165263037 0.006843347992651921223 0.23380130863717230039 0.060697238901218628082 0.12388091523503616531;-0.16525949000868483951 -0.16202572273836829408 -0.26246428740982563621 -0.11808897403760416911 0.23762986195805849143 0.028996420614705253893 0.23851357712687576429 0.18703656219479844469 -0.0053342562241866578465 0.19206701291699523892 -0.16179987036423687519 -0.12028036343555729981 0.086243436938678558201 -0.18540620282455638757 -0.094240378569172056356 -0.017677313733592363992 0.059124114635406302409 0.11668957278669199462 -0.1017655789988487075 -0.22911459664607583542 0.20135182949944133157 -0.055578109495290711761 -0.21500206369728738776 -0.063802065405168653656 0.2695904475062186334 -0.14673069134670901903 0.15268953303968274549 -0.19993929923117959024 -0.056028227440352573741 -0.03526730716572974017 0.21925466877525748299 0.19395122022939420559 -0.049957981367841124143 -0.26447105569458889684 -0.24097924076205123889 -0.30004132729432930748 -0.12688405105338995682 0.2479999493502702268 0.058510806395704752225 -0.030611330613726901728 -0.2911493643956961086 -0.073728298322680532739 0.040756127818240575622 0.21717143598848170916 -0.23099988943720922707 -0.10963126760158704853 -0.038603923452613153611 0.26001635187434546381 -0.094688987301919769202 0.04805282987862844607 0.21756348903423280983 -0.20089749833261219547 0.35475688170296898472 0.024145414387292916947 -0.20894013548501658151 -0.20304299540119052914 -0.098635040086639674817 -0.1351277035557209294 0.18182849174697437999 0.35069023613803051997 0.11396770142674091109 0.025689530280288204456 -0.12703471196844068336 0.19350599763841666578 0.20216128768433655472 0.067702791903594489176 0.27340749687430793147 0.27273490427806285075 -0.19145055531203600263 -0.22175664765399924483 -0.0091916524897749252859;0.11379448645047640643 0.14810338794617947111 0.11219969297788108531 0.019674266972752960797 0.17657142765276817586 -0.0042944028283056602871 0.17256987476304613827 0.11732260152201501313 0.059403390917720053088 0.21340895996545966584 -0.2360088830070909971 0.19868782617585686867 -0.10406040595249145542 0.22388353130646052036 -0.093236369642320210405 0.087678319421342715279 0.21289232699376864355 -0.24017949321928677708 0.02210100741738126387 -0.093494482550438018365 -0.30325106076473962169 -0.068503702318601381038 0.082244374848910256626 0.0022936540091880465962 -0.40980170116716485573 0.18050054574661070217 -0.14426737236905862183 -0.20019654928655208903 -0.10384623528167676032 -0.25455412763931151154 0.19481458166657414366 -0.16814023709859787781 -0.02125300806600677675 0.31866035292423772196 0.29440342863383250904 -0.25149437224568782501 -0.24675129325313877038 -0.26994619145583592656 0.22682763890373686122 -0.10381758932167428622 -0.070995078104374942374 0.26376825873312492732 0.059455197118267959222 0.21825522072784020455 0.11646179853636844104 0.14615496151398343905 -0.089845581554226547349 0.018401673543054962445 -0.1274411331056378438 0.13546661470522378123 0.12607864465363685658 0.082746387882180791329 -0.084247267625567071048 -0.25377317447918606996 0.046256802642920084867 -0.020466872270022043456 -0.21582782411415926682 -0.27459419079285474208 -0.29939264412503530099 -0.042190647891189730911 0.24106753548950077271 -0.20648683037882112346 0.13399979102164499833 -0.19242604020059372871 0.069502495644675768571 0.098817922340714986484 0.11252570162503110207 0.032890895802119561597 0.097923628413773666779 0.13327372987097160784 0.1369692944277284552;0.0909956471949306539 0.19699588342116952644 0.28175209163170417126 0.3111038451530725446 -0.1513806728562570314 -0.11795114129038268558 0.12821184183278563906 -0.19144575575773301046 0.059020863032383442948 -0.10671586516080970586 -0.075689031523126198975 -0.36730648406959848229 0.053973788228051280957 -0.23806454655517095276 -0.066147931665853573757 0.13601276432016012885 -0.11606245522776909018 -0.12203854002430862546 -0.10852879567621143142 0.2429500593732046021 0.20895931112499019355 0.30329058173899436923 0.35378820730038595954 -0.022420151252853560281 0.13939894820645912232 -0.18351590943520282306 0.13542249322246233123 -0.29843102741860921823 -0.042706806302298366829 -0.23437161383213067634 -0.29355325981797081303 0.17424454367985287018 -0.19572954875331591285 0.1999741468617668716 0.25026797976099107723 0.26254505165614666629 -0.045145277690495359824 -0.099891867222678634719 -0.10311856744608775827 -0.32654370337979604644 -0.26131520564122784345 0.10882905478617789508 -0.07395184876878481417 -0.32552893255529141703 0.25317686436094632985 0.23177865429943461661 0.056797140393392252233 0.19693799429161837344 -0.060489315601689193358 0.21331075772669016999 -0.091291045546691054757 -0.11499848503455796511 0.18611369045131201383 0.13129501025848894225 0.045345472681000441317 -0.18011090534247201078 -0.12487149839821519437 -0.14728785787878337366 -0.28572089369384440216 0.11666749873070503263 0.091109777617478307499 -0.017964652141978239286 -0.14531065371565016209 0.078971359483080830199 0.18483059330661666397 0.070061854605488360637 0.28727130588382987497 0.048473803656434603926 0.037548721384479843977 0.076142569765348569466 -0.16852735133016108482;-0.38008720052391770095 -0.064204674462522634548 -0.034672477761267327112 -0.24671509080518624901 0.21728180915691236441 -0.29242478583407294224 -0.34480710763204064362 -0.22863753881293361059 0.14376972013564132125 0.30608821133701435979 0.26284743881497368845 0.022520631810482093921 0.37525943539792111503 0.051601633173679807565 -0.061601886145940254469 -0.0088387839265718221027 0.14575646155354474165 -0.23388571427817961279 0.23087108850036558438 -0.19878067119153358666 0.054605672833316319659 -0.29076859758409534518 -0.12790351382855433271 -0.016434207517771418777 0.24022657176775291665 0.18120234876289093018 -0.0063946057076054241622 0.22771055519057178951 0.093804217970976461194 0.32466516189307881302 0.33157292181131187148 0.26610954561961069897 0.0076592849470773737008 -0.22226626024850049124 -0.16216052077814477328 0.0469786547499543225 0.0028208788440383303006 0.058748703127408055669 -0.1985291061651979494 0.27310436542242538804 -0.0082548911927615899881 0.0020160826966106513113 -0.13861083940780472012 -0.026292804752868503132 -0.092620741548891036277 0.12274756189724402022 -0.16298362459331444674 -0.11268141403674916678 0.2551552318694069732 0.31616319460969660726 -0.07841326568988353507 0.067156431408683173179 -0.14524149798972277314 -0.12670000660322142116 0.23530329177567960164 0.034836812795620696048 0.0051910253579392677883 -0.11457494801758814906 -0.2054467199923403764 -0.35433574082779700776 0.11705011199960599355 -0.096420955155544801896 -0.2138319503666569199 0.089503378750416515142 0.12304405869979781474 -0.11151405241888960596 -0.053126382073947951701 0.10211118647967892814 -0.075018621461363052538 0.18007424779949429694 -0.16988606826288266127;0.36812044466588739189 0.39853981671161142764 0.23254780268336130988 0.047061549009967146295 0.0053043358468141035139 -0.041488333694197125634 -0.24473369542146802824 -0.14944475876136867343 -0.32421298558873012929 0.20723754697935045654 -0.2521292851144444902 -0.38299526754187629418 -0.35742859543527250032 0.17551725068976092858 -0.033460676326495054911 -0.23651784952165685882 -0.061460837195772159702 -0.1780682987560820163 0.078378121782626389291 -0.032979964561446910298 0.078447317558812387772 0.41651607061483719718 0.19136963327074707486 0.52683323460836084529 0.26657884329145686841 -0.10326696596327915312 0.12253305424149604774 0.27342674575802217163 0.052385352646064399507 0.11514053241663212146 0.26028997721656732534 -0.031467148018959431588 -0.007850965358092780802 -0.15833865111405767689 -0.28783699293015685416 -0.22959554040757013116 -0.13361694619933134343 0.1258169179781690461 0.18999113926699717769 -0.19575998300536767704 -0.22902846808530591405 0.23428263291206485874 -0.16941292306737154583 -0.015651867456803639916 0.27361544260624925951 -0.11281660043653356229 -0.086540278324439418034 0.1817587918102758493 0.071710944840318674443 -0.2126561640049343116 -0.12094415795139812353 -0.018457552363755166946 0.24017560833616732885 0.21334491294126242678 -0.15532792313616000657 0.23351181749697633161 -0.21842551918449737425 0.07897404002107266674 0.087951303420694210145 -0.1788294743584858959 0.017883619288650554752 -0.20200387525422602852 0.0078605816465025912104 -0.036761722864080047246 0.12812041870020546286 -0.20861892291293077095 -0.13076396834471107344 0.06833328703499338963 -0.19175558745523590964 -0.31693025368057509139 -0.067940815182799915717;-0.20798809625349443109 -0.11335430042165345332 -0.11035347241407654495 -0.33464964951632369949 0.14784520387120261842 0.143414003405117646 -0.032818026654264503827 -0.054103994213122043322 0.015461183851478077153 0.33079872544071703411 0.27093539895086221625 -0.014086108178763111914 0.072637399578214439932 -0.10017038368631837886 -0.2403247337278132667 -0.096953043937090629956 0.27207474736097925216 0.15838765934101109445 0.1275132335503462444 -0.27520555765563414763 -0.17283680916304869357 -0.38481953012916531032 -0.10861142833619606696 0.06379824789325241885 0.13874038804374028144 -0.21760291927868419259 0.17517120069366770574 0.060632463211273031345 -0.34659564811072179902 -0.064272888801039720907 0.065637629070164391076 0.043216276295708372368 0.21490596007109111221 -0.050411298541826132791 -0.15372348552553266599 0.078762096679353965634 0.25206273747501684035 0.28798191877262391269 0.12574161728844154839 0.096490228944870526373 0.18609248100509576118 -0.27001762578739890719 -0.15712654903809886164 -0.048842046254990452436 0.21970438341628295564 -0.025628783577772373814 0.20769194282396022389 -0.16683555025337892808 -0.20524551785138520077 0.094023330823608364248 -0.23520564146627404023 -0.2525273487037766329 0.08207036174582002519 0.24745205076121207233 0.22638339233246759785 -0.29311005980826421169 0.018342279722450647444 -0.003239499836772917734 0.21046930996914581247 0.19263110675335015642 -0.10152074863285932838 0.041384913387285844621 -0.20925136215608797219 -0.070731054463484557826 -0.29131748187499445502 0.14092438378225238815 -0.26103286075968279434 -0.014492924584615408945 0.15888195717079195424 0.15140111264916450429 -0.035590486718577334091;-0.0022933153318692102614 0.049999992542376810178 0.2260886416076595129 -0.080989446267084624909 0.32787758128956073778 -0.11029969383443381792 0.31980223237671095982 0.047758341169158585737 -0.15362869063499254296 -0.2027668040085565393 -0.0689191176886995438 0.21975256263675885249 -0.3149650445027011858 -0.12339005491497342937 -0.28871553460526228063 0.06784641989459859468 -0.25577635044480501181 -0.22799590018011176018 0.090736315557855828917 0.012950566158569702668 -0.11577559775524555452 0.076785510328492651011 0.10848870244218587755 -0.20738153870424122505 -0.18061829579134019985 0.28093321844166230239 0.058756324445002075518 0.21140935244028075113 -0.27529435585230094263 0.14101301331446919329 -0.27372302363741374265 -0.22276191503191941634 0.1527655427671552324 0.10888268325484985743 0.09508515206952369847 0.10698133511121664385 0.048341905999214375422 0.16444601507289449693 0.11352592650167390997 -0.13160581623183012501 0.21452382525891255938 -0.12747925308382881959 0.071945242726431921088 -0.22157622851217043114 -0.14597639690457139827 -0.036171430920374406104 -0.1429389738234754792 0.29090048494294201697 0.18922647632787023553 -0.25165290939707718465 -0.10412893052236622815 -0.096607494658723813696 -0.27818767368856017752 0.10672918296865653576 0.2829662467519967195 -0.1485944826013906872 -0.25258575844489949969 0.2075497449960019003 -0.02395642409520293975 -0.18073744684656473103 0.31204460833500252681 0.32696786688199092064 0.00073388462003570113616 0.078181520480387581284 0.27602005777128918451 0.36856845858368603164 0.015908907986120039701 0.073066341498162060142 -0.11965492483905505738 -0.057157622948005269714 -0.16492207543872511311;-0.28762063759736411495 0.19351969093223575502 -0.21273466856378214773 -0.2763316841021549175 -0.088680889364503065475 0.010641606592978783766 0.23624571572808225617 -0.10037466334886077646 -0.050689429872930971688 -0.25902872384883429691 0.1242314800521892304 0.31197416708865294277 0.21560552862252205242 0.13809653775335567483 -0.08315622571822460507 0.29629944756626142022 -0.11625733545213982889 -0.0076282911734306298179 -0.33983329774697884629 0.062017171148884144005 -0.097165447096860646514 -0.12761361806113297179 0.058511063885635122839 -0.17375206869603274096 -0.11802379706803770021 -0.26055941723739778348 0.062986780127952668451 0.060929992217355059825 -0.16345118299210517621 -0.060421949420912834938 0.21918791926531050462 -0.22879532565417090573 0.0002442660614282219202 0.19589887993683613443 0.10024929539506019505 -0.18234470128700608349 0.076618517975514374707 -0.19059229860172544058 0.11067451808950450054 0.25687432425422523918 -0.2784668782608827331 0.26977664157266550982 0.03099751758899923007 0.071262243562150037746 0.1510259378777029371 -0.25227859871757252197 -0.26877704003753716266 0.30692937288794158723 0.33832557970069887521 -0.22059893673779087941 0.24098342829492905293 0.21001700236692771862 0.095809606200455171843 0.035213991264414705451 -0.066312454736787540543 -0.1233696362880719738 0.0076468529868268849542 0.095206300082075062674 0.0024039994599017303935 -0.25914473286797273799 0.17515875227280791604 -0.0038187764434436458072 0.13143090030627505027 -0.13166924443828972868 -0.18277669000574681135 -0.16734527534059498444 -0.018643678461841912269 0.22446546244433132622 -0.12336397611397370566 0.18653920356679140613 -0.099298824441249655681;0.22035308808673897962 0.14502936280915404432 -0.075657562971695235809 -0.32850808657555019554 -0.012379688323635040445 -0.30790173241352863931 0.15068462651130629104 0.064710825785044959191 -0.10884279674432920104 -0.29277158016456261702 0.089346185538734176901 -0.37619558459828283947 0.064566903195047778419 -0.099439149727502743059 0.018013647603836609873 -0.062568733050968161624 0.16379215013372533383 0.22360601940098057128 -0.048825395153211173516 0.10699727372234414668 0.073907564422423507877 -0.19379288406837766323 0.30812913113034584578 0.28663391503672958072 0.32685201395147328585 -0.15388393444091383322 0.18644075827480943719 -0.17115417823263631703 0.32290132662797083052 0.10567421344790960125 -0.045681638602015954553 0.070358247965293357895 -0.22278747543632837491 -0.047400087529470183445 0.063373075683272522829 0.099054710887022959231 0.089364683340340797524 0.25508432365032573941 0.13497892253038640265 0.00036315862643577470799 0.18223488906131482534 -0.22648077857900858478 -0.045353967922428718718 0.05443761699446194452 -0.17192707664308176652 0.072486851388889994574 0.30447956269472781221 0.049535847655008201362 -0.18365065413297018693 -0.18688909940416023603 -0.12443485496560580117 0.265882864733338109 0.29419984818454636422 -0.20476641100484987978 0.079102164759124460325 -0.085761250901912874922 -0.10708319508896055328 -0.24957833460858130925 -0.27975030591822169779 -0.0079820593090338225195 0.12516552301344133213 -0.25205423169228680091 0.068671692445511009484 0.10940511607966260654 -0.050924924252971286165 0.085615206849590244631 0.093023818019546372637 -0.10868420437983418447 0.10257767327329320173 -0.35930025300571866165 0.023696925893930995827;0.12237704167085469709 -0.19225470507898506645 -0.32986525673663896763 0.040846895896762672185 0.20429007853883476842 0.22187032281373839093 0.30113757362006265961 0.18444264250488823231 0.1582577249550765619 -0.094081560735530422868 0.11222419731781191343 0.017827129408109213676 -0.2584305236528850469 0.10216214178198533558 0.02905320514569805293 0.24576003469816906644 -0.018269203376473946987 0.078060888767714456393 0.233247193638241479 -0.081222112642152302642 -0.15627893940379286586 0.14747274377088634423 0.12016307054906123775 -0.27555808994230274189 -0.23041503575664096237 0.020668372237476612119 -0.25364384115102189821 -0.091480562036805518344 0.029385615456111430221 0.18077508862669053324 -0.042300508949553158877 0.040225370564951921926 -0.20245360964605130238 0.16859635815779622225 -0.098609533254987141726 -0.044184775195428717398 0.22808221917354085106 0.27376035169923607082 0.040904082704588604069 0.237845182880882966 -0.17590398446851804315 -0.082622267009705152585 0.23498091628256859154 -0.14283948114877931257 -0.25606647625793005352 0.22347026724618368476 0.055567309086183826194 0.24931539489766071926 0.20237244004719212587 -0.0057629940849746397538 -0.27779719253752976904 0.11151669747673201294 0.21488832677014194084 -0.15267533730051105478 -0.011738633423629615815 -0.095190931038300855005 0.22235712538560198359 0.025394640005692508539 0.05443313857813014689 -0.18362623627261004389 -0.38632109922419616277 -0.2137378672397846624 -0.092701659813588868642 -0.085772094262455134128 -0.048193600785147470977 0.15108825129204181414 0.22013098145096179903 -0.29368722517915796244 -0.3440948602212002827 0.11515716381320893758 0.20963203138672767412;-0.030029756478881258763 -0.16737166442239673203 -0.29677045924776734864 -0.045698391514686916015 -0.25775152489177699522 0.23489379160613568787 0.015053771066573002832 -0.024700137144853539367 0.082802562718719163737 -0.021320844817253693793 0.4733018520204538282 0.052339089248890240114 0.19803194194605550082 0.03728182149522905886 0.26775263990685466142 0.19396864189029230929 -0.047251911675576609151 0.089977067676813196617 -0.003516285319882578829 -0.091347033235471872259 -0.11930653088730458489 -0.2143361232805200689 -0.33686413971670597922 0.12193904138348939103 0.15243835334702687812 0.018879489295796615667 0.041511015113181767844 -0.36801868608114762793 0.1876604972617853806 0.0040558252350588299209 -0.063787203914435985919 0.18495327468514610736 -0.024199857193772610769 