function [Y,Xf,Af] = myNeuralNetworkFunction(X,~,~)
%MYNEURALNETWORKFUNCTION neural network simulation function.
%
% Auto-generated by MATLAB, 20-May-2022 22:51:08.
% 
% [Y] = myNeuralNetworkFunction(X,~,~) takes these arguments:
% 
%   X = 1xTS cell, 1 inputs over TS timesteps
%   Each X{1,ts} = 35xQ matrix, input #1 at timestep ts.
% 
% and returns:
%   Y = 1xTS cell of 1 outputs over TS timesteps.
%   Each Y{1,ts} = 30xQ matrix, output #1 at timestep ts.
% 
% where Q is number of samples (or series) and TS is the number of timesteps.

%#ok<*RPMT0>

% ===== NEURAL NETWORK CONSTANTS =====

% Input 1
x1_step1.xoffset = [-35.9451277530023;-30.5074284420074;-42.158306475257;-36.5090873690468;-47.5707375612077;-40.9376609330729;-51.0994744892922;-50.1028294846853;-34.8141576125828;-41.8513878058456;-37.3780583714125;-48.2607141332167;-42.4395875286952;-44.3933432648733;-36.0266968215708;-37.3784244760107;-38.0681752670802;-36.6023461315659;-37.1022692657429;-33.449183406487;-33.5199169085867;-32.7711770977271;-33.9391474744221;-46.7836508442828;-40.7504751190191;-47.6580322608717;-49.7092972224537;-53.6544102938913;-35.3920205701774;-41.530906181627;0.0500016373377761;0.0500102795451151;0.0500122863665164;0.0500033500066182;0.0500160154503539];
x1_step1.gain = [0.0423450498539573;0.046597299308007;0.0358502084953089;0.041342468048244;0.0350476968985242;0.0397831900359177;0.0331259057332394;0.0336657354919113;0.0456198158435639;0.0391065748492248;0.0435508603243454;0.0351893218192653;0.0389775116501083;0.0372442572150109;0.0434675054718864;0.0413156583049044;0.0416212833399317;0.0435256002355751;0.0429432376942246;0.046305894903815;0.0459372208507365;0.0462308950004618;0.0461076742480786;0.0358919319174895;0.0408649462213982;0.0358863627585409;0.0346034682812513;0.032303143683434;0.0461758971394478;0.03997941820985;10.0004990063739;10.0009878504055;10.0039795637853;10.0003751123472;10.0009141544687];
x1_step1.ymin = -1;

% Layer 1
b1 = [-1.3438407189763932337;-1.8096173466676690467;1.6005365677923402146;1.7059601017959014069;1.7223423473333088207;-1.7050825598739876021;-1.6611904888668227454;-1.6392511438818773151;1.1515162593835268634;-1.5879291900109231417;1.6298396285099550074;-1.1553754824669624224;-1.1579186223311557224;0.96726162281427163769;1.4454908455119150901;-1.4259111541256790368;-1.4993534987971302019;-0.8876645350202247986;1.4187635093823565136;-1.300966580720765764;1.3316791706491322156;-1.3885581247567753138;0.92524781232523534147;-0.74655378896980750802;0.84463422400562182535;-1.2604740384132675501;-1.1001099595913179652;-1.3505034703606413338;0.61989821642142806102;-0.82579412846579269836;1.0964801540546527114;1.6600794665772828917;0.87026241255960945509;1.0647899564053011634;0.69158969201493802892;0.65471905354526915843;-1.0007730980104847518;0.70479050065205950393;-0.46240234377119671105;-0.92884711585969803593;-0.66751758655484572103;0.52831794843337742673;-0.24246319044645683882;-0.50686826889386293882;0.6856928385755531874;-0.86708696395226070308;-0.91406112806312711516;-0.45156552149642426031;-0.4168930314867860254;-0.78959857021740131877;-0.21599896205649940506;0.71803693754597930354;0.37336302211092298187;-0.40959593375172975716;-0.43942681955011897443;0.68041512678201576669;0.30554355938845512153;0.35751729870998882888;0.36276731771737280585;0.1318616845769949586;0.51174276114885042244;0.46389310371184577786;0.46231630226854214527;-0.20055767950539518663;0.14857211891084720623;0.21404339441847372583;-0.3915231180175485215;0.15826387269474329056;0.073512605843217684876;0.31396709688261370541;-0.29884719294791767252;0.29129459689485293072;0.15336846419371477634;-0.22903561836448849132;-0.12518193780746939003;0.19364817130441597248;-0.11426765273454761451;0.25902791300822169962;-0.045065662135731945903;-0.44352344795828307911;-0.062071479104164349605;-0.18520874953798655005;0.31735909984024396335;-0.53130699070125819716;0.074423902387586393647;0.48005937620717142877;-0.10815984031581281355;-0.55419025986504033554;0.26835450639394436978;0.068711254339905020183;0.22896485565141622143;-0.29910214625721531778;-0.50097742162683356337;0.54364650770801392632;0.7886152038957841004;-0.35032644328685730306;-0.49085532933121067689;0.44896972790420891508;0.44358635554505798648;0.73253693189788582352;0.44764230479783517769;-0.84033606654032022565;0.81038274045020675107;-0.41084017012340390274;-0.59985950542896815385;0.39946960191769281812;-0.29825463960765991045;-0.98207301874468921898;0.65942794957323169758;0.62380426575393521649;-0.55403375392218634499;0.53098232680191703725;0.62708348788649781458;-0.4897945576400611345;1.1215561831325717712;-1.0396478447275618873;-0.64959033968193946595;-1.1245582184171505347;-0.84235758797312187962;0.72846129100902967668;2.7653851554841004656;-1.3615487268411032851;-1.1115165106955844365;1.1515069305386000931;0.96794408194117853572;-1.2560144675443014606;-1.3094943268658021385;1.3294405234331820864;1.2475816090823292903;-1.4070908952275713588;0.95646962470230667552;1.3957752233809161968;-1.4241072684060434028;-1.4422091744623781739;0.43270105581566903341;1.4139667832187550189;1.0336787354842460473;1.1556205333434415028;-1.1350444127596051036;-1.5980525776993628195;1.6888117156701596411;-1.6016973688573394874;-2.3158022905399207048;-1.683129443505275713;1.5559561801652315172;-1.7373979589100241316;-1.7258697659146660097;-1.383572655942514773;-1.8085849438962082747;1.6744320246871187141];
IW1_1 = [0.21813640095308184375 0.039393517179725098809 -0.15469645875590906647 0.20214304426917778512 0.091606299961903753237 0.20602625366632978943 -0.074359587251317554868 0.1779419369701005782 -0.012291419994537306284 0.12958782427729978459 -0.0045363861306323130171 0.22679293617500317914 -0.0068830401254512292575 -0.013276164150981553669 0.15141185146843336162 0.10758081692019554054 0.00067771468794918161317 0.19766651809994220668 0.25927854809817785231 -0.093773109953103422898 -0.101648766894433501 0.24957649540918963593 0.22093553914801089544 -0.081544855920941974881 0.17390213880011379244 0.19287923394011477485 0.065577895862375210068 -0.068949947715280943128 0.042020674244641932626 -0.074615528126744393167 -0.18550728908745900414 -0.082751601149903555865 -0.11091773596360166021 -0.16291129365103132476 -0.2363224181661892076;0.036447837929444851235 0.2121883393777978799 -0.16547793894274293036 0.27781889381852320486 -0.20700900274252298505 -0.012385130755545427708 -0.43476575175595877365 0.22664880982714827318 0.27176781899036922541 -0.10213166384513597262 -0.31148894006920829769 0.36610196243711778941 -0.10215834128758000121 -0.30913564625253614482 0.042920092818564084536 0.24374586807025713786 -0.012803822380148165844 -0.11545384691529704535 -0.3626132961442480318 -0.041185292143759419381 -0.44086501106507997028 -0.31690208810407977102 -0.3685926480082415968 -0.14289195044105248988 -0.18798472809241353887 -0.35476877564052916592 0.1928544259554010043 -0.33187392257846110022 0.37741500925743493022 -0.42462557938520045786 0.028089999123467757763 -0.18682179435578036286 0.1599045852207420515 -0.046344620605895170407 0.26277317125301929979;-0.11075449163898988536 0.30486898351456676037 0.25653254581015244584 -0.16156241080878799843 0.029054932005750277318 0.10406117264501045516 -0.025326687231614384427 0.03421682152282638778 -0.1425243767439819953 -0.16707325148031820783 -0.20030612934402430847 -0.27071328140486511371 -0.10903211813397262198 -0.10804620133925695036 0.13008259808551694836 0.24668437984855604017 0.40739697224324722402 0.23222981580065632512 0.28482839472922300006 -0.24085675999045147444 0.27829119343287506139 -0.36742303814690346897 0.25378975530579023223 0.30825451331041547887 -0.26264949748743426916 -0.033614953578455848693 0.50428640473967001334 0.47083101775071295458 0.1296331721887468702 -0.23782735085832493183 0.16149744194532797414 0.32238989586396593623 0.20589342528975165814 0.21723325154722306074 0.15952039105482077042;-0.08616531392125870159 -0.137539846312777575 -0.17156394576969599686 -0.031712307889985802412 0.036530897768703746165 0.0053241432282082716554 0.030498774274456616484 0.17079173429816246754 0.09638298219447778703 -0.0005499639319125437624 0.10825324829974568297 0.11769117286158417568 0.095293159998762519414 0.034103034741180003608 0.043526717764719100034 -0.011318493946080686666 0.031385071069174631797 0.049769657538896130977 0.015822078752696772802 0.0036769114646247403125 -0.036097331725409416425 -0.03977886199626948921 0.037537832120867281605 0.065190931284342862329 0.075066074242545549611 0.13635472487073688197 0.11385078234306343636 0.044574730285360249227 -0.0010766027300084639057 0.07805223329080737682 -0.44781052465031667698 -0.022648523703673484331 -0.039960913741186536441 -0.062709626008789348672 1.2419616497240189013;-0.074059581798053344959 0.42991925033745936879 0.45327681026202110148 0.4373387940691872422 0.058218865661033833425 0.36666141621199016543 -0.29126018571472339636 -0.11509072375210040173 0.30803951175565297271 -0.16018633671894397241 0.37032349348983667481 0.37290657887329853315 0.30954928865354752743 -0.24626548700136033365 0.048391593081279590804 -0.10206567590220956554 -0.14868027709414941007 0.063202768428759936725 -0.15938100252015144354 0.24584192815056168935 0.11640101579545471255 -0.26836467885688403134 0.10489600349355486519 -0.090160420871750537875 0.52521108260655524624 0.010023750555808771945 0.01199548093967743416 0.20805612991462404948 0.28481418871455277397 -0.13933829326839361484 -0.17640799934409798211 -0.070844554601433268326 -0.060166900475946319404 -0.19901721647436290685 -0.17408991140191687474;0.013662313064752166017 -0.44541031012969295455 -0.26565606299820193614 0.096982944032092746611 -0.50574370222553277632 -0.13005016182889919674 -0.62157272754165127093 -0.090703181194001281096 0.39270077316450563432 -0.3796603796342881143 -0.1123081888485208818 -0.19505029994673389604 -0.54031162116979025711 -0.011296612450167322836 -0.23216826227965650653 0.18383175075036617407 0.29439951805547437402 0.072616424268037826906 0.068478850322891568481 0.011278681702847981674 -0.03738465941477235599 0.27778624428692821891 -0.14145959693325618756 -0.33336099709683281178 -0.25903192976571148831 -0.28986778859035128297 0.012325786893636227551 0.1204359962584085203 -0.32028763588631220527 -0.0050355710363676579877 0.19475518750061870943 0.19206741189243167756 0.49505719109751827878 -0.22065489576977470598 -0.061806629855726005762;0.36265052252864504734 -0.1584966298948627117 -0.43320273372871992423 -0.11334434558768023693 0.01423526956238025179 -0.15766001707166260593 0.099158569317788450292 -0.49496236742503618711 0.22762220806833022291 -0.54853688012410162234 0.28652227728328649725 -0.22866345351585284917 -0.30541183069114152815 -0.30915935905088104407 0.31713780102317107312 -0.274238168638124169 0.14301707207475264361 -0.059485569208209639058 -0.12713396263055654067 0.095801185891815104911 -0.26011339470935418428 -0.070243702265795501805 -0.48359021668998763976 0.063914896586816358215 -0.063003667668646512467 -0.20665607990583367837 0.16206464332538458861 -0.029518397432340082176 0.2535692988841261597 -0.33997692497831749625 -0.044882091841321684889 0.24236447064441707377 -0.14043541833955736076 -0.068818252360614479146 0.39280924433099462245;0.050682954974555292915 -0.35689301872814399585 -0.18239371297677037242 0.32800825855399995401 0.16112816219809583673 0.051340734810456103987 -0.43125934233571777687 -0.24921990566404708667 -0.082490207277707630618 0.28517212317264900578 -0.23016948837033981978 -0.25143379516106217908 0.24973681652557389032 0.41045207651125320547 -0.041811105767119570442 -0.41143894385741819342 -0.33416274862662292966 0.012207067910981982822 0.10021324421827064455 0.068862245214757214495 0.14759758417337295877 -0.4389715114039131616 0.28618245672914283118 -0.24269163635937623935 -0.13654463156542342994 -0.45371774034663636677 -0.24934830709492525336 -0.22999395901503619233 -0.16897806863404671307 -0.41392533796360625464 0.26388710755628075333 0.050383012780125545349 -0.015536158171615705587 -0.038951217470120653996 -0.27482485066006495655;-0.16822679085977917945 -0.16299194217687018593 -0.15920567263676052572 -0.23243236650769918961 0.18024099735957482826 0.093570000211694773218 -0.20040223590319117264 -0.040778090123188802385 -0.13383774863092637308 -0.0057997555201125478366 0.14973321493862817855 -0.043727027988036334949 -0.00087753445909524957318 -0.13668861197964793375 -0.2138551766231084339 0.27144719428327457322 0.027117776558069819209 -0.031448750598528675548 -0.031498887633706521005 -0.0080639238612576786408 -0.11127613499090964477 -0.030757044620885222452 -0.13005856248273409137 0.021658134050267147108 -0.0489127557967780624 -0.070107679111898024704 -0.26119320018583097598 -0.26909173548399689668 0.095701305626837887552 -0.23942937966667124372 0.16298647665683924091 0.092979209182044830762 0.040209306682408837985 0.089968574342385240761 0.1934732889459077898;0.15268061316321046572 -0.28394768326384500767 -0.052227242317334519883 0.1236218655776305797 0.22568234894929301015 -0.22708701507502801475 -0.27513950876836318349 -0.12909597327822788793 0.04027255625480196527 0.34336611785065118685 -0.25669581054523321617 -0.033922931952156072655 -0.22531979746156979849 -0.33518861984139913801 -0.11490559683606270391 -0.48180967486365922081 -0.0094580978526944917834 0.30170011060085577537 -0.54657471494158726966 -0.35142576245754569841 0.37080413238841641865 -0.33026138113803715779 -0.21238002235839126275 -0.4392879730678029282 0.0034879826326495401087 0.35393996546752748422 -0.23375943315859890048 0.052133297543658183026 0.10524946914567541445 -0.41028428483975598606 -0.10655741118736522521 0.25507497796030048631 0.15649688905180977883 0.25895458095131707044 0.29968417647144540705;0.11980211584991359852 -0.081000633965075521936 0.30423579017672308655 0.40238800880966363316 0.28296866744007376226 0.191333449318660892 -0.25276011045283752754 0.12422694600022714251 -0.012661312515981433882 -0.28359655085848650691 0.13050488216939301611 -0.21562367613156085966 0.45482460617182207674 -0.25338072237532932585 0.40001741901370557741 0.45231837966217736113 -0.31093390547417792957 0.25672483361391806866 -0.18472042484422218633 0.15571331888173065017 0.38257625085959684474 -0.18653685836946745646 0.13512019784936474265 0.31187792856928647778 -0.022566192395594392855 0.44031662323104675538 0.33160598531045709647 0.26355747967828913048 -0.17519439022414914908 0.090762041399100074068 0.076854114721425795254 0.34107034873761649107 0.12567272943133731 0.2177254344926201346 0.081289821869554648726;0.034856093049577888121 -0.021296801093836088825 -0.1394598397092028097 0.34429828639755610808 0.32173659854379349499 0.0058248481018725994235 0.08316152048460100088 0.1694080984474752305 0.14525054723913546906 -0.044099051849752261834 -0.12342823347820060242 0.049851139260123002173 0.22246758817012246556 -0.017543334657586076575 0.1747913416644109319 0.12720832140371021723 -0.10102771743446822827 -0.047436249875951998212 0.15733348541552547029 0.32702847180106586755 0.05386813056690253898 0.097783086820259323968 -0.048408635304572587843 0.060940776133607391096 0.043117590523608501085 0.02159326629292994057 0.07410073610857441373 -0.19940982661385781016 0.1972560546265710868 -0.068274351660178575485 -0.15268746101346361566 -0.085880294380324254111 -0.12716757903552744491 -0.14511777275811568733 -0.17761567957855389777;-0.046925821353706938244 -0.041311685729810039558 0.030616535102548712854 -0.085010629627636447037 0.20121260820725367369 -0.064995423657166179199 0.1313966569788138361 0.13900211063176209914 0.24287114747997448627 0.12454292293874504038 0.11724138678960410731 0.041368086305527879132 -0.1109899724907888463 0.23573778089171401606 0.24316602225705349904 -0.0027913500985714450112 -0.11607549882107641437 0.10423145145571141579 0.19798375970163920035 -0.079402753128008637939 -0.095562295237320113439 0.020638846957733981285 -0.12705670395958057473 -0.11261560475329962516 0.25540779946384872812 0.20774271978117100912 0.22915290572705737659 0.29998177089650307492 -0.047436682153800785455 -0.134150638853310189 -0.12662055963284810089 -0.06064136656040107487 -0.1037080755039572616 -0.067916146686204700855 -0.19739990502135379424;0.087217880175706211099 -0.019442030273114016548 -0.22785554331373683579 -0.20197501340439466544 -0.013982547134392729268 -0.07871855513493786205 -0.059631992184744499197 0.084299197217651652969 0.038957382934956943932 -0.057552374397655592375 -0.26158165207264377772 -0.12390959710927847148 -0.15712733859416103122 -0.15408635875132267734 0.19617032164556416629 -0.11328514193430196111 -0.32718719479028152142 0.021600082820587101357 0.18886237777536424298 0.0620476627531348357 0.086047098213977074588 0.12106644343299140243 0.11674121064213260901 -0.071489382538966556035 -0.050784964570654296534 -0.28476329973777803062 -0.042403179063331249143 -0.24897762098878795101 -0.090598277296822654625 0.10103978711251966616 0.11020990969831674644 0.079132682565909134853 0.082908787615310702845 0.063991033768493729705 0.10351875534921514688;-0.31454932009530012227 0.083760164760142516438 0.32116413162235751821 0.27741720501363054119 0.31351746858571843957 0.30050734781081334113 0.37692845442956496305 0.12787523336903974802 -0.021081583961486932699 -0.12455734160503036112 0.299151096641631975 -0.20276765719508424435 -0.25934946981017970025 -0.19007426162681881343 -0.42121218170480079213 -0.050263741433033824746 0.25772145755614411788 -0.022904971170913814016 -0.017206962928358628812 0.11552996817721437883 0.46520223038710273311 -0.14960208660553175886 0.20062241809016667649 0.26525810699907320656 0.21784173475545987042 0.50456584316551134073 0.27887473373106363983 0.40487320992215147797 -0.17264730370573455609 0.4114845502970624902 -0.13748213316354360169 -0.3007809661515921662 0.29070339090139635241 -0.18239253378571243513 -0.34594008734646486403;0.21645223472681582311 0.158927754298697127 0.10726366760498706743 0.17289591931042092021 0.20052262876463930463 -0.47073767215948136844 -0.508677571832799158 0.19431857288573228804 0.094640402200089693285 -0.24137146836432410435 -0.057918401001573270592 -0.52642150001191023723 -0.30762400829185598816 0.046025865274059184207 -0.072606440595734234034 0.16792058662991146689 -0.40982838455768155761 -0.13884588600250635793 -0.48313938743930412434 0.11237791079578277054 0.10483910468470181154 -0.40068635133320668062 -0.29771581988636652838 0.11545077906274579804 -0.31027356203081196684 -0.46440067139682250641 -0.41365701228639978337 0.13168631524474080918 0.036871238693634428296 -0.036030232396383664317 -0.042567995568636086967 0.05436553306527914381 0.24561271084454569524 0.27225267520405266319 0.35358650737637592476;0.24777254610491522557 -0.41457285648427433244 -0.2064457953153575609 -0.35765587630932543783 -0.0090932233415227624318 0.093164144873522827806 0.23580518819920368023 -0.43079345924038991988 -0.17165988547439436918 -0.35354008940704745312 0.18741596505879781764 0.15333487320669098031 0.022912517355320120849 0.30751491031500954865 -0.2285564806133969229 -0.14527822881937604849 -0.30075311151635347739 -0.01772449887151795675 0.2943737838242790894 -0.39473296351555081651 -0.15933672535812865023 -0.16258715066163811902 0.27059289746527653842 0.13449029174371471274 0.20015660751330560663 -0.13127883792473141189 -0.30150273838105912105 -0.26544236360986389611 -0.24801235323808601407 -0.0470204690417214341 0.20836860614323590712 0.26304113529719702624 0.042180768739023898062 -0.34488604310597797964 -0.09796607610014530787;0.25487683166924751665 -0.08402967109267847623 0.2965160613850025273 0.16535212000810922683 0.026008041885475115945 0.13546801295779378749 0.17117343181026839494 0.025440541622837105351 0.17239868372316211054 -0.070116911056802511126 0.14408109681223271736 -0.19973065029797032466 0.024761492823473323782 0.0075554409845211495736 0.017209489071714087483 0.15416461741204112723 0.025376696387136615102 0.17546148000711164761 -0.24302470314641033688 -0.11207015509783284368 -0.056818743150719927537 -0.040612790608552627736 0.26823763353807000831 0.08865554321934458748 0.01898869254509416224 0.059711897122354563872 -0.23663287619883108248 0.15781274597128339132 0.11449798179328603276 0.013544579561127405992 -0.10970664163538874913 -0.067841751422950055672 -0.11604127705664987746 -0.064553727468178473403 -0.055054408105802837836;0.088994802635709066574 -0.093459655537658906099 0.29957861540302821446 0.14916018005396436408 0.36126770945914099542 0.090384973450436237319 0.33041421848221802504 0.30616279768195081568 -0.023298307895443692156 0.091465457172419134535 0.17463083284529459793 0.16587013338953762731 0.068222573554481330538 -0.23323976352429764969 0.22216618285027370239 0.032763029614335664741 0.060895418668256963424 0.046175286791081723847 0.029570446031647341228 0.031973771703417606938 -0.11138814658697877846 -0.035929641770271698864 0.22803645824623391958 -0.29691488292922785242 -0.5445586242787794351 0.0046357696006179760148 -0.04201564851454128724 0.078691516521240845172 -0.10175493739922697456 -0.36123366617079022411 0.035435824215975367246 -0.39311630930213986579 -0.055532693076710833158 0.50779641119271612393 0.047318673436504657404;0.018852635108875966802 -0.31231150063342055789 -0.42529658811166132226 -0.32957345586191444387 -0.40815853300121224256 0.30584043554276629795 -0.29794808778402603888 -0.40350514123649583453 -0.28780992552267747886 -0.1715004985934695525 0.34976941168481684441 0.18602512022154532589 -0.40626273896459724755 0.10267452613824927521 -0.40630412865752729701 0.18420236962967820316 -0.23077437915808232671 -0.099118277233567031459 0.12617657611706065146 -0.094573077441814826227 0.12052095089191368349 -0.022276746710991755102 0.00039815552229663771439 0.054972817130946684261 -0.41838398669841037059 -0.29202941855365915913 -0.16633871370024477798 -0.44457112765066264526 -0.3237395228565480565 -0.4126224311512319276 -0.29952851288306031607 0.36025807039525514774 0.27262977563051643548 -0.061885962720347457988 0.21587245001845090098;-0.21908550085725395085 0.28939079621245816787 -0.41293802528785839012 0.23829363852333196316 -0.29961795710978300633 0.0097698337554920269138 0.38084428332834308062 -0.31885229362701494882 0.32535419737547338626 -0.1154964843356945936 0.056911785578240982331 0.24157792763020910498 0.34613995130135472023 0.044629014193099031393 0.49852075409977986142 0.16710211410891878669 0.36812761809236721477 0.26810944560499377909 0.1401753389327570487 0.076001669700865304158 0.23623233814755606463 -0.26939404133925326512 -0.0054549526937931426193 0.29147663522899297517 0.11362054017256550953 0.099752417633818118992 0.13556561981678369455 0.4884196436174407796 0.061234709650473152787 0.39167169837254312004 -0.40604585460997777435 0.031631134310531543175 0.12527708331690265431 0.11671692374579230311 -0.38241408331505083451;0.0099917861937795365845 -0.38042656976542105207 -0.076711713622220234488 -0.09461940334944590747 -0.17655914233545697001 -0.23457650792089826397 -0.39176643435905217361 -0.52712195735043532174 0.11315441033683051875 -0.31111664006283523687 0.3223070626104471148 -0.29099622046312983992 -0.53931186802748065645 0.010017042424075936133 0.05542311189256358267 0.11233137095017638185 0.11533496755817179702 -0.28821784192898569632 -0.02462907049761909814 -0.081227284067039495774 -0.49316460712499921026 0.36271687078638714663 -0.25757928856017670016 0.034012457985986954689 0.085777126508541065575 -0.26485414375820209854 0.41446316851384107371 -0.37068307055869087474 0.19702938027723221337 -0.45000549562528158187 -0.11069300045963145762 0.16964539817805704414 -0.14380851084938808815 0.1999038005432407783 0.19770447283823389117;-0.037449506015089700783 -0.070137103327207753201 0.0021896438605964107724 0.21766978284858315429 0.13521381917815580853 -0.015409721665088542755 -0.21535879438466506985 0.1614696145210963163 0.015222584292723245758 -0.12511348567613270188 -0.017350185590186504442 -0.042027429839377399012 -0.36576396875466360425 -0.23532703174352406772 -0.086184039209825202832 0.11989398371579335079 -0.015106918487832774606 -0.046808155297114767412 -0.10626320453971010993 -0.41363125645942550035 -0.0024725180852580765783 -0.028671960557732478064 -0.22216228468841045518 -0.026529358598816658865 -0.18959760189132038311 0.093812117719757406875 -0.12000313490289658824 0.048012731611376431584 -0.0053473722025567825208 -0.065484488748891719889 0.18751579286817138259 0.058087370638402364975 0.084430915640335085781 0.1618699039289879793 0.25771366031235737326;0.21787413278333780942 -0.019419116513485393249 0.21045700320095178659 -0.0955222663819543516 -0.13115936851199325175 0.21034863577049542349 0.21598092198135945829 -0.0020764701940962316737 0.13167553916790744606 0.11567418718823307966 -0.097090340354526016853 0.21334811670412617834 0.13680359839688133183 -0.17791532831455936225 0.18334930972504334679 0.21039039680531079757 -0.047946239735218762479 -0.11937743908322902275 -0.069687404375590830674 0.017466664031604448026 0.026228401418887402341 0.057433351438469879002 0.17769435290924778803 -0.042345742327356994394 0.0067954259110188210483 0.11373892644122418627 0.0080107478020655740331 -0.15728540363691367876 -0.1917900737950295198 0.085817151743280653542 -0.065254278546640329117 -0.076160022404855837186 -0.1045249771490297519 -0.093601223654199289248 -0.056221019014546944059;-0.044102074797792170657 0.046630205753368521304 -0.016132770323558989767 -0.051036243826777252797 -0.10032430275872315784 0.1188914891208315977 -0.20300176231106700775 0.11466273930884433863 0.057613342927432309448 -0.083597353319369849256 -0.2197289866436633321 -0.17884042595403679132 -0.032238742823083657574 0.16298246953127787373 -0.21049277839267133139 -0.019553955548107043727 -0.33793882412479336885 -0.17733057633073107118 0.10744652541675919766 0.011240020464536031042 -0.2391453211711797866 -0.098343140156291919407 -0.14634103621446853394 0.041174306005535947495 -0.01418216106094915413 0.13755807893971663813 -0.18510918001999920879 0.10648378860460605555 0.041960443885027509658 -0.013459673760325216105 0.11562027905004319817 0.049472244298277671948 0.093277300902125576121 0.14524535549278402846 0.1723006939437491114;-0.080188927541731111481 0.12543509651841716623 -0.14008771585975501872 -0.25948211165758339192 0.088376652057875371149 0.01278689115256826693 -0.28835812519387749031 0.53309810574306748521 -0.35548343367451240571 0.045712999870065988695 0.16334219522824688919 -0.066221815778619852466 -0.28181246438340318283 -0.023787836444356117577 -0.18981198994345963027 0.36899937935949178591 -0.31679588255717439083 0.31622582871328713816 -0.16200354965036078969 -0.17624488971393231784 0.34296319082459036931 -0.26455333298581318324 -0.23000405249632466242 -0.25754007148186774945 0.092197055091882001987 -0.24350245343096713069 -0.11738981121097782911 -0.043527648152498384093 -0.1067340387963025411 0.26882702461193169752 0.16528141888564115702 0.10105868649758117939 0.13053183165897172535 0.12666857957915578226 0.23656782644818932781;-0.01523292132443315218 -0.26030900949974922209 -0.35502635989247155468 -0.30271062614750943176 -0.094352208943053975099 -0.17431218794766170643 -0.22622712311853349076 -0.093825627897278954248 -0.24612360039587152793 0.27971024346189182763 0.37488261381215581824 -0.15687258834308995259 -0.03470128541574209885 -0.36384262775417247626 -0.17683795679688821267 -0.41182273707203553847 0.37757662949770509631 -0.30299109164613247103 -0.36098932025854268968 -0.12154427484993479691 0.012698962963901301929 -0.36531303407445225861 -0.10810124223083927841 0.13783555457905199981 -0.13170299907882040968 -0.10322555570329158825 -0.39921821560430609255 -0.28852244181347219687 -0.24995765814402823302 -0.40279021928714414669 0.4206640719766724934 0.26092140535522623246 0.31233876482482936243 -0.31118873912989875041 -0.29507989247703869662;-0.110163797656086207 -0.25473805838397645118 -0.24219423036454226783 -0.086044899351732123671 -0.30427017163032749059 -0.18694854920936265774 -0.095926756714167712992 -0.26903921610070596904 -0.054302544935495987433 -0.0028593510508420610233 -0.14566732169404081332 0.10429759809401169257 -0.033651279817845686226 0.1021233966061448617 -0.096929187551557965952 -0.073832625528766515632 0.21947780536561367626 -0.064504469745328252284 0.46554187777836447681 -0.0093709673115098847396 0.42356387681220347696 0.21504136251056646389 0.30530925557254812164 -0.30403969124042745653 -0.047801425073351888617 0.12566993074176982526 0.15182095076018309321 -0.1331696270243677982 0.30586809666245778905 -0.11269883599911105498 0.11261906460193027435 0.012561933686641510097 -0.068642048265508209814 0.1097100904304022656 0.00619590324964591245;-0.13292838158291664374 -0.15394643838131880087 -0.17490092015442879059 0.086617735756830988025 -0.13562544621673311429 -0.079106839268965500889 0.11275153347060980213 -0.29858316840254944813 0.0091029956439864362361 0.067562306745835881694 -0.24604147574448348434 0.005495934674409316649 0.077969792626666506452 0.050333992026016363686 0.16098881300922146531 0.1313260317437196234 -0.11841266072902405238 -0.064402551266985283429 0.042757040960258570206 -0.045701446538918805151 -0.20444080079345786083 0.14617488704226005991 -0.11093223338589131011 0.23120989279502121572 -0.06513856032805155627 -0.050545226275935856153 0.1051979708324275592 -0.15621671609141629666 -0.054812043505423645173 -0.18342326890521123972 0.085771519450565339437 0.053408311003718268728 0.045776750810175972917 0.031886267852330646422 0.073531734836560128099;0.18051928966757563311 -0.099626271980370023629 -0.093206417461156751414 -0.14453165126528286222 0.13000370920165019162 0.1530105903514218102 -0.075422918231875302197 -0.024714045837062062483 -0.056266087247854167097 -0.097661263032206777068 0.08120981439473527741 -0.029326565127607628208 0.22778609697055021699 -0.089158050792388740535 0.048341913405640077328 0.056794369611953478272 0.10545781205586303442 -0.14811195455602818583 0.23757805861179356888 0.038472142922715862889 0.11810482040658820679 0.15211804293237973784 -0.055854067043056773723 0.18816539161509307498 -0.041795916564659092718 -0.10269462065538689788 0.40633585243265069042 0.018819132884115345739 0.22256420483084249362 0.15118175143739581712 -0.14585666688224011023 -0.020095368521918559324 -0.028644667576635293726 -0.06663786324606153777 -0.26868454904286054319;-0.18283074831990181464 -0.18111826195950744833 0.36884847634293060903 0.16579393745889234313 -0.33802070337868389549 0.19132573935808136478 -0.057856139303628983939 0.32181073205238119872 0.10431935425629741687 0.36288293740329008452 0.20360327435194647272 0.25089498382328201398 0.26503250507669734448 -0.33312149363242232747 -0.31793355944463885798 0.33115577367330406577 -0.38729539674541541006 0.017663238018266240459 0.40621524275127390835 -0.34846022767275647292 0.33185726652739139242 0.51580921335048357523 0.21546408627633031885 0.1012616615050470209 0.055475010768432572728 -0.26976044912233992923 0.27295067526667354807 -0.0050678373240767553981 0.068056296891950252004 -0.03788072021975976561 -0.28918590142569011725 -0.063199730499335887712 -0.041151873506169160677 -0.18465448223712291331 -0.28078335495987777337;-0.0044282289781521289376 -0.0059009834251290025839 -0.0059131478663901389931 -0.056977974195480299291 0.0024166366172733060383 -0.04821817530661272333 0.035920013893096056079 -0.055823848735147583999 -0.031530030287625562813 0.024542510072786277026 -0.012451937688671931709 0.01509097728767902491 -0.007716356091146090411 -0.015204064516897843745 0.0076630645070988436321 0.031445293705015905927 0.017713757356524459374 -0.022799498756518671999 -0.0081436854724522850929 0.0071230230163715317626 -0.031096669143622895221 0.02319269674560642952 -0.039741770383756522267 -0.037995104593928658021 -0.010382675440737653902 0.0026982548404009239554 0.010510865898988055317 0.019948915947960998984 0.011690873030373794689 0.023820911050117462432 0.88120659071875284685 -0.047037845026224142653 -0.048552290991367839934 -0.09555307505296252446 0.68286652613980725057;-0.14735265231275823661 0.14252640905064339893 -0.073947258427507156497 -0.29375929383026977426 -0.15708666714498645267 -0.19741613134854504863 0.024661345344691481402 -0.43273291343036079937 0.019750253706780667579 0.11455923033846898695 0.087132895858406250733 -0.0099821896604330787039 0.080081495959345522229 0.051967859830531926146 0.10092098735464914705 0.12066927255307861866 -0.32386602961806715273 -0.042964371830054748358 0.0022503244141264134442 -0.1215405321292206825 -0.14260880080089902155 0.040861533030113500464 -0.034599116999280338236 0.21268215942650578465 -0.13938179849804574473 -0.012692457690195290548 -0.1450051459814153676 -0.17563198246922057111 0.10630667161026419176 0.0092103563830547626606 0.076370721078050859965 0.063372801539760270639 0.069385327486577372258 0.089502770066483730571 0.091087145282664733204;-0.21490220401284926277 -0.20752118107784797707 0.17017593310576012433 0.39991931286883530827 0.25601749804058282489 -0.3426060021332644201 0.46297035303103017956 0.40446759078522126485 0.32584125456432866397 0.0052761748322308560724 0.20621995461955922035 0.41034330398842888687 0.1734681595650587882 0.2610493357936194414 0.099064405917526576761 0.38380962323861850249 0.42130173700223771949 -0.19415987610752433179 0.068730443512273683981 0.3721544912700551766 -0.058735557336569016451 0.3056154702382117283 -0.35238175907467528258 0.31971794792574470545 -0.076493411750723105946 -0.24412237507318521046 0.25900501811977666433 -0.19841026682782289536 0.49799938486534450766 0.29174956182570249696 0.20738064016932694633 -0.19393994765583941198 -0.10602442515446693083 -0.18286502283857111739 -0.08633721954081544081;-0.22028879810424145669 0.030134703479853856833 -0.27115682623575559917 -0.10481958200549036653 0.0083148905965630265369 -0.05128001653893145273 -0.15245797384767284521 -0.36344382202474923016 0.02712189489040323781 -0.072586049725865714466 0.072097690663695021551 -0.12338387100120616624 -0.035672285608732721973 -0.036121173139700223087 0.137391076974044124 0.29038030121699420771 -0.11193909714931427057 0.048040006648418155655 -0.0063761925955086746348 0.029133497817664652518 -0.063778210145002109388 -0.13460091420372005677 0.049831368591673301516 -0.14331105741366217954 0.19507246966223751317 -0.21847950407894195513 -0.24803836320959993245 0.19845702238401780049 0.074725332318182166591 0.11236430297009163126 0.047272164887638593034 0.051318901984391575299 0.051070409846494933814 0.024213939827166332253 -0.013431386987246258721;-0.32152313158511086622 -0.17801610412466564726 0.16400011746196224705 0.027974002703447502921 0.22925104421886105532 0.029475027430783107968 -0.19027821824218282831 -0.21158065631800510031 0.15265752641099400444 -0.11992502061436188798 0.088285605930457256019 0.18408562656867091811 0.073660903324994420061 -0.16573604006800699007 0.050196712379873963117 -0.19443401771966212221 -0.062430109372003293744 0.13186453180825616349 -0.20797780955620567833 0.12544542022195098729 -0.10028965033841340249 -0.15697583839694104202 0.023674472494071834017 -0.14713809797285565262 -0.088267341265392734728 -0.15187580030539782339 -0.072346315129931490495 0.075714366683386019607 -0.055743884438879433285 -0.078802931431612169288 0.11954326903256841386 0.0279945441305786899 0.030027914041574135795 0.073338580256116017719 0.15048855023173435264;0.06390175571458830972 -0.090255353908737331881 -0.36156355683530977396 -0.26774934410761297432 -0.22229973236970862471 0.1618267016905650113 -0.47929617164750287772 -0.090967724887590625804 -0.45166886433371317144 -0.42507125743763651826 0.14439779258799662065 -0.35027493771402362643 -0.14389846859770677456 -0.42203681776393187075 6.9861912934637040691e-05 -0.33591262014369493993 0.35531946546083642557 -0.16434332807735807513 -0.42467015953309222853 0.31593979420484269438 -0.33908995899358118642 -0.26989932195751131783 -0.027676793592806031574 -0.43803525800591891493 0.17054807151383183372 0.20276334277138421958 -0.39940734639159786168 -0.22053332424086516395 -0.20811470378835736361 0.39134916443161027466 0.038565637435831828794 0.28200710110497173577 0.13669804106203875538 0.23452741387837930387 0.1060239870587587202;-0.25012203288567103066 -0.18056374243696474147 -0.067805429484105506077 -0.10378660802555118858 0.0090810478101797150602 -0.26172284647321508722 0.1966422636997285367 0.09745088626405387644 -0.066165017273106863094 -0.17882798459269433344 0.04052454882803770142 0.12827353870747260078 0.04108963653555280926 0.014470971534274510925 -0.091010658292803872649 -0.17810491077108667191 -0.27305111058119257983 -0.209729885641963959 0.11867022959869341636 -0.086280267645035227386 -0.002204981366852454619 -0.019969093183027291499 0.16522108952186959074 -0.21559459443969619663 0.055392364360203984186 -0.12342472912668209228 0.065759673781612321131 -0.026631251970112235217 0.22999150717209534966 -0.061287936864820591332 0.096712459324936494998 0.060620667734802936855 0.097584887972346948115 0.089722633556644587616 0.020976837058437391992;0.49859068863871575106 -0.003283220495693836994 -0.22087493056650484013 0.32550314375279032486 0.20051233738617194047 -0.018629847136298692545 0.26712953546892481693 0.37795019621457565107 0.049729755536533845617 0.22415575046655886182 0.14006208546131612702 0.27692415958658350705 0.37301243057289940053 0.14783703911258119779 0.416385302032891369 0.17936434621957264568 0.10992661206198234281 0.30590361883920941244 0.41985939781236614188 0.091065163279774458127 0.20387078634293187562 0.19649943008858355986 0.29171598839273266135 0.30179451661262529649 0.30838374990599931591 0.49127871698327335581 0.4172490792522924874 0.16539883573604355349 0.37520971650127177277 -0.36086648738462184793 -0.19810790569770889147 -0.30167478365982058897 -0.45088388194311973534 -0.7136479125974700688 -0.33333178947913222334;0.21678546928437289476 -0.1176897623519099767 -0.28604801660255158025 0.018888673259533965421 -0.33829429545805034252 -0.10816349949591723412 -0.33644518870477541084 -0.33254133152495263248 0.27431681409426172946 -0.28162223459470886455 0.29719006664438596399 -0.20798059824450826349 -0.4455970666050723672 -0.40743557113772432832 0.25402079293641738333 0.080106486711616145535 -0.38302330937383388676 -0.38055833781632619761 0.027252427836978173475 -0.13821155885612526615 -0.30621158811416859802 0.14526915671484785797 -0.39947241925757381864 -0.10521565011214122076 0.045614596425284197057 0.10031711633943035666 -0.10710948036446371612 -0.48575065308908660366 -0.13292680385237198859 -0.24902816326016963266 0.19177962167057799325 0.17046820766319062401 -0.071240473327051398456 0.27882004251719455512 -0.47219171923610736563;0.1604456458482586001 0.14092997443736404728 -0.1353652800753119001 -0.10235715199623410254 0.3397475271433875732 -0.04107220896631010032 0.015876244702130611758 0.37392405637921549699 0.097786478500802034852 0.0093590428252532040232 -0.0072874455924984600508 0.23869464346491614526 -0.026089184699531302314 -0.16002912369769856094 -0.0037554861576216680419 0.028332696426139218626 0.088530450205461228008 0.0048338918348944303824 -0.082638572390845363436 -0.091239676477668077426 0.050668554666497604699 -0.22285292125696784526 0.1886654269460513178 0.25106563670912263042 0.11516058965397810154 -0.18457972406134173782 0.029826451135511449636 -0.12287695016204649989 -0.072463504046346993714 0.16067515154923694976 -0.065774225830777563462 -0.076931410688132181863 -0.043991375251960847248 -0.04538305444203998007 -0.043112375972101504851;-0.14370918236538673951 -0.13019129221249386985 -0.10376027081619446091 -0.18151817081033957968 0.1163819980850527569 0.069579409384159740526 0.085090194025206775108 0.17175886763515205158 -0.11197779705979776788 0.078235476487270180779 -0.0064905980105497635205 -0.15578712386370974219 -0.17764631141781575541 0.11636239430198244693 0.12625943511490023141 0.048974219834581556032 0.053649586759083683907 0.21618638944457976847 -0.12865043917226748338 0.01426407053191584666 0.1219953990940351729 -0.078902686089366735889 -0.30586828578296909598 -0.16350195649846854806 -0.20052521796560066059 -0.10026060132861913665 0.062324721869512544892 -0.29103364083330196532 -0.031612896406982636532 0.074188525694645193753 0.11559347705380214333 0.021948416044237337857 0.0055314805453263405852 0.046623598618421517592 0.14422199060105841961;0.17679631763349526463 -0.17690444702520929932 0.45058607421998136955 0.24778157940161235628 0.33824877244136403176 0.30120976543150668192 -0.01094888292772620321 0.1992064731779178699 -0.38409670355161756872 0.15062804615049163459 0.21442454857641987664 0.56244359504701602059 0.24498560090139176459 0.61324944953468840669 -0.00092349853459381629067 0.099013646721017728458 0.40184284823864213632 0.20576791989207515732 0.36564588253842017496 0.33975889574330614407 0.2760729584962336447 0.38532584295363497828 0.36672027076134289247 -0.31764865306152401114 0.29432693129363440843 -0.11634835668436786793 0.45839965289274187121 0.30359431681778736856 0.28926519459084998331 0.4972315220669337732 -0.31141755666320652951 -0.21286976793584994061 -0.15286704082884247646 -0.40000817454437576082 -0.38778671350815546726;0.089966963698957236328 -0.17465410337101469618 0.21023055836459100809 0.068065332441780701522 0.10909150932630484743 0.12334829347914459674 0.29096031094668151074 -0.16626949282726305457 -0.24104169627949084687 -0.17762676102387700561 -0.14188173003326287613 0.18141531675461242124 0.13365037380786998211 -0.18281088584169932765 0.0070217264732504074479 -0.065454476096478017566 -0.053288763929013778509 -0.098393490091509841489 0.067588958473611598921 0.13613790730265598605 0.10700032675841976426 0.028590961510860133515 -0.14634080544564204152 0.074178725376305668093 0.0061405876353296980075 0.17538808466933136776 -0.085827493924225423116 0.16189919654465070864 0.21459622375539574857 0.12770726817395136599 -0.095953381315770108761 -0.0011411510667968076393 0.0094385172468531980394 -0.018913621260034402249 -0.1343530535510906454;0.059019098973182561318 0.15669714718289295963 0.17642673674967690456 -0.14347934250915200804 -0.081135499233049426793 -0.1267345415434668332 -0.23571610780766960591 -0.10865233205580318576 -0.15684699384223926844 -0.20580113512252262709 0.09386263526407831459 0.085217690082855984679 -0.23875808670091569486 -0.22056088987876992791 0.14141629547515086052 0.061098027342039819276 -0.067535370020701465665 0.03289816334553329058 0.090573803879967246244 -0.12436860995644297145 -0.12585845069848416999 -0.14582675678654846707 -0.039305114970324683821 -0.077245898772927507059 0.080861925742390552974 -0.09307152452358889716 0.23135160356728678988 -0.20526330395611774859 0.20993200301340197989 0.014251150183422992695 0.041851094729141051498 0.067253150746961337658 0.071870112986843176506 0.114645610397212383 0.094227020459852123269;0.0045370231904128784442 0.1520141430489921619 -0.33009403890894484235 -0.26459089800199830922 -0.35618378171550696409 -0.048795504318542626265 -0.45996489729665801516 -0.51423434139254808883 -0.070814655812065266383 -0.34159883182067074525 -0.41977909920697237256 -0.55104463443212503559 -0.40098065321570686148 -0.10375511392277818323 -0.098771750645631775645 -0.047467770382533830409 0.21362789535934689766 -0.35756677448528706442 -0.22132059613187646252 -0.1216935893490431464 -0.13572008207439756333 0.35214180282204321504 -0.13348253340388777088 0.050911653332323184018 0.17960298751631623149 0.35497044950571821076 -0.20647710805801333667 0.058454066770302681721 0.3883935768963323043 -0.34982574528698762162 -0.23897363630227511089 0.25206474041171289535 0.0344193378847915607 0.19032424756346186245 0.070518205781404413868;0.16329906832369864289 0.073251206059073203924 -0.21636084999196611434 -0.37733399486512431142 0.0048950555637571760773 -0.42182069029782376379 -0.50855919069668731325 0.18692887975457897487 -0.28954595672775496062 -0.1325473703861004271 -0.33969302340879659052 0.17922697107829047014 -0.29252437170380507503 0.069269024969081521848 -0.24772699048936991373 0.033569068304596279273 0.16451444013523652821 -0.32571198778638149607 0.16631339512382289914 -0.29011810082643013642 0.038415488816502141312 -0.24484727302580217012 0.1968956313069986086 0.16591043978585715002 0.015075861208548759287 -0.44610992332846322039 -0.36976241317293068178 -0.34035646517677203837 -0.23876878690014355366 -0.1052819070685556968 -0.23825387064223368938 0.36640833134052963604 0.24222646386936866336 -0.2307758971122070013 0.0056473787123827272338;0.14177129980676722587 -0.075560596553298414735 -0.10947922610527403842 -0.15797833430571134317 0.29430766783286904653 0.22037140023477302941 -0.1007073113179381002 0.13378378617481198609 -0.032750744973941911531 0.18296172791348946918 0.030940446934688534825 0.0013516201221577784589 0.20552525546716801652 0.17253467084356133299 0.20666916625947828745 -0.078520515015996203423 0.20412397115867922381 -0.12817987427146945723 -0.012544877312202593056 -0.028287013075172388887 -0.10882245370310957011 -0.13451325531201174801 -0.09759747968662275952 0.15658620571836992519 -0.083215246788668692512 -0.25331578310488661598 0.014826994771630038969 0.050491570119621111135 0.10403930909081664236 -0.11344330058005007433 0.0045720853750910893029 -0.05762530573913455384 -0.090325154201547172561 -0.039574024601043977789 0.021451286563935686308;-0.042347854692304724711 0.069545290350596367102 0.2409404777846518575 0.16685971975154337277 0.092798211185570744775 0.16937193942268016777 0.24409398492502465405 -0.1943621410791764037 -0.17264123618313748088 -0.0017535886779635738875 -0.10413938483720625028 0.079834100071817543087 0.015689443595640839568 0.093774097295402300545 0.11956531599590546067 -0.13521990835653519003 -0.16953063302576434901 -0.14937554296703811629 -0.30535203046610631672 -0.083669373343837102897 0.092976811086425872888 0.14257828163096894492 -0.055009037849371132667 0.039504284703333641948 0.1719521909853898578 -0.025517758078536831312 0.31640858215710609969 0.022354150510443187433 -0.088116591926616014141 0.059711664566418846956 -0.045626569252802812171 -0.033850188740784353802 -0.0043185566924244904452 0.0024340422682561351636 0.015377678358588291532;0.10165514232785015369 0.045001536324717761328 -0.5894474019888065186 -0.30894684413349293717 -0.44374795914238002181 -0.2405640969171189969 -0.34409492081682740983 -0.38360969145605755548 0.18503687684926936607 -0.10833203591881787609 -0.33134583525493138678 -0.10797938637040162269 -0.50414517136943648445 0.32201331984386410978 -0.35636064051104882067 -0.074464844307193592265 -0.1026557085621218196 -0.19627786870698926691 -0.13810989628590528144 -0.32814524718548171434 -0.44470908730663349928 0.28132103539480268761 0.26524935013431716335 -0.17668565778568981472 -0.0065349886228676084404 -0.26580877508787109642 -0.16314085004973416515 -0.28290507053896302159 0.30097271116326757001 -0.011610093170796824749 0.29575909818999790435 0.084586842325998279346 0.15533152683480819234 0.049290685163090028342 -0.39488279409653836982;0.44016697573789120845 0.37580932413341211484 0.25243937035241542644 0.37831613187575857671 0.27435537495470224689 0.26570805319606299877 0.19676958059029978076 0.062824920349800653097 0.4717114838879967742 0.14563950561736652145 0.1498397882326114039 0.35002358927682192258 -0.091032934903774356816 -0.3675398254386759711 0.51978248955641792595 -0.17994781883837429604 0.082611514426570914482 0.39585216728825078913 0.42150476150751825521 0.27155664570951260073 0.41206590791582708988 0.22622831365952134064 0.49812712374282042127 0.045237134591370138648 -0.056295074331312165705 0.35903939390404338017 -0.016609604398500576322 0.42526498377589172506 -0.018753364878619959571 0.1470012316616364223 -0.31996379104562105988 -0.30327755174294845908 -0.23637363742492609187 -0.51251674975103556076 -0.28376231925245887222;-0.21061124078251700076 0.43777357265723554347 -0.08995028031799105761 0.17032972115676101033 0.49999882075654533686 0.46438336387827000573 -0.040757972949220420966 0.34129115319387975935 -0.033704259950717033179 0.28571120601596466937 -0.097240972091190147619 0.40005284210220193319 -0.02198639867418318572 0.42252692481980896888 0.44145762483116324226 0.43148422096550176352 -0.18893332061648929199 0.33995150387653622071 0.30209865119969431246 0.43962992401185990721 0.15760828472266363853 -0.22347862114886604679 -0.1727432579205746277 0.40647593868433440356 0.27880275215748956397 -0.062925455156629978015 0.35838555527350712815 0.25618646333496475354 -0.17910097002135871858 -0.22628721480384014764 -0.25853694559985024304 -0.21843102219367113714 0.1503400761574619493 -0.37252526944270175635 -0.0946062402309033601;-0.15074753436692481245 -0.084260531325777793255 -0.34931389070545609821 0.043844895332373096108 -0.15847635492151801451 0.055975507922045773801 0.0095431226950552575095 0.024305765572125919566 -0.2778766959842678963 0.040623561068526395368 -0.21598668634693735102 0.15390406116150248672 -0.19593159326578415969 0.02112796871815968841 0.0057723092150344639667 -0.029797107413424700484 0.097576989299022323654 0.028181433496718390902 -0.10386472523079716412 -0.11786936582786396166 0.041358523975890508495 0.040216881849153805761 0.10210131590484118613 0.050274108634622678704 -0.23599298373998878198 0.098804587480057187721 0.17623264282979214657 0.26200439338472986117 0.016808049018167046246 -0.045461038662748545769 0.007515128937297449116 0.091038194350251136489 0.064239260411417753449 0.077014703885942101258 -0.059341463061751545394;0.27004895735545864088 -0.12358519384154748044 -0.11088557247570493547 -0.2114237535000957624 0.052002806537678067378 -0.0094689245627242093345 0.06242862829108325462 -0.23096136228700875348 -0.06122795934497821807 0.26891321971439147154 -0.073934611917718787155 -0.022162144369003294875 0.065431849174092782118 -0.0034560321564417188951 -0.1461892247702611114 0.21759165897668886203 0.092253450218425556151 -0.03744190927444625977 0.050725370061200300564 -0.06342876070450495507 -0.027504384858247458989 -0.096657984737039751022 0.012535928354809674698 -0.15279282843800534586 0.24471881645201742916 0.22416682267102544523 0.23839233073880536362 0.16681635825472343471 -0.11995828421489029836 0.17712601357632301591 -0.081782914541197238023 0.000606549229031341482 0.001751913502395851174 -0.0064822831008387654314 -0.14502873574757299546;0.049128532906688129889 0.0064455113958822776027 -0.1631529427505772345 0.13730626833368952955 0.093744181841070375882 0.17456686392565742838 0.29655321785663363299 0.19911432300484580016 -0.029352337990343622259 0.0377066393503487432 0.11393914860069610795 -0.27975783134834858457 -0.10126324756440206742 -0.034753638081083136624 -0.0076456596449755815856 0.097296523304691712175 -0.13250730793401593877 0.034361455031462304066 -0.2293291233237464144 0.05032606950057381956 -0.19066075420713030075 -0.026598125815725813526 -0.15697954512794254356 0.18376988740334071482 0.068519934695236914268 0.17473086458760891948 0.28485763264015734331 -0.062226665022601018729 0.01581898339673115314 -0.032619026381739406328 0.0001112847474464344989 -0.035744277729423713785 -0.030441654313472003845 0.012361378118374786658 -0.015714370665050356873;-0.10209844016923387555 0.01836138788934273125 -0.053563781654059512694 0.39123190438404165103 -0.27266105831740800047 0.35491228452283929418 -0.16766163388051716354 0.48055580169093292664 -0.12357121590434945457 0.46160309902474094823 0.47052622693701867673 0.43852807694634154956 0.22827205188760132937 -0.11240730947152390018 -0.189294640826732391 0.38498775863423528865 -0.19575503839092125991 0.16193669461092211059 -0.19908406755304183799 -0.18558485473328339976 0.18771144075210888236 0.090522667322600475215 0.19136640645396871263 0.030301995242382022411 0.10155626349709830081 0.47691934389842471909 0.41776677709737602973 0.33802960884373783879 0.15491250501032299836 0.087448048851162168971 -0.13961743428801851041 -0.065213549554093558358 0.11288452196665674232 -0.27350210145992553956 -0.36593897957177179414;-0.023831964844773369933 -0.27305166496687510724 -0.088512203578185968955 0.09568598428266249234 -0.12175091415656560945 0.16384341965218796044 0.038388417317281306462 -0.36872027459748873968 -0.11766504955256197607 -0.031325677871699229848 0.017888369316458988673 0.077921964370550003687 0.018427254551747315053 0.26874945253049636884 -0.20647496522266456376 0.099963171494746927426 -0.26825171060195257544 0.085157845283669653114 0.0057548660056350384173 -0.024896451012805697472 0.063020393991850012783 -0.11742413113310179451 0.060670363856318618168 0.028617516338150249949 -0.15101377188945530605 0.14659106877854766182 0.036005183888139308257 -0.055940564519099518492 -0.11758076191058311477 0.27329463005044751789 0.054438517280380821495 0.048051549461186796042 0.059682338575724511176 0.03043852064045056427 0.0049864246529098396263;-0.13299158212988720917 0.08067677609791507054 -0.092730881346980931212 -0.12684043068159850387 -0.11448273003044255602 -0.064098177890070218155 0.061085647254459168876 -0.1427770451659805262 -0.075519194961342253625 -0.064131263613118869027 0.016667607385530355119 -0.0074592895688917072033 0.20113521994168670481 0.06665230181749751126 -0.11753052805543388881 0.13936249454344026844 -0.17178129439397599176 0.60429701496429300001 -0.017164738046599709032 -0.16375236291484981943 0.096621023796835306396 -0.10714004253477617257 -0.17667796123692477983 -0.10775768894082009275 -0.12116748277675137846 -0.1172725618594051139 0.071536849082544970435 -0.050462533186139447994 0.015916033391736444935 -0.17545466228556233501 0.057439404769561760999 0.038525196871997853532 0.023597123282334323685 0.0079221387382866458038 0.03401063888539147817;-0.13575454964093955357 0.085985198558062497787 -0.062791930594038050661 -0.085299630145085236776 0.12883229591461703434 0.13241498972660417643 -0.35477973411348084909 0.026437085273173354522 -0.24058175820927482635 -0.070237999474999590621 0.11288370952547530091 0.13703906325823259071 0.21457478709573596376 -0.063367281938040059819 -0.16601308309522175288 -0.17944783033232253322 -0.11108711224810612073 0.15938455875190027378 -0.0584906613585236268 -0.027502769521083818283 -0.18064645902236978192 0.17159320463876789886 0.084510172716579554097 -0.021965690475826075978 0.069990339065690396203 0.071258957785524934536 0.022649399137988236036 -0.046601032678099327256 -0.11743420336954506211 -0.11229900341936441266 0.057782613580256179941 0.023679030075429048641 0.060142124470491865884 0.034696882311866093784 0.062308694636589972982;0.019410650300211003405 -0.074866335108272313859 0.12853570342974865448 -0.028450979895775236478 0.1014876992288618468 -0.17404354738354779752 -0.28452700665907293409 -0.061972291001234448837 -0.0407054602921306935 -0.074705845675153564889 -0.19942648085285430426 -0.085366063322262722424 0.059295931496500510482 0.10243495768763728748 -0.15847046031080833095 -0.13488070158587375791 0.11001402084150072036 0.12250802049802329841 0.0086555256193141510285 0.1306946011302006494 -0.21913702141343802121 0.15007312655175442107 0.024194077518321588371 -0.12599479002547497863 0.12976360254035682051 -0.19824521223864352559 0.21246689426621517827 0.17526631479951976234 0.015250185642383040294 0.21028073681613476675 -0.023792907577454541074 0.054069211898226533786 0.046520622834832631165 0.044265170531827741085 -0.06927172278307931752;0.066754991092197082936 -0.013667307267451985972 0.27252223719965512627 -0.016292886327807048347 0.093004510885289923272 0.18441077507505646005 0.37277817955173875308 0.31427171916586083 0.39119909582922240965 -0.19984462767135421912 0.2397351351383702478 -0.27317476695555342747 -0.16231836778097949447 0.22139728547091708233 0.42487024091228420275 0.32622013625558726746 -0.073817136381537418188 0.056673066415439371513 -0.13103833595187019956 0.035035970854355627524 0.50814735795863141821 -0.33638226823310130031 0.20058020809568954945 0.19104774945186625557 -0.11583723461983304326 0.20215893209295740518 -0.10110076330464379257 0.47352119498551237253 0.12852915671024159328 -0.023225950773851308101 -0.078274354578817831318 -0.24109972955049974175 0.065810916477532094282 0.28841396123333923329 -0.3237062210240628235;0.046447757654623465784 0.39981414182426777693 0.31691733652111203634 -0.14911810878335432506 0.19257285455546802044 0.21037534357883161396 0.20261449830075417555 0.37666333984841759985 0.0034517538014653976336 -0.14438986877340112547 0.34551097243000800097 0.35122540968779186743 0.46370063013013473885 0.31831140511445493724 -0.048348766165880623091 0.36497600619567799329 -0.14440399706045620176 0.35095505327159215447 -0.19890679743722211592 0.1277134223346615971 -0.24646010977145887955 0.3736980739136112617 -0.28455060449656083277 -0.10437406974360065315 0.34422296160021209621 0.058289182713745418818 0.44837021064356452626 0.043905825174399594479 -0.18486403514631952194 0.49898060088843837478 -0.41561967385927395258 0.092088703752357836674 -0.012364214339353234856 -0.047456570090403452089 -0.081378673441579160719;0.055777399880117782549 0.18770148970579697556 0.20276553569844024683 0.043950829499197437145 0.038981381641330532795 -0.063345750933850530906 -0.040731361936049655104 0.035271962270872106449 0.011074306719403844562 -0.067198759737939345316 0.042047248840036716144 0.085191911626915653444 0.21868146048440520457 0.086037562174001089299 0.0080069577708656476667 0.095582436080012947444 0.096612363785417695872 -0.057949386413012227148 0.00082429785071419980815 0.024187332607005587043 -0.15943212332914502571 0.016395347945106140269 0.10379669135501347343 -0.13272933172883422115 -0.010530737648403450807 0.0040623611071094753791 0.057470125587647316601 0.034551714402019984007 0.056244217727518634742 -0.031085908578659379731 0.68020369859199780738 0.054503717237350840508 0.069681501425254449567 0.047919734299464930571 0.1774760272751813861;0.19880100537144546058 -0.15550897324156401358 -0.16363411676011266338 -0.075646721367560898486 0.1398906989045259619 -0.0066342107900977829657 0.064621099230127321267 0.037827309148800863925 -0.058414448266407688337 0.15141451072624470542 0.17431979081467896542 0.27568403598352064776 -0.10338837930274008547 0.068928254987011952637 0.036978345601831302814 -0.090566964138545036356 -0.016836818026412337518 -0.018729822964180936617 -0.16697770683729173946 0.24248623600289120894 -0.16004283498186683277 -0.12407896416375326087 0.1209696839892351744 -0.13063909015108840506 -0.18097255606681289519 0.0089806401132991754005 0.21047027038928334264 -0.079140000539889746034 -0.12407461562168403679 0.12117313364317740254 0.0052284201976719336252 -0.021021194087313281595 -0.043617013164672827075 -0.016980359506411850379 0.0096909911033327446328;-0.055969776621727446164 -0.21409393744353799605 -0.20262037441262989446 -0.17515423956997872024 -0.248282346267134163 0.05109944544324992316 0.1894158642569747919 0.00013901230428970808516 0.054730334778241407356 -0.004276656327798319078 0.044932886586222200997 0.14337740225254361204 -0.033014904355745430808 0.091690413636468667824 -0.023972728789542749328 -0.073888957745497321761 0.13433243712903600309 0.068554653948051366696 -0.027243139873883083502 -0.019827285778614207878 -0.012740850118125420648 -0.046071436007979672811 0.20364102841223291618 0.20842200750580242019 0.088736640493884938463 -0.33395576240412649938 -0.046557501373389563459 0.0080216953224406320477 0.15244472139899820085 -0.20055134130999976994 0.025462966130829323141 0.028915402841083064078 0.026762693226118135226 -0.027012642183972677273 -0.081751337671901777582;-0.22683565172219610773 -0.14462722419467605173 0.12624909865581640522 0.14096893665215731728 -0.14167239391755639955 0.077843661712104481043 -0.20994088299708688061 0.17315656702808956968 -0.16893004403186509532 0.13781756343033518819 0.11715572506036922573 -0.096051925177028901759 0.092150009695653456454 -0.19913620759163441765 0.22197990829386513023 0.02703934372434275285 -0.075158524117793279462 -0.15997153064690455837 -0.050969349159683520478 -0.10304266683874645227 0.011926265792270561786 -0.14266717368799106125 0.02090220177057429754 0.024515484776201398875 0.15754797209313303741 0.068484215935059003511 -0.10601838363753551819 -0.037987720618688214369 -0.10800398137446370894 0.17090998844381366517 0.027395255357623486681 0.024061461307655688385 0.016397152456930318143 0.033081635139339767016 0.0054025459338493952988;-0.074343681889770529825 -0.45521297264589333231 0.077839666784829897317 0.3904176263116784229 -0.1838146019849931645 -0.47632614135598200233 0.15832098691730506212 -0.4368631435298229726 -0.094752763555153288189 -0.40153121113420109367 -0.32147220927493386222 -0.21668067826064313364 0.30972274958314266469 0.19102641037013720626 0.0062739072317340013538 -0.38885929383083833732 -0.38745536023142895798 -0.21748236895705380656 -0.26513277527334921935 -0.31687041853323838492 -0.091944796183432306313 -0.34765264680859436774 -0.15030495840674465424 -0.12518425062394597513 -0.0054098652491194020031 -0.043652415301107097556 -0.46156768874271575376 -0.29000482643612623956 -0.33928456282979829739 -0.36670653203882469517 0.24833479211416073507 0.2755787610771643914 0.15890728872192688703 0.26602375968164143627 0.49309686656019163786;0.47231325976675014866 0.33219029809556543942 -0.081516046552555787574 0.28266632976185612769 -0.15138666346687992825 0.42050262931068149719 0.40593230436218979973 -0.18483213742446627514 0.48462859241062311577 0.090985598749808924146 0.40718098266614616287 -0.063686732531606518593 0.2829867927487248469 0.25222209716940069413 0.10349455075084366962 0.38255891739525449413 0.31814264892695182096 -0.094328579310070145847 0.21623798613457448359 0.039079692120294003133 0.33881946985489286295 0.35296400164991376114 -0.1483555673773958028 -0.046202598519108045716 0.31028356778735072252 -0.050500989753932579163 -0.25303685436766681915 0.46396629505202341415 0.17821120897960601726 0.31369954754600548608 -0.29016203641141852243 0.031511910925101062342 0.12505859843505068296 0.11400453999682691464 -0.33076384858150387203;-0.070642489621043330628 0.053909828772001566755 -0.085943617493253507411 0.17890248237137029719 0.052726226060306316534 -0.01234945758210049746 0.093859120833459763755 0.1983461437296387686 0.11807682287980127145 0.0081995403011734194904 -0.175464614065822061 0.064169662589187853596 0.20183399557161085802 0.10194413563764877229 -0.038208957456492061155 0.11291888466824194504 0.11413027221611812823 0.017156780692918465608 0.0041421445902390949603 0.020699393965118235289 -0.31222349797447757069 -0.13393209516086138078 0.039907981047520586781 -0.29976754559304674697 -0.049905287042209825477 0.043537017399980199039 0.0036957997845000205468 -0.48719546817445885667 -0.054341507654278163597 0.061213666498296778751 0.058063655763416772981 -0.036977829315902377427 -0.082608441607964169795 -0.015729707194978990309 0.12910192743129067505;-0.15324571891092234055 0.026972194362931758982 0.025373677030184969838 -0.1629644562643172423 0.17674526992068456677 0.10977310301473011678 0.14060616148985732865 0.11648003604491093121 0.20270425907659680997 -0.27002668586462391653 -0.200763316284412352 0.0022504516717315164315 -0.24164241516285708822 -0.13625944618470678393 0.026888202460123463572 0.13810572664247244834 0.14726006323222889938 -0.10341707847923090058 -0.10625149691152467601 0.15404064186079813314 -0.17627569183008562348 0.08114262357595568298 -0.026655107819909696493 -0.021645800102047033781 -0.22944409752529171254 -0.1013393483792034977 -0.050744658003868278739 0.037867431903149381678 -0.094521643332454316488 0.12923121403235407478 0.059351080223830225691 0.026806452038582031377 0.030927140378994185527 0.020563894158606699919 0.074607835223801821645;-0.2204591726756746084 0.087006632382933171699 0.0863118109666351635 -0.14871266069488514594 -0.18565346939166310625 -0.23604060503678300775 -0.30290007441066590932 -0.096915885408082269592 0.11562816246904815409 -0.30237576302745683421 -0.00061223331149743722389 -0.081177725081493179449 0.30252592879513251489 0.22416041418765203508 -0.035590651884002351413 0.13365849538494972704 0.15781876954551965486 -0.040449227650251710908 0.021903320717460206257 0.24121332157769276305 -0.26842098866805202961 0.11606444708559610079 0.33814268464185465168 -0.25502519770136494737 -0.025283971177449727358 -0.067722333829275588313 0.016409886059677174924 -0.08161157150421533002 0.022632736628392505218 -0.15171295413459892631 -0.59493022188757294089 -0.15457686052633201612 -0.10671026188727070205 0.0050392610817979457613 -0.28362373189974804388;-0.018995224197600191207 0.4609358169454103038 -0.091567604201101424066 0.1354233407697553182 0.41518611823972967345 0.31048069985613530042 0.20058470707551770418 0.084710228825205638459 0.024166699497887137588 0.36504558145507426392 0.26949098407934135579 0.51784224562430281047 -0.013856242018334238159 0.44307268348424699855 0.16891149236451011295 -0.25055369258935672461 0.53579950629771466719 0.44592262830125306561 0.21172902032351370583 -0.31965345221862234704 -0.25762272759188520332 0.083111156092328219991 0.25001824443113646046 0.16753321984908997599 0.45475455221769356395 0.53463465581801972171 0.26994892094599171051 0.19310250572210219122 0.15510853888243231191 0.11567798469595653998 -0.18858864793026750006 -0.34771494259130480975 -0.082229465508577223587 -0.30796608958008458989 -0.21069920025176083755;0.072353519308657521236 0.22545088114430164583 0.27264382359054240013 0.34045771747074399238 -0.24834610572634224779 -0.13429545132401310426 0.41953571564202840616 0.23415263281581547017 -0.06581969473314572272 0.28996675914716785183 -0.26867073943094926802 0.43394080752070890439 -0.20400664383455380246 -0.1744009796858433381 0.38108538672572417338 0.21461112819962741005 0.4453813519582321967 0.47190163587419398095 0.46850498119569700117 0.37590036057368725331 -0.31559449177919690621 0.21117432568415267502 0.20530825943472669204 0.043523630977096362804 0.2154994729701301126 0.23997897997227729538 0.35904751999639733517 0.36437602303884264465 -0.042386671800000198795 0.11869926529891246247 -0.048782814774794361345 -0.18748733186509114468 -0.00078942515114729125501 -0.16996691271416250468 -0.46634543356185792495;0.15500529109746091772 -0.32566949134545564171 -0.4915990689484140419 0.26128918426908787076 -0.44156328335963801468 -0.42782486442216899336 0.00066222586324847347323 0.15642229943279117865 -0.49912467445420560797 -0.45895451972722872691 -0.041859314595529037439 -0.55184753845024225871 -0.37847156612775728624 -0.044667373827297983391 -0.49190895959915320601 -0.040841093236674105849 -0.023757641224442384298 -0.022024772754409244896 -0.21208851329664593632 0.28031426557643057684 0.069996837619482735193 -0.45445864186860451817 -0.28357637098690929855 -0.33636737679371225829 -0.28599832539294661737 -0.48884418942438262468 -0.082350812617925150949 0.042090509067764188267 0.20532958464723594094 -0.20878297325611427926 -0.06456814834095339628 -0.0109131750543325131 0.10173558718434067005 0.17783976873792187168 0.28862136224032880483;0.057140100831396402337 0.05356013768338075548 -0.072483712557970036983 -0.046578003896136102591 0.1553923055921786478 -0.094340232257212483513 -0.053697459995717837511 -0.080203952177502230159 -0.10575891389580971413 -0.051015407702862398953 -0.16600996619925764697 0.21152980181437519569 0.30305812025136619203 -0.042356404541761781546 -0.0098986581910380563171 0.29607142108359479904 0.19994912447999282912 -0.012349232826217850997 0.023024970524876054584 -0.16302451787320149101 -0.028694042878922996348 -0.11155700157164216701 -0.15455327447882227787 -0.099010772534179641857 -0.12734622222220953747 0.022138224959571285028 -0.11580552970227939169 0.41055626629525338034 0.090060854383486932395 -0.13474346723125016356 0.0097031039291558696808 0.019254056488208746295 -0.047836788622035664176 -0.00076657401173053875063 0.026746562027686951457;0.0003596422174421315442 0.25067858437903950408 -0.096986242667421215802 0.06908197369845109348 -0.12580147156716492418 0.13180356997967693222 -0.055795514442874755145 0.02241286484003039009 -0.16016894043587506791 0.18321874992276662719 0.074342339326021272816 0.13119727641801703921 0.034090128216376532067 0.20727436830313100691 -0.038408798931029081158 -0.11453304006856208919 -0.0085115959027211168797 -0.20429744722027981529 -0.099716873298004951587 -0.096819268535406149967 0.017559783633676061959 -0.011247884294265495311 -0.0081262570464990559194 -0.2351115779150347862 -0.10655968616527586312 -0.20797964940280702639 0.010204633630372168807 -0.083077265262939389845 0.19244738607074177161 0.032155927693990102312 0.045757514817495230364 -0.0073390033440254342015 -0.027172790256255477392 0.027274082817043070193 0.10213442168061941107;-0.23337708096861090046 0.057582834189804886493 -0.099395452847897469706 -0.2142215451814073468 0.30538556672274769221 0.014930517411460104624 -0.13664884878775435118 0.2186993937139837807 -0.11609053930914417507 0.0074834224132716183064 -0.13778468016319778133 -0.11365356388967952361 0.034342704137256561958 0.16496584105248693342 0.076265496382663042207 -0.04872984163915534267 -0.094244861837705640184 -0.11606554299309287948 0.10465815589107295425 0.073264588048008269516 0.069793266996952763037 -0.12909198428558046889 0.14517971353381065036 0.12300752238738306421 -0.031966065166099615069 0.23750198318224646776 -0.16846636316546223511 0.13223840023496974405 -0.16133195590595403313 0.15558424564852091354 -0.011918244855039407046 0.031852595612349959842 0.02610995124214559801 -0.0041374861430829145553 -0.0864628983971598708;0.12106550595573642437 0.055507093311697106031 0.038465515111374817825 0.33286777394879751846 -0.18826460962149671463 -0.036219071709915028057 0.46066158664700057601 0.16095764096304923663 0.49136946676550258273 0.45975429853546662118 0.41945861173640935915 -0.0077746891281574607643 -0.0075839256012803658163 0.40102184757797831871 0.074724309046825199143 0.47202032835997453919 0.15808396573686417375 0.37173402648967379669 0.032320022543257921621 0.45696998066090110946 0.1198368717933884775 0.42848342017700974393 0.14699370859042318327 -0.037786260607880130247 0.010480479856842939493 0.499701039624966592 0.17404673586196584001 0.30793814900087562725 0.14683054482146545849 -0.17100079696860204237 -0.13179692196112569036 -0.28267230485938138473 0.17033990017582520404 -0.31968940838369347412 -0.067287543642704158997;0.18049132827379285593 0.067762773277511581527 0.12342031075613642266 -0.14683396043175925283 -0.03775264588939469812 0.18880755121959938436 0.1282215586192128054 0.15285677700827104974 -0.11645510052040983218 0.15366773134562319858 -0.14483569325008463502 -0.28011272338627607459 -0.016236874866077066065 0.077420900016077390249 0.14746135929524889496 -0.10847919538318452626 -0.024191128671484107143 0.031157968672281936146 0.039971894586901673962 0.098710713648570105883 -0.085085412727798140353 -0.065485705934382007487 0.16755780411349902037 -0.20924996420255045915 -0.22221956891437014137 0.071047022067921336563 -0.15969583316489319169 0.24211599082141208039 0.0050071702492307844715 -0.24124929060971350703 0.026612658703489788098 -0.024803344202049690953 -0.01688062273121756704 0.0013911040829841648907 0.083965478281786812276;-0.34725689421050554007 0.01276127341555235474 -0.0015583816553488493654 -0.16188460740472970789 -0.15855946324012359927 -0.061962791916835305295 -0.48567518236850693025 0.22479448520884001694 -0.4330637076032518018 -0.43951303898839422235 -0.35180626265227793459 -0.083497306658904188459 -0.19206120171764623494 0.0019938942377710276548 -0.26028908980277931651 0.28198316659907091131 -0.41407204804253300301 -0.38124284170867261956 -0.069639458338135978854 -0.21295606087660928774 -0.4280651528889329871 0.37697729047786004974 -0.35714656917475090525 -0.22123699286608780601 -0.43495806319491076009 -0.20604846552347966249 -0.47111854382233425698 -0.23238302878486394309 -0.17648021760024501514 0.19542659705053111452 -0.24442037528311671979 0.31968214521775617509 0.10829935487887121237 0.21331710507597570481 -0.05215022670312983305;0.10160897146815317527 0.067901029676418450665 0.17885290337290091212 -0.24135030533047271972 -0.16144852285429081573 0.08306112462601350499 -0.24494704833227257113 -0.1043418218670639358 -0.020684899864311389467 0.18999950610377061566 -0.12313390342407515288 0.11386252396129788178 -0.16544616910851245306 -0.076961317956522320993 0.078544512652108808282 -0.14514210795126858411 -0.075435191926135736207 0.085259767555304691311 -0.05743772123470864549 0.18824667133184505574 -0.1811226394622105218 -0.062079520878995965438 -0.092823602492140985798 0.1837959817505104565 0.18683223253751374271 -0.018836681481662134741 0.044134718421760942009 0.2076544881922438579 0.17976153099757027909 -0.022532709276371191282 -0.030584306891281703294 0.035076387327315723674 0.035600907256196127892 0.020683966284807904501 -0.070507574658923322097;-0.11152930927634234493 0.13176108748022336004 -0.1062822460877338171 -0.1961068237545925963 0.0064025151929797494837 0.015431197891832630978 -0.12043612172915311997 -0.24183025708602920445 0.024891770416157414647 0.07313626621435961872 -0.065705925975687182183 -0.055116270593194807703 0.076195446046475032165 0.19078712697221308914 -0.028503392790697950482 0.277771108692088875 -0.0038955651832585950697 -0.054020783909441809356 -0.11562210890929973395 0.10434225965277237058 0.20619650609684070375 0.010052486199674220968 0.20088302262954832456 -0.04596346617257789785 -0.13265725253372787074 0.077568234356640439198 0.32859256187174390451 0.11291647542879088006 -0.0075016724660105461517 -0.16764582932640378909 -0.060959202539674461896 0.025778440703132971673 -0.0072804376286549430525 -0.050084443270929077108 -0.1441399166059905701;0.18621568362039697675 -0.17359085461601880818 -0.08420332199256565231 -0.02557120226625854767 -0.048923176439640836399 -0.25961628823300592073 -0.33009314491612473663 0.20240778119447655481 0.19900111921783231184 0.085940199542150638723 0.066893713061146983789 -0.0506952681380994849 0.10998673144803487733 -0.13100652056555242564 0.033222942638288850692 -0.080028603341639914515 -0.054800348218029343306 -0.10609579461834070524 -0.18207372811416872027 -0.14351906010740167474 -0.0046767282368938975154 0.042008563017007401197 -0.12186625838482151307 -0.16473130261001933672 -0.061096268092842291597 0.13972905398498255969 0.22571199484543225111 0.14647946540819839489 0.024892345504588894722 -0.0023239445879032444124 0.029010601997803513868 0.031030585508294843133 0.026776779672180502784 0.070855595129102236229 0.028560767435775374912;-0.1867276875076499254 -0.42003072823510845257 -0.37112618159231569592 -0.37522186614390184989 -0.023837742884865641135 -0.0014892021933540424295 -0.41228081707313840587 -0.33207240605209836781 -0.15786524070595769897 -0.015117415296568181837 -0.43304781948607024011 -0.26225076999075874751 -0.075587776378559248802 -0.32182158242566261119 0.099834204036263626825 -0.30425198255626001442 -0.23893422194974142658 -0.23772892790351474179 -0.41553706800725481729 -0.43008531471303512728 0.16257553705127189558 -0.1157052901468610534 -0.39241398006710881408 0.0069555540939486137225 0.061926935739760033406 0.011263978684096724592 -0.0033008589728234097663 0.42279199261287392364 -0.14352030729991524516 -0.29537763751857892824 0.21178617495741605681 0.29678207846935511505 0.33871090749770715878 0.38538640679533542333 0.063888433728886848129;0.061020527495517402905 0.19308497668388771573 -0.043984372320109835219 -0.14771897313032394949 0.1196350402165846788 0.038065128594627857528 -0.16931823796714279284 -0.14964674905053493292 0.17757844414211981787 -0.053572934995406232273 0.19434803196859148922 0.0015826386128331198979 0.12791886284411027597 -0.20415703131647247592 -0.10574988236084476023 -0.091471975541970798607 -0.12430705762373263357 -0.040756398829337188439 -0.036912199349552615724 0.077673522025516333889 -0.04759497854956315499 0.065190133830993091113 0.021338992273971835872 -0.057631873930085807112 -0.19313289474270847745 0.31232993046626733591 0.16985867233831872247 -0.18507422203499357405 0.13240470099896065048 -0.1212220179346272797 0.008007866371615870657 -0.015315196096667199957 0.01283018726335137874 -0.021416872228586139593 0.016147882969389567437;0.10668588239008748586 -0.039026794487404925516 0.30696920894802204316 0.38500642421157837969 0.39171548967560820831 -0.019050459111889839897 0.32315904170900261461 -0.30119987608932369261 0.086671669848310539663 0.48068169783479397505 0.41143263433238935756 0.18528834663662638316 -0.16465319771595982035 0.093718864985509839349 0.19520016883959082077 0.27963959184551634429 0.50644561136747623387 -0.048422732518993163997 -0.19747547753688887706 0.080117351889795615505 0.10920738540118624105 -0.23715816790579744011 0.36021202175899397213 0.51925913778213816929 0.41471346780645024221 -0.081033590688364923182 0.57824891931364030828 -0.21099946547696729615 0.39297774190366513425 0.066075682612549660466 -0.014631649051591671951 -0.33704535209545383179 0.15904483973383826134 -0.16997586304912842836 -0.27398081891052949999;0.14850044250359623055 -0.12916628548429412437 -0.31825078806197587555 0.18788221312822703246 -0.00015512069899543959252 -0.41957028239761667843 -0.53271436682308381805 -0.4725639982818399254 -0.03185535722143650883 0.080821337024968548102 -0.40237144802673308064 -0.10858106442368417599 -0.47429291296619557894 -0.012117736115365668886 -0.091192969637883397604 -0.31351468157968154227 -0.28896910098372263764 -0.29278409970582214283 -0.17242956176541843205 0.25695657345292377549 -0.47228328309694739273 -0.30779979576417337839 0.37459168974175999223 0.19235801872245633648 -0.44892230997666254799 0.071708098195529049179 -0.27869188158515645348 0.034752947809077248953 -0.32769556775912533908 -0.30346579218721109195 0.19314114991234881957 -0.12685748820057740627 0.29819234687191881195 0.014133882513944737852 0.21913344294142653168;-0.50913564993412230297 0.29591983901712215488 -0.030048594491303589477 -0.33626176796807905056 0.12055096019878765168 0.097225952063766038491 -0.32253130213895903067 -0.26664026564399240238 0.15699421535712376752 -0.13132468227018384566 -0.4939997775295573712 -0.46977337876091707081 -0.35743817596405519366 -0.089392657792793511762 -0.35605077003541035774 -0.076824576568390381959 0.13674677930557654904 -0.41949113752102556996 -0.062433351384602021883 0.23231197744439280317 -0.2045518531062065215 0.092797391328156411672 0.029390842797278913384 -0.24029123318866049686 -0.019986905540677769172 0.11317939958724765326 -0.210981904414596938 -0.59011297258123629472 -0.35476401815600033807 -0.058725204218140078516 0.28418478599336094437 -0.071045141893204363792 0.32446715308044038473 0.28402152635681693349 0.33900431410901016305;0.037870642944877942748 -0.062795460359155702568 0.096735272129909982697 0.12093359527781107066 0.20882680171588557938 -0.048944668266400134793 -0.30756235783384677784 -0.21307742413873309584 -0.10651581186714408067 -0.074649391686189683903 -0.093587117799188032641 -0.25218911946900024468 -0.13661062315723657146 0.12666507535566717824 0.12487496112928817005 0.040566141684568172987 0.05789000997541336041 0.053620378341797343691 0.0061804946974521463021 -0.094949021816566087084 0.010003938570210818212 0.17141099863639747136 0.21930763366032537953 0.097072976450215869848 -0.23117672401668862281 0.066189041167360490592 -0.020330775605327595923 -0.27565577343106500985 0.14909658475747186723 0.044009322925290729478 -0.028787379298701062241 0.0076478324699807750248 0.041168369687614198016 -0.0046145795452411661822 -0.021349809333502212799;0.026630200355967206804 0.069889013591186710528 0.21338379407025284684 -0.45147482636285340973 -0.4330669365487847533 0.23000070052186211145 -0.45316700693836092784 -0.52731958492668917771 -0.15020763301094255948 -0.25032557504549041161 -0.34206515338717241592 -0.43314494663704650179 0.40025655010323957228 0.15989360092458379525 -0.23551629559740477893 0.15077022432771405858 -0.38894920075811706406 0.015408740417376732765 -0.066837281147468785569 -0.28996019233861086706 -0.28788349465301782404 -0.065338571877836176816 -0.26171332444263067929 -0.091276800929302001619 -0.10384406472270674149 -0.40753908822046291949 -0.37266508578164458942 -0.25791314726325359485 -0.19049993248779195643 -0.43051739575496605905 0.33862910870844648015 0.31492364478155937535 -0.13726563081444700942 0.057600184771929116567 0.43112757856943340062;0.12195143909807197591 -0.080836262565022562465 0.14752701245557287013 -0.0086586635727220074427 -0.15142441787488275518 -0.21447998854898533971 -0.3229151493114343352 0.0016026522774194127286 -0.029390204331279978778 -0.096930823471439275796 0.083279410997778052783 0.05233905109755700169 0.053728820541162569668 0.087976877708639072972 0.16234057787037622922 -0.035840129804983654471 -0.020251726728140417161 -0.073210913850532174929 0.016305560904345525741 -0.020017030635759679169 0.004673769534073338866 -0.023292851202228740531 0.0070707926631077633664 0.27219546492951351979 -0.24947638559466944752 -0.10098053143038492052 0.085196529557692149415 0.084948652620143394465 -0.24154033907838540207 0.064504754707599587515 0.043911099953266946594 0.040958537709676140492 0.015899809581163708294 -0.0007776724325678021927 0.037081470817496901826;-0.052833428378217930921 0.12720154107584982772 0.079593571320634756705 0.035972316447551208607 0.19513761589784284212 -0.23763780155302707819 0.10190745244492691035 0.10519395227552413852 -0.14644624516635212919 0.26413251748052024581 0.065715535350948248161 -0.30747626771606612062 0.11223905971780522017 -0.18724731615885514824 -0.047203637230524383983 0.08625870014709993705 -0.13421065761095596347 0.04938087370760080308 -0.15787731722889070118 0.11492581722376950248 0.11614137126166658442 0.11708354829460375368 0.18181538995713705797 -0.051357167247344591432 0.010979102958427126857 -0.085467147031649343125 0.04568051345757564996 -0.027722103179555177693 0.11122682400429609317 0.02104727532317333949 -0.050976790294561147299 -0.015464937148294765137 -0.013481448954188146941 -0.035774230875308885014 -0.087782602041829596584;0.031839005198452584311 -0.17696140282647504494 0.19334765299591460952 0.13853976892488958916 0.10028521591969048743 0.19420667111473424726 0.038633990426566913734 0.022902231775599315999 0.1386407445097845581 0.2515010797009335497 0.049407714208038820691 0.18722377089336703082 -0.087021228555442906027 0.12282858170446259161 -0.11765164853471477002 0.12569206287801598654 -0.2234225221366674119 0.059267992813207687197 0.19553454648301571428 -0.065059671210884309489 0.013214632664283876631 -0.083690395838715611609 0.03117785422669054271 -0.32604889885165877494 -0.17495857190832878048 -0.18270138109415609562 0.0016310095649078612621 0.19871160353685282662 0.070183516114999955349 -0.040669247986934428662 -0.0051594002461257592804 -0.07791710622120097407 -0.088488812180166229182 -0.060096167405229716785 0.019335836345160922756;0.11039174008447016906 -0.2116004281781443952 0.18391710057738580586 0.22473066617944389978 0.075911772839044031058 0.13408228199813967962 -0.14501270029113441651 -0.080995559111517539952 0.068604770539286361042 -0.43009611697688121534 0.22100318795481219136 0.43837189808539678282 0.16209524517948173394 0.21757793366914091049 -0.13455962770543664075 0.077023167693073518736 0.23611520088049106625 0.23855335860593623876 -0.11142361349075638466 -0.16549926489928185047 0.28962654327147246969 0.11872696459577343486 -0.21448633250146625917 0.10201433088813773031 0.35388904866460269005 0.20908867202878686498 0.36540980576588327766 0.44488852165434661368 0.069291843248911022535 0.20940812816161447074 -0.091135690049103892929 -0.16121893185814956118 0.22071301175584795429 0.19086785428096786355 -0.32037202412457799205;0.31491348733808299798 0.024728078145729734394 0.027920216838370481849 0.42343936160586526096 0.15778525396845438644 0.51920427674042679556 -0.19327583002040971127 0.53089367588637081941 -0.037133369557928994076 0.37909223118958945697 5.9072161091776128239e-05 0.56411381927086268195 -0.25348749460819042234 0.49763812252293337934 0.14399065094450708147 0.46743413792048726929 -0.26641026850650950664 0.18589392590949205264 0.19923849957090786211 0.092563110016473659769 0.15416893647568608028 0.22526886299747150844 0.4237875570216906862 -0.29665752929010269501 -0.055838341814027331322 0.11509073391988380863 0.45774890117065825113 0.34773414079462960924 -0.25082852786571524506 0.11903067180927663637 0.088662407033372914178 -0.01870400314884256357 -0.23563494244553256918 0.022699744977965025799 -0.05543686292846909669;-0.030138771483939123114 0.11790515186565143912 0.12777355795413358752 0.12059878768120257941 0.13454043571593429784 -0.13461879104263110851 0.068663008871379382914 -0.16323926255003304298 0.019333799069587070951 0.30595979230289360729 0.10690478060190862497 0.25929967562975020368 -0.064320548500900548428 -0.096303564196698582256 -0.030965086902481241821 -0.014155865035088213699 -0.034858829975461212702 -0.084049245698237684543 -0.015925992876472654797 0.09391146883936218881 -0.16812304445140358045 0.066076521349295300189 -0.064524859537424206213 0.35007877761354827539 -0.089053406037632107384 -0.053488036790687726318 -0.12937324817813025679 0.18160996644294721825 -0.10286550092854243599 -0.12271741472043604104 -0.0091574109720859598466 -0.049011320405592015415 -0.023497332169935155471 -0.0043184873120881333078 0.036509736232059684935;-0.092445497955324182349 -0.10315596181925010266 -0.059332754917177807363 -0.14961087372925360728 -0.0431224007984976343 0.045319283700867921127 0.14894706090756101857 0.20078402971856179615 -0.066027894503584594332 -0.10431057175914310031 0.14554187554456998743 -0.076634845391002279213 -0.031088737330013448829 0.075714551473378466362 0.049931889495783178534 0.034480096447990715713 0.26654742261986036356 -0.092819154496025776946 -0.018568534248361329153 -0.095577424958973658531 -0.13844475915837881064 0.30102434056675492213 0.079238111844875572243 0.21132825067509969363 0.20796677959525600166 0.24811367934183156669 -0.066615450746767460033 0.0095858145611689166837 -0.05105386934210186245 -0.10655787959346320337 -0.061676159793964201172 -0.010576375354433866643 -0.027471230958352868545 -0.076857759995316340951 -0.19105487450484767709;0.16766493143986416214 -0.12782929592720596035 0.1595217001632623921 -0.042939999749637074167 -0.14899663020021483573 -0.18602659211215344381 0.23652927637738241362 0.022168281234921000805 -0.068117381337673171826 -0.26784193655206633977 0.19710729892988190781 -0.14520146665271826958 -0.038753718424622836392 0.21093646851638964135 -0.10420084359664902318 0.16862393145211626577 -0.025874569303580799429 -0.22375625803040172235 -0.063545659823469977101 0.11188557054169248617 -0.1600244584316403984 0.035641745013864023495 0.095065229562733596924 -0.13466818395296667465 -0.11300027158547072681 -0.17094894842637628485 -0.12076247567185405263 0.086363666149800913385 0.030663831036996304358 -0.11311301854876933126 0.059123314651421579602 0.028555906965435862155 0.04090322210956551241 0.07635460867736706958 0.12668446662962007387;-0.21932293018547474595 0.065449313446922868787 -0.042401618376517735687 0.13867492658192734356 -0.16206640111744738397 0.21854025727638207166 -0.18389652538977124818 -0.042327850334833327928 0.023820176438778657702 -0.030107725115909301367 0.041104818960736214106 -0.11122093322526294124 -0.040484724937836662206 -0.21099964264282505821 -0.18923501768903677744 0.12282566967292812832 -0.10117375645015549979 -0.13126186816412321878 0.23879403277892960467 0.012604515968433349302 -0.034550447457014216157 -0.095628099514719649976 0.054026780254140330251 0.13429442990849513317 -0.1765869268467840647 -0.1946777378819538884 0.32548785457486989481 0.10811899163874932883 -0.18068261342026470384 -0.060815368282908413566 0.044309860545763975204 0.0099501764509192548724 0.039502605659313017039 0.048748024964993030839 0.069836733228376857152;0.19161377720570141325 -0.077109421499836988678 0.32955088978656521537 0.034661089465781273755 0.36530211373031434841 0.41603590899726444752 0.3298816012519391605 -0.21078951668559428589 0.32382353203299385491 0.31552272170426803877 0.39545042210956632411 0.11693132874995362802 0.41353816406446203269 -0.30184921414437243525 0.16991181132969329637 -0.14920646217043811999 -0.12403741389779113224 0.33177971255530253059 0.35216650831266577137 0.27819611058138266069 0.39010335622997965865 -0.20973996143074827292 0.0024899633844162652983 -0.24978411899934924167 -0.12632163542270452572 0.3072254390346094155 0.31214577344765459532 0.046395547073819896899 0.39077575997626645687 -0.14196196767984997633 -0.24900611861081992093 0.33653637765597577136 -0.24613231071607813427 0.18643963110189240573 -0.34118143676460865876;-0.10188332812606851197 0.078394573214914400894 0.016492462308133615245 -0.0066984679488656844251 -0.33333804545325890212 0.034453404469618205408 -0.11967964931716411348 0.05664663041666219423 -0.02617131593097299716 0.011463841272661935353 -0.09601877702069511189 -0.072250508434196197838 -0.12238719318020159499 -0.00200332819848901382 -0.036578377410045700979 -0.084931595461746473008 0.26256596947666205333 -0.15150269259299645186 0.09629196674268408751 0.1796930406415485626 -0.053355723791745045259 -0.2728976764683372358 0.12000050182925840747 -0.14922566170411891151 0.13834681017779193457 0.27039455773444215358 0.082089487287388490655 -0.20377109212171040653 0.011389819878640952341 -0.18122889360086408272 0.045166886436393841042 0.026432478543362745993 0.03309697404022186179 0.031582928998851123037 0.053326643893651007322;-0.35740818950309066748 0.14437677125160700009 0.29795840514822624634 -0.36791287879926309889 -0.40759521963437789216 -0.13897239533210686835 0.13363334484670824631 0.027582371663137563583 0.33263167571031548864 -0.36157204450348484626 -0.35565738495930887542 -0.48849641655451592204 -0.18837699541904331935 -0.039624178249485178527 -0.21260276049408163845 0.15421547530432536122 -0.35233299150028996038 -0.18376817357408431475 -0.34819281239639310321 0.23120239653852939221 -0.37800403416015188052 -0.3515430456750020527 -0.30550432178991016041 -0.16706248407460472238 0.032840728650771519592 -0.38887268572807565103 -0.31120847990835603936 -0.14467089748427991447 -0.13563489199091494086 -0.02318613096598194992 -0.077994916874950942498 0.32879321620562401707 0.3077246138033881695 0.39818810915364177827 0.11172697451756853637;0.42355487693024351792 -0.11511618189392482103 0.55270570530477658444 0.14617470732782703036 0.38288636481583115945 -0.14488205651674554431 0.24053749345409000671 -0.33680607711400306625 0.43404525084089834452 0.38904363790559631786 0.069617387221042409395 0.41425718495428631716 0.45538239423616311274 0.31096721137049110339 0.011597096621296505009 -0.16424427431912153041 -0.21199665818147667151 -0.1202778320915681709 0.15693562456875989608 0.50917382906372632423 0.0052893261161573845025 -0.10936992555979627162 0.25828411324457478671 0.061096082161094036889 0.38421815662421326953 0.12977444163668475086 0.066490186146648339038 0.22863340866999218304 -0.18345220488565650019 0.20477573984056937628 -0.18319255719980315211 -0.42521372421300007716 0.10887634299882976985 -0.26787170026011125623 -0.014020507990455954861;-0.19937909936833903002 -0.076219905653381408994 0.24281666061404197365 -0.2281279944561056261 0.070591480806957457306 0.091464056438433374852 0.027282647159719723706 -0.29230347359501840376 0.15407135871982385877 0.037382279965068605787 0.014579348269008036987 0.17750733984079805627 -0.13974005698843011691 0.19189216206685993926 -0.022587638049431892767 0.064303686013424066203 0.18791993749176857942 -0.082148068996925824314 -0.0080251424470010775114 -0.084704722981527674763 0.078617583858146100617 0.11447089636926785494 0.084772218534333226847 -0.19393967086710764414 0.12677944948245112311 0.2238409903774652987 0.19220429648072917539 -0.25094436957804255872 0.10473249850982636888 0.13944648480862559259 -0.068463091617100430009 0.02297626406363783777 -0.022019271919191660269 -0.044736936107682236108 -0.17690940812292763051;-0.047722473597434901527 -0.17796976835359976099 0.34694020795396046664 0.020624617597134718011 -0.54359073141841440791 0.19545231846332741799 -0.23785172995791140083 0.088353648508836035713 -0.05355416042583735492 -0.2695387362190845848 -0.14427382024802015703 -0.2787060983931940461 -0.088996355462384504897 0.2697888596236709402 -0.14340137237366334944 -0.19705923153928650571 -0.27606276179962502271 -0.15878252071345394514 -0.12451241470335193406 -0.013065699336487221829 -0.068553843308095885334 -0.20456784373417102874 0.231962797575165941 0.040296120283534693496 -0.26178528974973225285 -0.21989705524696021022 -0.13617132174102208886 -0.036508183038272704057 0.23617216910881230763 -0.032348860246679288222 0.43590064299268410641 0.055240239621258978298 0.11192293020605605103 0.034026558372115572881 0.29481679610856559304;-0.15000927279730758013 -0.12506952725107503555 0.2531726577309700299 -0.14580206979567128522 -0.14055389785045382944 -0.10065888857577126592 0.12448305180489503685 0.00082077950105422078832 -0.17735052694165795439 0.21048918694652338224 -0.0038209520734149432508 -0.06116851706827115126 -0.14804670382729459566 -0.14540730024643208629 -0.11821784436552759678 -0.028064111780208081393 0.10073420399113298951 -0.012035668581991386741 0.15848555302917488596 -0.0061408772995550078497 -0.20686947421333978792 -0.074750364030466379117 0.012865131549336199929 -0.001277923511600752033 -0.22837988286952123906 0.12905465608575769632 0.073973890649923365603 -0.22959014892681123277 0.16617666166366626412 0.22192586989409693321 0.029096336527000533911 0.040847139731179864242 0.07419527530041340746 0.092217840582299315244 0.0093339584470723425264;-0.033872886084763770276 -0.030156222813541858768 0.16980011242070114363 -0.020498444222102129436 0.066165861967570877011 0.15533680816453307449 -0.29901450829910880547 0.30609762038205962087 0.14031236950726491686 0.15341097361037134283 -0.12889212461505764051 0.22069578664565087101 -0.1517017069335676871 0.16326066306474884549 0.062759856171452160778 0.10472840370920395714 -0.0032438579523481718414 -0.12792989897297482593 -0.19790547127264865312 0.01814040344049917472 0.087284513741307107049 0.18893149688851065826 -0.047828388045624337099 -0.16129125422273549173 0.030857459698996100861 -0.0083099780441575153006 0.042565377809353557859 -0.074431352161199587636 0.085760216397630303908 -0.26533775837548922993 -0.029371568010681938649 -0.062127791984938236791 -0.043100534138765841941 -0.042379006139925581853 0.0033726504447784450176;0.042451040969382909662 -0.063408549909975714387 -0.28139201657090734399 0.041908175310837895988 -0.065391027670028994967 0.12963127933116164181 -0.19985784246546103859 -0.23137576131816206537 0.36271924450452430744 -0.18714254956051834533 0.058114406916933578073 0.28338235117722854195 -0.26570756564136727151 0.0048850674221314780918 0.095003859525678288622 -0.34825706022433361442 -0.1339177406835524442 -0.13827362108273269503 -0.24397830146639384874 -0.023820896240759337203 0.18350508831619935513 -0.22163003992482754878 0.17637645385378714069 -0.29679930479758870332 -0.2905119271319758778 -0.078466063263435970043 -0.039134379078471684399 -0.38820263280203520795 -0.022467908787870839726 -0.14851614113323796662 0.14985163898611295052 0.33960986126915654326 0.12719891643927852543 -0.34465994048433340469 -0.10795063406796139016;-0.089765348066482592015 -0.052682351055697178299 0.21161660432251214181 -0.25159124583814251874 -0.084606499926086251029 -0.15507842052662190735 0.085389993063720318056 0.3567122440679618145 -0.064887143474573569235 -0.082939538285261543704 -0.11024214162117602911 -0.11146095908342061598 -0.015571053967788918079 -0.048842050152974457455 -0.052823254725267249077 -0.023121447016953965842 -0.12429690355332280449 0.048781786889882237934 0.028093021534014408352 -0.1767509887595306306 0.11098556528991929127 -0.021551244942265415649 -0.0784796773709350165 -0.010136327583144574827 -0.039232228986162832884 -0.16496661604509307852 0.29533139441221029076 -0.088103269329017089295 -0.16872848288158462382 -0.29719679392533487894 0.11073249097983214884 0.029793812575171937235 0.053072602564852570939 0.052505345340058753867 0.16965812993809015197;0.11633735968380143344 -0.15508796840610472589 -0.14414258343278130159 -0.21555733291347656255 -0.23474422752420390226 -0.091089758150569036244 -0.20472826040943356563 0.17972928680776834032 -0.21171455628123708737 -0.087098175642268835239 0.10034340626005787411 0.17895793518881353279 0.032431651309208095468 -0.02288229716129581634 -0.050251613687476145986 0.22317401217347368481 -0.11916693832158521682 -0.0088688451033326707457 -0.022653418278893770743 0.24529701380308080449 0.070019746805281946056 0.086293994899885151373 -0.098510496692692087195 -0.099175760329142922944 -0.0068926139613790411709 0.20825284749044328803 -0.21940522731049505456 -0.18274295476641883029 -0.12218512640777773326 -0.097517521500248102728 0.075975264485618865251 0.053770676877715445352 0.070000749109595111763 0.012722621088956088953 0.048527494825075463691;0.039018195963289661887 0.14855491472244095053 0.20354346018802882412 -0.011727657678916513992 0.14788776989540666773 -0.023639538099131475468 -0.012921391865169015375 0.0098716507268473696612 -0.20334223198622217166 -0.2360304744682945044 0.12661287670216353485 0.1793135227496373274 -0.13988597602950086918 0.20120333573430668195 0.17802720476929012605 0.244121223475766147 0.0024481153328792504796 0.069138356855154042835 0.10387880841645284746 0.15732723892068992133 0.01425601861920997894 -0.010156621798048834707 -0.10951688252858618466 -0.10547546702820394249 0.11537358190339018493 -0.046870006592713057969 0.062873174762777497837 -0.039078678327402534276 -0.143935401023520676 -0.063921135833491668499 -0.057249498075744899295 -0.045127622042089234056 -0.09628354911833113261 -0.099741084593618550835 -0.033242722657585925539;0.14854822429032818465 -0.14343633942287231653 0.085344059209939732158 -0.070281936276551687515 0.13360577202937226615 0.19256320126683384997 -0.054231758878832560244 -0.18683722349114975647 -0.086092535481160525901 -0.17857029115095685023 -0.017509404932061614635 -0.22207289142059391529 0.28054176170039624161 0.039134184416876334478 0.042386538144231759861 -0.14531434024066872124 -0.087049285322207584081 0.036912413480886994976 0.020282659965652427569 -0.13860804319530559137 -0.057062347984285347047 -0.21535773779828831787 0.028974691454628765525 0.032343838138389778558 0.090138845717172288996 -0.049563503573686246151 0.18733850689221231978 -0.25099600500514346324 -0.084649150403540346366 -0.24839400929818949981 0.081179992403315262561 0.043306560799235602199 0.045913352705237893414 0.062170899074901045389 0.17496107643489464123;-0.0039367855261941073208 0.034548845940536712651 -0.11240723862081657136 0.16579765327403497843 -0.15542661752308953305 -0.085671178171322109884 -0.19532077618041146505 0.096280286050014915467 -0.083671479801572135049 -0.22665362537453742631 -0.17132881937690150331 0.065985984944687450793 -0.1081721563148711901 0.063527316156478108589 -0.19476347961335238601 0.26827419233149918387 -0.22962733073648991522 -0.13140620365019770044 -0.23688536795374334765 -0.041421033111135228955 -0.14583833662484327331 -0.13318503748186449887 0.097903023983802364705 -0.0020694931171264807634 0.14559783679665702638 -0.15868099580215400124 0.20310765124349217103 0.063590824754759717186 0.12441224283706396603 0.053211059595106434406 0.066154251556768267628 0.067433388601714078225 0.1039821401216662472 0.12415945398122232857 0.079295093002972411034;0.035914617394603887135 -0.012711326839317943493 -0.064852300510285440516 0.044509615034323657401 -0.030327901625262485008 0.25624411691015780423 0.071371092286687448647 0.29432365787320413641 -0.038982886176047400195 -0.08710140671684839242 0.30770309838362447374 -0.025550363277718163985 